-0.05892890319228172 0.03724420443177223 -0.0050553022883832455 0.16408486664295197 0.15475577116012573 
-0.3419598937034607 0.04660207778215408 0.08417421579360962 0.04371871426701546 0.15904764831066132 
-0.09340725839138031 -0.13534419238567352 0.07990866899490356 -0.060154855251312256 0.07368971407413483 
0.019597509875893593 -0.1686004400253296 -0.09433822333812714 -0.16281326115131378 -0.15642978250980377 
-0.12762780487537384 -0.07883266359567642 0.03929159417748451 -0.001845878316089511 -0.0004248822224326432 

0.05769306793808937 0.05908889323472977 0.2911522090435028 0.1350255012512207 -0.15509571135044098 
-0.1601559966802597 0.09605644643306732 0.2954288721084595 -0.028724882751703262 0.007435086648911238 
0.012733742594718933 0.23946461081504822 0.014435291290283203 -0.09597587585449219 0.11337777972221375 
0.023556124418973923 -0.02333846502006054 -0.02458878792822361 0.20760902762413025 0.040998876094818115 
-0.24119022488594055 -0.3143360912799835 -0.2741389274597168 -0.3531811833381653 -0.21176087856292725 

0.01974460296332836 0.018560506403446198 -0.007299806457012892 0.04134554788470268 0.1344739943742752 
0.14495578408241272 -0.06765800714492798 0.1773078739643097 0.08770473301410675 -0.02651110477745533 
-0.01317687425762415 -0.10190394520759583 -0.1010405570268631 0.02793312259018421 -0.033506009727716446 
-0.18917517364025116 -0.20613393187522888 -0.09031303972005844 0.055488403886556625 -0.12457297742366791 
0.041784219443798065 0.03566928952932358 0.14831049740314484 0.15902270376682281 -0.010164527222514153 

-0.2025870680809021 -0.05488363280892372 -0.09374850243330002 0.03396415710449219 -0.2474200278520584 
0.019612405449151993 -0.12387599796056747 -0.19567689299583435 -0.12116234749555588 -0.033523961901664734 
-0.14694716036319733 0.16987250745296478 0.029863566160202026 -0.03414309769868851 -0.13789808750152588 
0.13614939153194427 0.0790945366024971 0.12690824270248413 -0.12888900935649872 -0.08394140750169754 
0.05648760497570038 0.037854816764593124 -0.21491989493370056 -0.32839369773864746 -0.308789998292923 


