-0.02430914342403412 -0.008735045790672302 0.008694864809513092 0.13933832943439484 -0.0640522837638855 
-0.13188499212265015 -0.18593834340572357 0.03100518137216568 0.037946734577417374 0.26612648367881775 
0.00134845613501966 0.11922149360179901 0.3058653473854065 0.20107881724834442 0.11050274223089218 
0.03524016961455345 0.15597230195999146 0.04430025443434715 -0.07568226009607315 -0.012463845312595367 
0.04290315881371498 0.21077057719230652 -0.01700689271092415 -0.022625677287578583 -0.1282462328672409 

0.07307036966085434 -0.018584713339805603 -0.07928702980279922 0.19968195259571075 0.11357684433460236 
0.10211361944675446 0.048677921295166016 0.2612151801586151 0.07825157791376114 0.02259248122572899 
0.050118640065193176 0.04024088382720947 -0.04452337324619293 -0.10383401811122894 -0.13355351984500885 
-0.1648326963186264 -0.2653787136077881 -0.20604126155376434 -0.2777274549007416 -0.32156074047088623 
-0.11760164797306061 -0.17826198041439056 -0.2426386922597885 -0.20502197742462158 -0.2430635392665863 

-0.06675878167152405 -0.11046328395605087 -0.03562255576252937 -0.21538318693637848 -0.1451418101787567 
-0.06330584734678268 -0.003354658605530858 -0.18564529716968536 0.024609453976154327 0.0068665179423987865 
0.12348443269729614 0.07377415895462036 0.04238199442625046 -0.03239159658551216 0.10402572900056839 
-0.023006685078144073 0.11525224894285202 -0.030974937602877617 -0.0775802955031395 -0.006657187361270189 
0.1430259495973587 0.10945931822061539 -0.06670336425304413 -0.19823159277439117 -0.12789377570152283 

0.03412903845310211 0.18073774874210358 0.007751619443297386 -0.07296834886074066 0.13867022097110748 
0.015042661689221859 -0.11569779366254807 0.04623255878686905 0.1223825141787529 0.12854236364364624 
0.24181510508060455 0.08550990372896194 -0.22400008141994476 0.009314417839050293 0.11475810408592224 
-0.13767696917057037 -0.2651847302913666 -0.2514301836490631 -0.08972276002168655 -0.08091120421886444 
-0.09309753775596619 -0.06481633335351944 -0.12917976081371307 0.04320016875863075 0.025416672229766846 


