-0.058934345841407776 -0.20339997112751007 -0.2476392239332199 -0.10297593474388123 -0.013368896208703518 
0.042464688420295715 0.005193473305553198 0.057389333844184875 0.010992569848895073 -0.004740358330309391 
-0.19485874474048615 0.005809297319501638 0.0458553284406662 -0.013288570567965508 0.1215609684586525 
-0.10683216899633408 -0.175375834107399 -0.017603198066353798 -0.04034898430109024 0.027415677905082703 
0.035864345729351044 -0.17547635734081268 -0.04791342467069626 -0.11027639359235764 -0.05243712291121483 

-0.11744725704193115 -0.22066368162631989 -0.10331767052412033 -0.04196995124220848 -0.10614538192749023 
0.16409991681575775 -0.02834763377904892 -0.26627710461616516 0.029817266389727592 0.021320348605513573 
0.17880992591381073 0.22757776081562042 0.15586276352405548 -0.06515306234359741 0.008463750593364239 
0.0227736197412014 0.18263977766036987 0.18232963979244232 0.09144707769155502 0.0725441724061966 
-0.029169252142310143 0.03976067900657654 0.0356454961001873 -0.01749471016228199 -0.1998170018196106 

0.26622098684310913 0.12627500295639038 -0.006012588739395142 -0.024285156279802322 0.03884217515587807 
0.45459362864494324 0.49894413352012634 0.14272461831569672 0.031548526138067245 0.06046707555651665 
0.24703320860862732 0.3213197588920593 0.2899298667907715 0.42908361554145813 0.1157776489853859 
0.016926486045122147 0.3892309069633484 0.27628010511398315 0.09760256856679916 0.02789853699505329 
-0.27849170565605164 -0.09010650962591171 0.06262299418449402 0.035606857389211655 0.013766258955001831 

-0.34577617049217224 -0.22346575558185577 -0.11173523217439651 0.011296774260699749 -0.10610971599817276 
-0.07942366600036621 -0.30597344040870667 -0.24029450118541718 -0.09298811107873917 -0.006712316069751978 
0.26939356327056885 0.031207755208015442 0.012133617885410786 0.16323499381542206 0.10850635915994644 
-0.03389332443475723 0.1294236183166504 0.15986116230487823 0.08711126446723938 0.07896775007247925 
-0.15724416077136993 -0.06651918590068817 0.018183181062340736 -0.10827784240245819 -0.06348701566457748 


