-0.015489786863327026 0.024358872324228287 -0.14158108830451965 -0.15628619492053986 -0.24906276166439056 
-0.2467409074306488 -0.33727511763572693 -0.39946916699409485 -0.30163007974624634 -0.24782148003578186 
-0.06354163587093353 -0.16109521687030792 -0.13780371844768524 -0.05610494688153267 0.1030157059431076 
-0.050413355231285095 0.011768377386033535 0.06916087865829468 0.15272991359233856 0.02179974690079689 
-0.004241568502038717 0.10045453161001205 0.07250382006168365 -0.02029429003596306 -0.020931655541062355 

-0.26553454995155334 -0.3562280833721161 -0.31501007080078125 -0.32924696803092957 -0.31940901279449463 
-0.09855888783931732 -0.042062874883413315 0.06947488337755203 0.030569875612854958 0.17179551720619202 
-0.24679046869277954 -0.17183320224285126 0.005467419512569904 0.07263971865177155 0.13115127384662628 
0.10368070751428604 0.0687779113650322 0.08665849268436432 0.0314960740506649 -0.027894001454114914 
-0.02993868477642536 -0.363462895154953 -0.29410672187805176 -0.08812560886144638 0.024917231872677803 

0.3026585876941681 0.40623530745506287 0.1990719586610794 0.04701760411262512 -0.08094765990972519 
0.30005672574043274 0.1929556429386139 -0.036882203072309494 -0.18574772775173187 0.00807734951376915 
-0.16327185928821564 -0.13573454320430756 -0.026609055697917938 0.18870685994625092 0.17320699989795685 
0.10711976140737534 0.054459866136312485 -0.08122861385345459 0.05206567794084549 0.041340991854667664 
-0.18143823742866516 -0.13100267946720123 -0.0608692467212677 -0.07332751899957657 0.08211377263069153 

-0.05860610678792 -0.12649625539779663 -0.1760111153125763 -0.24908596277236938 -0.1719193458557129 
-0.14479613304138184 -0.22206565737724304 -0.1317598819732666 -0.05467205122113228 -0.03974522650241852 
-0.22382603585720062 -0.09386803209781647 0.17559707164764404 -0.024802304804325104 0.03198832646012306 
-0.20287881791591644 0.04835699126124382 0.21163244545459747 0.2031012922525406 -0.02778187207877636 
-0.02582203783094883 0.10170101374387741 0.26699650287628174 -0.04269051551818848 -0.24354663491249084 


