-0.05410813167691231 -0.12325181066989899 -0.35782477259635925 0.07127602398395538 0.20998930931091309 
-0.06503627449274063 0.15490904450416565 0.4115692377090454 0.49889031052589417 0.30972790718078613 
0.10575196146965027 0.08093666285276413 0.4490812420845032 0.4700981378555298 0.15845125913619995 
0.12226977944374084 0.018414871767163277 0.11090487241744995 -0.206760972738266 -0.37025535106658936 
-0.08945291489362717 -0.0018604116048663855 -0.31026461720466614 -0.6145581007003784 -0.47009775042533875 

0.023545067757368088 0.00629937369376421 -0.05978842079639435 0.004900609143078327 -0.21752458810806274 
-0.26471951603889465 -0.15966197848320007 0.005489778704941273 0.07373097538948059 -0.05753440782427788 
-0.03396657481789589 -0.09646472334861755 -0.11976227909326553 -0.13224881887435913 0.038238346576690674 
0.06576931476593018 -0.12919847667217255 -0.1032576933503151 0.19920356571674347 0.07272201776504517 
-0.0017827642150223255 0.2242453545331955 0.07034381479024887 0.16034181416034698 0.10825599730014801 

0.06428519636392593 0.015900030732154846 0.17043226957321167 0.01627063751220703 0.0032268387731164694 
0.17163725197315216 0.15648974478244781 0.1652112454175949 -0.10708910971879959 -0.24262981116771698 
0.07863812893629074 -0.17222948372364044 -0.06474814563989639 -0.15804336965084076 -0.2954391837120056 
0.0821484848856926 0.06426563113927841 0.24837948381900787 -0.07850629091262817 -0.25157228112220764 
0.1764523983001709 0.3320724666118622 0.17321304976940155 -0.35196453332901 -0.318960577249527 

-0.2007593810558319 -0.37640702724456787 -0.16471990942955017 -0.0831030085682869 0.11235306411981583 
-0.2260783314704895 -0.03591068834066391 0.19001419842243195 0.3623559772968292 -0.011545117013156414 
0.09041722118854523 0.24432989954948425 0.30855441093444824 -0.1562933474779129 -0.425042062997818 
-0.10005991905927658 -0.3484298586845398 -0.5311183333396912 -0.35062193870544434 -0.21445773541927338 
-0.2497154325246811 -0.2338923066854477 0.059419915080070496 0.14032495021820068 0.01584814116358757 


