-0.14900097250938416 -0.12776504456996918 0.013491894118487835 0.05411749705672264 0.15951979160308838 
0.03667590022087097 0.2741670310497284 0.4168407618999481 0.0799197182059288 -0.21721255779266357 
0.020189853385090828 -0.14785432815551758 -0.16349750757217407 -0.27134066820144653 -0.2835208475589752 
-0.01790696196258068 -0.262282133102417 -0.10167784243822098 0.10593157261610031 0.0960833802819252 
-0.19619666039943695 0.17642508447170258 0.06099848076701164 0.06078648194670677 -0.12576992809772491 

0.08590815961360931 -0.014149961061775684 -0.10356202721595764 0.013114480301737785 0.011825820431113243 
0.06751484423875809 0.18311424553394318 0.27764222025871277 0.055335428565740585 -0.06871625781059265 
0.04390553757548332 0.2467326670885086 0.11728883534669876 -0.18529127538204193 -0.09484273940324783 
-0.1099439412355423 -0.22234009206295013 -0.03721851482987404 0.19379380345344543 0.13687963783740997 
-0.1917194128036499 -0.047820523381233215 0.014684956520795822 0.05966833978891373 0.02788906916975975 

-0.0607852004468441 -0.05563725158572197 -0.06703619658946991 0.05879303067922592 0.10782890021800995 
-0.07355836033821106 0.04657253995537758 0.06651560962200165 0.08185848593711853 -0.045974500477313995 
-0.029855988919734955 -0.25489145517349243 -0.2006649225950241 -0.11538030952215195 -0.2208864390850067 
0.021672816947102547 0.027457864955067635 -0.12219075858592987 -0.061524298042058945 0.08400063961744308 
-0.06292496621608734 0.21679797768592834 0.0815516859292984 -0.03123517334461212 0.054677486419677734 

-0.15810447931289673 -0.025103125721216202 0.19529259204864502 0.22288240492343903 0.17237916588783264 
0.12909604609012604 -0.2016003280878067 -0.22846221923828125 0.059568122029304504 0.08562837541103363 
0.0592145211994648 0.07466747611761093 0.18435461819171906 -0.028886863961815834 0.0074151912704110146 
-0.09390657395124435 -0.016325190663337708 0.025371128693223 -0.254976749420166 -0.4413403570652008 
-0.0804707407951355 -0.13741864264011383 -0.076925128698349 -0.07305717468261719 0.002577667124569416 


