-0.07217150181531906 -0.24956151843070984 -0.1584942787885666 -0.02385036274790764 0.04834030941128731 
-0.24027805030345917 -0.1817612200975418 -0.2624205946922302 -0.16302922368049622 -0.09804181754589081 
0.08219701051712036 -0.009310513734817505 0.02323048934340477 0.08335419744253159 0.03368929401040077 
0.05182847008109093 0.33004772663116455 0.10150990635156631 0.08436781167984009 -0.19418208301067352 
0.154192715883255 0.5332044363021851 0.4022642970085144 0.19640348851680756 -0.031122317537665367 

-0.008798179216682911 -0.0180071871727705 -0.01763305254280567 0.011916176415979862 0.06186513230204582 
-0.11701426655054092 -0.2687813639640808 -0.17016936838626862 -0.135276660323143 -0.12456552684307098 
-0.07673460990190506 -0.15645045042037964 -0.049462463706731796 0.031010225415229797 -0.0833272859454155 
0.07974596321582794 0.10919124633073807 0.31756001710891724 0.14386345446109772 0.17920607328414917 
0.055623024702072144 0.27642932534217834 0.2854596674442291 0.07204731553792953 -0.08129172772169113 

0.13571012020111084 -0.03876914083957672 0.10903628915548325 -0.0001922357187140733 -0.08030194044113159 
0.031965021044015884 -0.0870010033249855 0.0037738760001957417 -0.08052324503660202 -0.026442740112543106 
-0.06817134469747543 -0.052685681730508804 0.007955653592944145 -0.015486111864447594 -0.05606967210769653 
-0.1901366412639618 -0.11343693733215332 -0.08950270712375641 -0.14433500170707703 -0.062337007373571396 
-0.2680785357952118 -0.2614955008029938 -0.21494580805301666 -0.2180783748626709 -0.13063663244247437 

0.1476740539073944 0.09162474423646927 0.03729880601167679 0.281387060880661 0.05516672134399414 
0.05291520804166794 0.0007847672095522285 0.045146726071834564 0.1624341756105423 -0.09746316820383072 
-0.016691382974386215 0.01805489882826805 0.01767439767718315 0.01865343563258648 0.1274014562368393 
-0.03230291232466698 -0.028368672356009483 0.007830040529370308 0.21940219402313232 0.19638903439044952 
-0.11552707850933075 -0.08784805983304977 0.024286774918437004 -0.021264342591166496 -0.04509125277400017 

0.007519696839153767 0.040780000388622284 0.1257108449935913 0.03527342155575752 0.02462010644376278 
0.13847948610782623 0.02812803164124489 -0.02897615171968937 0.00011534806981217116 -0.08713614195585251 
-0.08736442774534225 0.04252738133072853 0.15034566819667816 0.07893236726522446 0.040157608687877655 
-0.16959968209266663 -0.3153155744075775 -0.05386953055858612 -0.10058114677667618 -0.04876525327563286 
-0.11737824231386185 0.09286697953939438 0.09969395399093628 0.07258683443069458 -0.05639389157295227 

0.16181492805480957 -0.17636948823928833 -0.04288749769330025 -0.15868937969207764 -0.17248815298080444 
0.030111366882920265 -0.07570768892765045 0.044892340898513794 -0.012848165817558765 -0.04322381317615509 
0.09252440184354782 0.05729541927576065 0.22094662487506866 0.057699285447597504 -0.084078848361969 
0.09277012944221497 0.12041181325912476 0.29949265718460083 0.15866701304912567 -0.011241228319704533 
-0.09415121376514435 -0.18647445738315582 -0.05194013565778732 -0.21226537227630615 -0.1697356402873993 


