0.1707601696252823 0.16307106614112854 0.1853483021259308 0.14742852747440338 0.26003730297088623 0.09639415144920349 0.0033162804320454597 -0.04114064574241638 0.11693915724754333 0.08076523244380951 0.14755317568778992 -0.2792896032333374 0.03926411271095276 -0.05390791594982147 0.0015911890659481287 -0.20365577936172485 0.14203937351703644 0.47876179218292236 0.34073013067245483 0.027111666277050972 -0.11819601058959961 0.16336722671985626 0.07441352307796478 0.039380237460136414 0.02413036674261093 -0.03928963840007782 -0.04097927361726761 -0.048019759356975555 -0.0430566631257534 0.01858757622539997 -0.19288484752178192 -0.13426536321640015 -0.2288021594285965 0.17524933815002441 0.06489723175764084 -0.197945699095726 0.054553598165512085 -0.028084324672818184 -0.022456206381320953 0.006591821555048227 0.02609913982450962 0.105296291410923 0.011602808721363544 0.12460166960954666 -0.1612616628408432 -0.052908170968294144 -0.12955418229103088 0.11428138613700867 -0.33077073097229004 0.011961986310780048 -0.18333102762699127 -0.3469054102897644 0.014473235234618187 0.24323293566703796 0.14325298368930817 0.03432802855968475 -0.03681603819131851 0.10435192286968231 0.2941417992115021 0.02949828840792179 0.041841208934783936 -0.11265429854393005 -0.14711420238018036 -0.2213485985994339 0.2283567637205124 0.006045158486813307 -0.17909999191761017 -0.10363829880952835 -0.0686858668923378 -0.3066273033618927 -0.3178044855594635 -0.3910505175590515 -0.006001883652061224 0.05862140282988548 0.0953747108578682 0.169343501329422 0.21202529966831207 0.2680501937866211 0.1765109896659851 -0.005074621643871069 0.038554731756448746 0.00532726151868701 0.03882191702723503 0.09371000528335571 0.15416082739830017 -0.002993399975821376 0.02062767930328846 -0.03109058178961277 -0.31734782457351685 -0.16798461973667145 0.08104309439659119 -0.12759260833263397 0.07644469290971756 0.01896737888455391 0.003324056975543499 -0.09175600856542587 -0.22448238730430603 0.039077527821063995 0.08819033950567245 -0.032276254147291183 -0.07981673628091812 0.1271219253540039 0.2116433084011078 0.12306389212608337 -0.25979942083358765 -0.006289580836892128 0.3252449631690979 -0.11738254129886627 0.07688764482736588 -0.02557808719575405 -0.08718886226415634 -0.2936992943286896 -0.2600690722465515 0.21172355115413666 0.012406456284224987 -0.10618790984153748 -0.14955611526966095 0.041370831429958344 0.009371236898005009 0.0083616953343153 0.08921650797128677 0.16309183835983276 -0.038587309420108795 -0.03673691675066948 -0.07292070239782333 -0.1382884830236435 0.025368496775627136 0.027342474088072777 0.16214676201343536 0.13839499652385712 -0.14846955239772797 -0.10690493881702423 -0.08892707526683807 -0.08472847193479538 -0.07563509792089462 0.04282072186470032 -0.019607067108154297 -0.07972320169210434 -0.030604146420955658 -0.12991774082183838 0.04435008764266968 -0.04793084040284157 0.14006200432777405 0.1898084282875061 -0.07887206226587296 -0.41901782155036926 -0.3431103229522705 0.049283355474472046 -0.030646031722426414 0.03288200870156288 -0.07481130957603455 -0.05008167400956154 0.0624566487967968 0.035325441509485245 0.1327475607395172 0.12719717621803284 0.04544860124588013 0.2825542688369751 0.18402333557605743 0.09218090772628784 0.040900181978940964 -0.2893306612968445 -0.506178617477417 -0.3932884931564331 -0.10127203911542892 0.00961493793874979 -0.018699318170547485 0.18992643058300018 0.059962257742881775 0.0948035791516304 0.2913888990879059 0.2337794303894043 -0.0231875479221344 0.14223361015319824 0.09623357653617859 0.012461824342608452 0.023028669878840446 -0.0006377173122018576 0.013748729601502419 0.06017010286450386 -0.04089970886707306 0.09270234405994415 0.09737386554479599 0.04764722287654877 -0.09579496085643768 -0.08497583121061325 -0.015875883400440216 -0.08763236552476883 -0.1859557032585144 -0.058780424296855927 0.06770341843366623 -0.09658773988485336 0.09568473696708679 0.10324285179376602 -0.17666181921958923 -0.2438989281654358 0.13977336883544922 -0.253052294254303 0.1250247359275818 0.17869041860103607 -0.11331098526716232 0.04595518484711647 -0.02096811681985855 -0.09880109131336212 0.031006017699837685 -0.0882217064499855 -0.2189226597547531 -0.11901877820491791 -0.0009227709379047155 -0.2227214127779007 -0.1261024922132492 0.1849897801876068 0.13840965926647186 -0.21770131587982178 -0.23153920471668243 -0.08384285867214203 -0.06472757458686829 -0.044884197413921356 0.06886670738458633 -0.06406485289335251 0.10428225249052048 0.027406888082623482 -0.07074517011642456 0.07451706379652023 -0.02359490655362606 0.13096225261688232 0.14229127764701843 0.05840185657143593 0.1313297599554062 0.011822850443422794 -0.09348589926958084 -0.059930894523859024 0.2468237727880478 -0.08348360657691956 -0.04912792518734932 -0.09564608335494995 -0.0707547590136528 -0.02619209885597229 0.10391148924827576 -0.1258144974708557 -0.27954962849617004 -0.24387392401695251 -0.2706250846385956 -0.2190326601266861 -0.15044794976711273 -0.006905066780745983 -0.00647100992500782 -0.028506621718406677 0.061418771743774414 0.1064162477850914 -0.01766544207930565 0.05707114189863205 -0.02538660354912281 0.001769116148352623 -0.027059029787778854 0.02509879879653454 
-0.19018974900245667 0.038403838872909546 -0.08448013663291931 -0.08260919153690338 -0.03771638497710228 -0.09115184098482132 -0.023937953636050224 0.07334984093904495 0.15505795180797577 -0.22751829028129578 0.08643939346075058 0.21960894763469696 0.08003107458353043 -0.3244825601577759 0.13267290592193604 0.31795334815979004 0.023176284506917 0.11536631733179092 0.1260557770729065 0.19329679012298584 0.002640765393152833 0.017868386581540108 0.18715688586235046 0.16324171423912048 -0.034188006073236465 -0.1459760218858719 -0.053328391164541245 0.035375628620386124 -0.13426075875759125 -0.07613565027713776 0.04338102042675018 0.09163813292980194 -6.481985474238172e-05 -0.21513909101486206 -0.031242147088050842 0.0417192168533802 0.14973986148834229 0.02254285104572773 -0.09464303404092789 0.14470826089382172 0.05758834257721901 0.23490191996097565 0.06777925789356232 0.05784959718585014 -0.011963308788836002 -0.09383006393909454 -0.1289747655391693 -0.008137011900544167 0.036340486258268356 0.06581303477287292 -0.0773199275135994 -0.07714630663394928 0.032580211758613586 0.01595032773911953 -0.016682719811797142 0.01897309720516205 -0.047683652490377426 0.1151004284620285 0.16471120715141296 -0.036530643701553345 0.13644728064537048 0.12119115144014359 -0.09628909826278687 -0.031118309125304222 -0.25109514594078064 0.11748861521482468 0.15973322093486786 0.24105866253376007 -0.2540767788887024 0.07163704186677933 0.18785318732261658 -0.06315281242132187 0.1970163732767105 0.003451418364420533 -0.1704094260931015 -0.30965644121170044 -0.06653589755296707 0.024408753961324692 -0.141816645860672 -0.28954705595970154 0.3671748638153076 0.24252721667289734 -0.04506150633096695 0.005469387397170067 -0.05965061113238335 0.14180433750152588 0.052795346826314926 -0.12644454836845398 -0.4091033339500427 -0.030271874740719795 0.06073141470551491 -0.3098489046096802 -0.06598281860351562 -0.0010309858480468392 -0.052480172365903854 -0.1310252845287323 0.17815998196601868 0.14584118127822876 -0.0308242104947567 -0.11434776335954666 -0.16957518458366394 0.09023486077785492 0.03258804604411125 -0.014335897751152515 -0.18972767889499664 0.08123437315225601 0.10543068498373032 -0.006662523839622736 0.16427083313465118 0.06372798979282379 -0.08767663687467575 -0.11652625352144241 -0.3919364809989929 -0.2327737808227539 0.10777810215950012 0.27210256457328796 -0.11100504547357559 -0.04665082320570946 0.2024127095937729 0.04337668418884277 0.2243521511554718 -0.11676374077796936 -0.07584648579359055 -0.06185608729720116 0.00799905601888895 -0.20648778975009918 -0.17128296196460724 0.10080582648515701 -0.03800550103187561 -0.09914594888687134 -0.08801127225160599 -0.08457685261964798 -0.33121368288993835 -0.09585771709680557 -0.16448228061199188 -0.03637489676475525 0.01890001818537712 0.04669516161084175 0.1465756893157959 0.1382952779531479 -0.010103335604071617 0.06537291407585144 -0.02553451992571354 -0.03354192525148392 -0.06642697006464005 -0.10322130471467972 -0.03695449233055115 -0.2463718056678772 -0.1294071227312088 -0.091960109770298 -0.19181349873542786 -0.3502025604248047 0.10093201696872711 0.11843201518058777 -0.043980665504932404 0.00414340291172266 0.11152014136314392 0.26512664556503296 0.181357741355896 -0.15414881706237793 -0.132499098777771 -0.08357618749141693 0.08712418377399445 0.009255929850041866 0.006483093835413456 0.01639423705637455 -0.07953855395317078 -0.1733778417110443 0.13361643254756927 0.10882440209388733 -0.14394420385360718 -0.258063942193985 0.14027416706085205 0.10471393167972565 0.02252163179218769 -0.3075074553489685 0.0769195631146431 0.022028660401701927 -0.14684292674064636 0.0035826729144901037 0.18735922873020172 0.32342982292175293 -0.023881608620285988 -0.21417388319969177 -0.2057085484266281 -0.04909902811050415 -0.12526622414588928 -0.06240825355052948 -0.18150100111961365 0.028181321918964386 -0.1112760603427887 -0.002331503899767995 0.16331051290035248 0.20266790688037872 0.09504617750644684 -0.055406250059604645 -0.17055626213550568 0.14658598601818085 0.0712149366736412 -0.05764084309339523 -0.116461843252182 0.13972856104373932 -0.11769814789295197 -0.36532819271087646 0.10491415858268738 0.2532466948032379 -0.03592080622911453 -0.2548355758190155 0.07991591095924377 -0.030528513714671135 -0.018106553703546524 -0.004948968067765236 -0.0092444634065032 0.014238567091524601 0.009100842289626598 -0.2123025357723236 -0.3848753571510315 -0.19236929714679718 -0.012914231978356838 -0.12661874294281006 0.014313232153654099 0.06279189884662628 0.3043322265148163 -0.014203298836946487 -0.21703627705574036 -0.1719914972782135 -0.10627195984125137 -0.0665576159954071 -0.03701958432793617 0.08061377704143524 -0.015848468989133835 0.21927684545516968 0.10108105838298798 0.029457421973347664 0.015470186248421669 0.1350594311952591 0.11889134347438812 -0.11733962595462799 -0.09976346790790558 0.009532780386507511 -0.3528701663017273 -0.03610238805413246 -0.06723887473344803 -0.1564900279045105 -0.13309909403324127 -0.10370366275310516 -0.15096598863601685 -0.040468476712703705 0.1628710925579071 0.22660969197750092 0.1446787416934967 -0.16376255452632904 0.13913725316524506 0.0991576611995697 -0.019323214888572693 -0.04399379342794418 
-0.20932962000370026 -0.10270077735185623 0.32839858531951904 0.30934619903564453 -0.30454906821250916 0.14094896614551544 -0.14520540833473206 -0.07799695432186127 -0.1529722809791565 0.26809486746788025 0.06335849314928055 -0.03875288739800453 -0.2672978639602661 0.005617376882582903 0.0429777093231678 0.23704524338245392 0.2954055368900299 0.08619774878025055 0.032842930406332016 -0.222451314330101 0.0456046387553215 0.014737510122358799 0.09335286170244217 0.06853556632995605 0.19374607503414154 -0.003447840455919504 -0.10490991920232773 0.16915081441402435 -0.15362617373466492 -0.10277280956506729 -0.07671622186899185 0.06413190066814423 0.3349692225456238 -0.0020763715729117393 -0.06288579106330872 -0.07966257631778717 0.012311209924519062 -0.21431946754455566 -0.11628920584917068 -0.010721159167587757 0.0513010136783123 -0.16608120501041412 0.19560807943344116 0.05438710376620293 0.0800366997718811 0.010598566383123398 -0.1471097320318222 0.06042248010635376 -0.026064837351441383 -0.1099156066775322 -0.04515707120299339 -0.11056753993034363 0.1671517789363861 0.1017032042145729 0.11660634726285934 -0.21215075254440308 -0.027081353589892387 -0.27679964900016785 -0.3468656837940216 -0.07000555098056793 0.349261999130249 0.16910281777381897 -0.12617990374565125 -0.1571768969297409 0.04590209946036339 -0.05495348945260048 -0.1622304618358612 0.12212466448545456 -0.058259498327970505 -0.05642445385456085 -0.11716581135988235 0.29255160689353943 -0.17512063682079315 0.13972514867782593 0.023553717881441116 -0.14133082330226898 -0.3188401162624359 -0.11722610145807266 -0.019272444769740105 -0.3910249173641205 -0.13095492124557495 -0.2741260230541229 0.15409745275974274 0.16802425682544708 -0.1109861359000206 -0.039662916213274 0.014147840440273285 0.11879311501979828 0.0727723091840744 0.0029896837659180164 -0.1986939013004303 0.17197518050670624 -0.04686529561877251 0.08738680183887482 0.046440523117780685 -0.22841964662075043 -0.11471381783485413 -0.13882431387901306 -0.006166444160044193 0.009096881374716759 0.04943198338150978 0.1237918883562088 -0.025792693719267845 -0.08640927821397781 0.16417765617370605 0.08763539046049118 -0.07544855773448944 0.1853310912847519 0.08220949023962021 0.23675836622714996 -0.09743797779083252 -0.2440997064113617 0.008033600635826588 -0.14358164370059967 -0.007979266345500946 0.10260701924562454 -0.08714664727449417 -0.011415494605898857 -0.17877943813800812 0.15089070796966553 -0.13954369723796844 0.2675618529319763 0.041816484183073044 0.19066886603832245 0.04559125751256943 -0.10064787417650223 -0.25217610597610474 0.024694932624697685 -0.13992689549922943 -0.09811972081661224 0.2969669997692108 0.03417804092168808 -0.13747504353523254 -0.05454196780920029 -0.06976909190416336 0.11579277366399765 -0.19571033120155334 -0.06436876952648163 -0.13349033892154694 -0.007940972223877907 0.20068293809890747 0.13613569736480713 0.12415457516908646 0.13269411027431488 -0.06889665126800537 -0.09002549201250076 0.09308663010597229 0.25764235854148865 -0.07974807918071747 -0.19556547701358795 0.16695651412010193 -0.039021000266075134 -0.13612736761569977 0.010909507051110268 -0.051745399832725525 -0.020916640758514404 -0.10143289715051651 0.008898294530808926 0.08796211332082748 0.0019491311395540833 -0.00734495185315609 0.07697487622499466 -0.057115696370601654 -0.13271944224834442 -0.03287948668003082 0.03940417245030403 0.007003395352512598 -0.03040739707648754 0.12173312902450562 -0.13303227722644806 -0.32518693804740906 0.0042003667913377285 0.04870668798685074 -0.04651939123868942 -0.19106434285640717 -0.2526073455810547 -0.09526338428258896 -0.14241597056388855 -0.0009096427238546312 0.23600389063358307 0.0333421491086483 -0.1051410362124443 0.10333700478076935 0.005095130763947964 0.0907941684126854 -0.041905198246240616 -0.14460083842277527 -0.15815581381320953 -0.03966594859957695 0.024823622778058052 -0.095331571996212 -0.20896996557712555 -0.16847799718379974 -0.09455309063196182 0.009075529873371124 0.019579239189624786 0.118870809674263 0.2791058421134949 -0.18308235704898834 0.008833467960357666 -0.043405160307884216 0.03509252145886421 0.21038055419921875 -0.08320312947034836 -0.08304983377456665 0.2854771018028259 -0.10363830626010895 -0.37320101261138916 -0.1901693195104599 0.05242562294006348 -0.169281005859375 -0.036738086491823196 -0.0076491073705255985 0.05179956927895546 -0.07079485803842545 0.17617309093475342 0.04345855861902237 -0.08167731761932373 -0.05550190433859825 0.02484898269176483 0.016200613230466843 0.12390176206827164 0.07421429455280304 -0.058477044105529785 -0.1178705170750618 -0.07716833055019379 0.09775740653276443 -0.08529200404882431 -0.11621164530515671 0.1179356500506401 0.01564166136085987 -0.1817215085029602 0.08839518576860428 0.18043982982635498 -0.004080215469002724 0.13330954313278198 -0.06961219012737274 0.16273623704910278 0.30198583006858826 -0.16320131719112396 -0.00011431366147007793 0.07557966560125351 0.12939225137233734 0.05808886140584946 -0.076825812458992 -0.18862974643707275 -0.24908998608589172 0.12024768441915512 -0.023571474477648735 -0.11439424008131027 -0.12266100943088531 -0.1379219889640808 0.13690516352653503 0.06543955951929092 -0.0575767420232296 -0.011388171464204788 
-0.0008449302986264229 0.023964863270521164 0.10632357001304626 0.22063644230365753 -0.14432696998119354 -0.06694214791059494 -0.0031208416912704706 0.02431248128414154 -0.04714197292923927 -0.18719400465488434 -0.1126067265868187 -0.0967247486114502 -0.13051027059555054 -0.31284841895103455 -0.4232446253299713 -0.05398014560341835 -0.003500062972307205 -0.05811209976673126 -0.040438078343868256 0.07308082282543182 -0.11067340523004532 -0.11368981003761292 -0.04541923850774765 -0.06316832453012466 0.11003874987363815 0.1143675372004509 0.02133006602525711 0.026881327852606773 -0.047973766922950745 0.09491641819477081 0.1955888718366623 -0.11927352845668793 0.08832424879074097 -0.11054688692092896 -0.0596596859395504 0.042745135724544525 0.04998274892568588 -0.2154725342988968 -0.23662741482257843 0.002192993415519595 -0.03608115389943123 0.09506168216466904 0.11435946077108383 0.10636846721172333 0.22800058126449585 -0.11970347166061401 0.0286716278642416 -0.11464725434780121 0.10671788454055786 0.2424071580171585 0.2086298167705536 0.06139761209487915 -0.1903993785381317 -0.12395422905683517 -0.06439311057329178 -0.06744220852851868 -0.11488485336303711 -0.15927717089653015 -0.07465609163045883 0.02686922624707222 0.2347089797258377 0.15114077925682068 -0.02661898359656334 0.029062993824481964 0.005040990188717842 -0.06480088084936142 -0.08941227197647095 0.10721173137426376 -0.06274371594190598 0.04125458747148514 0.1131080687046051 0.11075197160243988 -0.16918759047985077 -0.08696576207876205 -0.003067414741963148 0.011265575885772705 -0.10554063320159912 -0.04533695802092552 0.09892424196004868 0.11500949412584305 0.10386279970407486 0.3759196698665619 -0.07992645353078842 -0.020059991627931595 0.18009282648563385 -0.0436263345181942 -0.058454301208257675 -0.1019366979598999 0.07306835055351257 -0.13633570075035095 -0.023448973894119263 0.09932301193475723 0.0015850355848670006 -0.018499605357646942 0.1990831047296524 0.2163078784942627 0.07479330897331238 0.0014229512307792902 -0.018361127004027367 0.08836891502141953 0.1942497342824936 -0.04246148839592934 -0.14029306173324585 -0.25705641508102417 -0.03959722816944122 -0.15086941421031952 -0.03463975340127945 -0.04900243505835533 0.1384022980928421 0.22980357706546783 0.2268759310245514 0.07739195227622986 -0.01372461672872305 -0.10434377193450928 -0.10854540765285492 0.11668373644351959 -0.06516779214143753 0.014176093973219395 0.055179353803396225 0.027209527790546417 -0.021741850301623344 0.15175361931324005 0.11210919916629791 0.06003999710083008 0.14108851552009583 -0.1340261846780777 -0.007193370722234249 -0.045170508325099945 0.018104806542396545 -0.12203413993120193 -0.25951239466667175 -0.18394383788108826 -0.0811927393078804 0.10886035859584808 0.06921324133872986 -0.007472977973520756 -0.10186512768268585 0.0804130956530571 0.03765127807855606 -0.05306493863463402 -0.28017401695251465 -0.13323472440242767 0.07176003605127335 0.07376258075237274 0.06466558575630188 0.03781549632549286 -0.018004389479756355 -0.10500399768352509 0.09539175033569336 0.04412325844168663 0.12327444553375244 -0.03516566380858421 -0.06228133291006088 -0.09704215824604034 -0.03535287827253342 0.043017107993364334 -0.15311643481254578 -0.07521852105855942 -0.1107124537229538 0.11497467756271362 0.12135269492864609 0.08499214053153992 0.01010588463395834 0.05054096132516861 -0.017436575144529343 -0.16333423554897308 -0.02176683023571968 0.1877373307943344 -0.11425594985485077 -0.27061060070991516 -0.23141442239284515 0.052696943283081055 0.2146347612142563 -0.0020498931407928467 -0.11753818392753601 -0.031719453632831573 -0.17752106487751007 -8.393096504732966e-05 -0.1263083815574646 -0.0771976113319397 0.1250314861536026 0.05942913144826889 -0.0019519225461408496 -0.11631693691015244 0.16119003295898438 0.05223403871059418 -0.01123493630439043 0.03967271372675896 -0.038764823228120804 -0.08905067294836044 -0.05652385950088501 -0.02383190579712391 0.22872231900691986 0.18448375165462494 -0.024207310751080513 0.0034952862188220024 0.10458216071128845 0.13090625405311584 -0.053648270666599274 0.06644006818532944 -0.05129677429795265 0.04282502084970474 -0.0012224394595250487 0.10356336832046509 0.021197663620114326 0.14463597536087036 0.011210756376385689 0.13398884236812592 0.314672589302063 0.06442467123270035 0.10509783029556274 -0.2396193891763687 0.41593030095100403 0.20888613164424896 0.016394710168242455 -0.06280066072940826 0.0032087103463709354 0.08681867271661758 -0.007586879655718803 0.08346583694219589 -0.3211623430252075 -0.09745916724205017 -0.055568672716617584 -0.006107156164944172 0.07121424376964569 0.22982095181941986 0.005098104476928711 0.1238127276301384 -0.08186391741037369 0.1559656858444214 -0.09311460703611374 0.04329036548733711 -0.0694907158613205 -0.02638726495206356 -0.12251360714435577 0.006455710623413324 0.09842301160097122 -0.07248352468013763 -0.07217495143413544 -0.06448907405138016 0.1105961874127388 0.08834386616945267 -0.06700392812490463 0.00026644422905519605 0.03794291242957115 -0.016613740473985672 -0.016565987840294838 0.22503438591957092 -0.18887034058570862 0.016248416155576706 0.13612166047096252 0.09185431897640228 0.12718375027179718 0.11168327182531357 0.00022810226073488593 0.13495370745658875 
-0.14527712762355804 -0.004033262841403484 -0.025666045024991035 -0.09629527479410172 0.06907621026039124 -0.11063123494386673 -0.033563923090696335 -0.10505832731723785 0.04164928197860718 0.07183920592069626 0.019977379590272903 -0.0585334375500679 0.1513206511735916 -0.09934394061565399 -0.09140176326036453 0.12574172019958496 0.06177978962659836 0.16636204719543457 -0.021404389292001724 0.030674325302243233 0.005104030016809702 -0.028393888846039772 -0.04468493536114693 0.008590862154960632 0.031572647392749786 0.08710271120071411 0.17331141233444214 0.1223788857460022 -0.030354328453540802 0.046552255749702454 0.2528163492679596 0.09639515727758408 -0.11704456061124802 0.007979769259691238 0.013261841610074043 0.24390757083892822 0.17030353844165802 0.08831973373889923 -0.011204610578715801 0.10335194319486618 -0.2597389817237854 0.10282017290592194 0.18455614149570465 0.07411216199398041 0.1631992608308792 -0.14798174798488617 0.00953227560967207 -0.040401019155979156 -0.24450956284999847 -0.16472387313842773 -0.07058827579021454 -0.09014617651700974 0.07483837008476257 0.10429802536964417 -0.14050914347171783 -0.3104831874370575 0.1115756407380104 0.12126472592353821 0.047785405069589615 -0.003933753818273544 0.16670094430446625 0.08383216708898544 -0.15326771140098572 -0.18814988434314728 -0.03586868941783905 -0.1672646850347519 -0.19491201639175415 -0.05728120729327202 0.10784300416707993 -0.0069188764318823814 0.053801629692316055 0.03186851739883423 0.2538779377937317 0.1315726339817047 0.09480246901512146 -0.06108694151043892 -0.06787613779306412 -0.037414222955703735 -0.047276295721530914 -0.11306653916835785 0.008103471249341965 -0.08265933394432068 -0.04539480060338974 -0.04091888293623924 -0.09879165142774582 -0.1657407283782959 -0.07325077801942825 -0.0016149581642821431 -0.11541620641946793 0.018056148663163185 -0.0742800235748291 0.059211861342191696 0.12566357851028442 0.08480633795261383 0.23852087557315826 -0.13806231319904327 -0.1881161332130432 -0.04887096583843231 0.0924701988697052 0.026529410853981972 -0.15847478806972504 0.0042602852918207645 -0.0581551231443882 -0.13300462067127228 -0.07887356728315353 0.12506607174873352 -0.09814326465129852 -0.08154542744159698 -0.05577497556805611 0.19308046996593475 0.06924864649772644 0.1317312866449356 -0.14346693456172943 0.19323670864105225 0.0408615916967392 0.11066466569900513 0.17318664491176605 0.3094489574432373 0.09918864816427231 0.2395915538072586 -0.2790171205997467 -0.15867926180362701 0.12570668756961823 0.05660237371921539 -0.15008631348609924 -0.18742123246192932 0.0877155065536499 0.00789323914796114 0.012442770414054394 -0.12878334522247314 -0.16626250743865967 -0.09307930618524551 -0.16273216903209686 0.10851002484560013 0.3025456964969635 0.03589797019958496 0.08785491436719894 0.018810255452990532 -0.09690279513597488 -0.04014931619167328 0.07818767428398132 -0.07808790355920792 -0.08731728792190552 -0.050471413880586624 -0.19457785785198212 -0.12133269011974335 -0.0704159066081047 -0.08706532418727875 0.021489422768354416 0.09220345318317413 -0.010094866156578064 0.2556982934474945 -0.030898040160536766 -0.028221819549798965 0.043023351579904556 -0.2414322793483734 -0.058427952229976654 -0.1210196316242218 -0.09001466631889343 -0.2683863639831543 -0.09517920762300491 -0.2587279975414276 -0.3109491169452667 -0.0587427131831646 0.1079769879579544 -0.0422990657389164 0.005479326471686363 -0.091159887611866 0.17819778621196747 0.20080211758613586 0.09449967741966248 -0.09733591228723526 0.08357498794794083 0.0097909364849329 -0.0419025644659996 -0.15052399039268494 0.16439850628376007 0.013577493838965893 0.044102415442466736 -0.07004762440919876 -0.03697178512811661 -0.07798837870359421 0.046267446130514145 -0.19616709649562836 -0.22575385868549347 -0.052545495331287384 0.007196655031293631 0.04884953796863556 -0.012085114605724812 -0.008879653178155422 -0.1649458408355713 0.012348766438663006 -0.15967978537082672 -0.29048824310302734 -0.07479312270879745 -0.1273210197687149 0.061703167855739594 -0.05425757169723511 0.14890539646148682 -0.029056500643491745 0.23062048852443695 0.1318121701478958 0.014376440085470676 -0.22185355424880981 0.046936385333538055 -0.07982231676578522 0.037002384662628174 0.03268330171704292 -0.10290863364934921 -0.18346577882766724 -0.29300346970558167 -0.08289375901222229 -0.12197697907686234 -0.21187427639961243 -0.11583922058343887 0.019396483898162842 -0.13615696132183075 -0.03025074489414692 -0.04465826228260994 0.11553765088319778 0.04662990942597389 0.05681019648909569 0.10169847309589386 -0.27791282534599304 -0.18641965091228485 -0.06445484608411789 -0.006786285899579525 -0.00463950214907527 -0.02593962289392948 -0.026285657659173012 0.15192854404449463 -0.07008820027112961 -0.04708962142467499 0.1278539001941681 0.04027462750673294 -0.15231367945671082 0.15455494821071625 -0.024668797850608826 -0.06392595171928406 0.17621178925037384 -0.16122515499591827 -0.12752555310726166 -0.024502325803041458 0.0906912311911583 0.05791967362165451 -2.617486461531371e-05 0.005313142202794552 0.11069798469543457 0.05215577408671379 -0.08596048504114151 -0.0990336462855339 0.04936407506465912 -9.07223075046204e-05 -0.11740855872631073 -0.09796357154846191 -0.20268884301185608 
0.05196332931518555 -0.11364345252513885 -0.02489333227276802 0.15528333187103271 0.02402561716735363 -0.032811034470796585 0.088059201836586 0.0830172598361969 0.22734223306179047 -0.10185422748327255 -0.010079559870064259 -0.1301194578409195 0.14873766899108887 0.1215820387005806 -0.08090578019618988 -0.2650381326675415 -0.14437949657440186 0.17579899728298187 0.12412659823894501 -0.025885744020342827 -0.05394073203206062 0.26394957304000854 0.12195813655853271 -0.155298113822937 0.057275522500276566 0.0800546184182167 0.05227164924144745 -0.07681763917207718 0.01881551928818226 -0.02625996805727482 -0.01657954603433609 -0.11314934492111206 -0.1419174075126648 0.27538588643074036 0.27337217330932617 -0.1898394078016281 0.07148437947034836 0.04719971492886543 0.05335712432861328 0.05289684981107712 -0.046580106019973755 0.019997457042336464 -0.08207070827484131 -0.06209656968712807 -0.3689223527908325 -0.12336122244596481 0.17260827124118805 0.062241993844509125 0.25107553601264954 0.27759242057800293 0.25373926758766174 0.14181694388389587 -0.09422226995229721 -0.24191631376743317 -0.2562423050403595 -0.34200581908226013 -0.15464992821216583 -0.00505409762263298 0.16992796957492828 0.12001871317625046 -0.18998059630393982 -0.1595088690519333 -0.005788430571556091 -0.038495682179927826 0.13107866048812866 0.04761902615427971 -0.09469360113143921 0.04571537673473358 0.1542641967535019 0.18582624197006226 0.1903800219297409 0.07027922570705414 -0.11631593853235245 -0.2720518410205841 -0.35275760293006897 -0.17740760743618011 -0.1080111712217331 -0.05968792364001274 0.06977345794439316 0.04064864292740822 0.06367841362953186 0.2946988046169281 2.3617976694367826e-05 -0.1440316140651703 -0.029142294079065323 0.006655135191977024 0.14645397663116455 0.10254322737455368 0.04220573231577873 0.02081887796521187 0.1425667554140091 0.19211208820343018 0.06960850208997726 -0.07750021666288376 -0.2669121026992798 0.07433784753084183 0.1783437728881836 0.2678687870502472 0.1685643196105957 0.15293699502944946 0.12765203416347504 0.07279300689697266 0.12048539519309998 -0.08882495760917664 0.3153209388256073 -0.12505130469799042 -0.021376412361860275 -0.15219761431217194 0.22274169325828552 -0.06092279404401779 -0.10186998546123505 -0.06394156813621521 0.07660084217786789 -0.00014114758232608438 0.05679559335112572 -0.11194022744894028 -0.09813540428876877 -0.03255818411707878 0.18142323195934296 -0.04001541808247566 -0.24203546345233917 -0.1741233617067337 -0.054066095501184464 0.08123233169317245 0.006627385504543781 0.10264476388692856 0.05878632888197899 0.038980063050985336 -0.05568167567253113 0.004177182912826538 -0.26635777950286865 0.1753985583782196 0.15763214230537415 -0.1931314617395401 -0.11839483678340912 0.2076854556798935 -0.06289589405059814 -0.04714585840702057 -0.06130531057715416 0.17070651054382324 -0.05765978991985321 -0.053536053746938705 -0.05094942823052406 0.1282866895198822 0.15835988521575928 -0.09913076460361481 -0.15560977160930634 0.04459189251065254 -0.016295824199914932 0.12506917119026184 0.10086876153945923 0.1162441223859787 0.11533410847187042 -0.2615797519683838 -0.1511998474597931 -0.04804633930325508 0.06492046266794205 -0.020297180861234665 0.08489473164081573 0.2503780722618103 0.11739567667245865 0.1953517496585846 0.24255171418190002 -0.052011847496032715 0.21911150217056274 0.04781145229935646 -0.09055308252573013 0.09155409783124924 -0.2028503119945526 -0.31086376309394836 -0.048738762736320496 -0.14175760746002197 -0.24224162101745605 -0.2547203600406647 0.02733762376010418 0.2794262766838074 -0.044655941426754 0.1717156320810318 0.12492084503173828 0.1953706294298172 -0.19364547729492188 -0.024974262341856956 0.0069242846220731735 0.12206985056400299 0.023261619731783867 0.14875569939613342 0.09130829572677612 0.08433953672647476 0.3820081651210785 0.1654883474111557 0.053040869534015656 -0.029470913112163544 0.3180679380893707 0.04108240455389023 -0.12856796383857727 0.02875364013016224 0.21811191737651825 -0.12529733777046204 0.13713453710079193 0.04688257724046707 0.14226743578910828 -0.04238523915410042 -0.21870525181293488 0.011802833527326584 0.3188680112361908 -0.07874580472707748 -0.13269084692001343 0.11819350719451904 -0.01828261837363243 -0.07847602665424347 0.03557440638542175 0.040433675050735474 0.15281426906585693 0.012625439092516899 0.10010983794927597 0.049914974719285965 0.2697187066078186 0.0004159650416113436 -0.2360837459564209 -0.044324953109025955 0.0914355143904686 -0.038729552179574966 -0.10186736285686493 0.16358983516693115 0.04505043476819992 0.2414253205060959 -0.141980841755867 0.05836925283074379 -0.08786419779062271 0.1065669059753418 0.03954855725169182 0.0692729502916336 0.04255596548318863 0.0714617520570755 -0.04390557482838631 -0.09314189851284027 0.1781851053237915 0.07789461314678192 -0.0028836384881287813 -0.3533710837364197 0.09254242479801178 0.09864525496959686 0.18523934483528137 0.2876003384590149 0.03116730786859989 -0.1661708801984787 -0.10488958656787872 -0.005088432691991329 -0.10051635652780533 -0.10098091512918472 0.11976050585508347 0.30973395705223083 -0.1376698911190033 -0.16029313206672668 -0.07213489711284637 0.13456876575946808 
0.06658391654491425 0.24986322224140167 0.12565836310386658 0.04579579457640648 -0.19315747916698456 0.12483952939510345 0.02144225500524044 0.24686630070209503 -0.07792208343744278 0.19525021314620972 -0.30005669593811035 -0.05180801823735237 -0.008687818422913551 -0.26581043004989624 -0.27271798253059387 -0.14613620936870575 -0.24342142045497894 -0.12271112948656082 0.13553322851657867 0.14245696365833282 -0.15746279060840607 0.052903275936841965 -0.16684263944625854 -0.008202082477509975 -0.09182272106409073 0.11314376443624496 0.05477510765194893 -0.10075993090867996 0.12147851288318634 0.20170198380947113 -0.0031748171895742416 -0.06810709089040756 0.013640549965202808 -0.1807229369878769 -0.21326732635498047 0.24362829327583313 -0.13201534748077393 0.01604839414358139 -0.1180325523018837 -0.02970597892999649 -0.0183954369276762 -0.09127403050661087 0.015517201274633408 0.010082010179758072 0.28521114587783813 0.1308412402868271 0.15019157528877258 -0.04001583904027939 0.04035379737615585 0.011694847606122494 -0.06202106550335884 -0.05579949915409088 0.027437381446361542 0.014483688399195671 0.19973620772361755 0.12583737075328827 -0.1550343632698059 -0.15334686636924744 -0.09240449965000153 0.02492453157901764 0.05021265149116516 0.04286374896764755 0.012446426786482334 0.05532259866595268 -0.009066695347428322 0.18625332415103912 0.13972216844558716 0.046859752386808395 -0.047864802181720734 -0.11635081470012665 -0.14995533227920532 -0.13115932047367096 -0.05162903666496277 0.1488751918077469 -0.1654224842786789 -0.05733451992273331 0.012276836670935154 0.05527505278587341 0.2734355330467224 0.16973638534545898 0.12161197513341904 0.1645020693540573 0.09113519638776779 -0.28626200556755066 0.10829851031303406 -0.15634994208812714 0.09575988352298737 -0.028644610196352005 0.013541324995458126 0.059754811227321625 0.05206066742539406 -0.025896575301885605 -0.19431406259536743 -0.07115094363689423 0.10916569828987122 0.07717573642730713 0.10077875107526779 -0.022185858339071274 -0.0005612412933260202 -0.0026619802229106426 -0.000522828777320683 -0.01737789250910282 -0.014449536800384521 0.1609000861644745 -0.08167026191949844 0.06880916655063629 0.05722229182720184 0.04489411786198616 -0.10520242899656296 -0.06774156540632248 0.0892249196767807 0.20384497940540314 -0.18113912642002106 -0.023307088762521744 -0.07003629207611084 0.061703406274318695 -0.16613508760929108 -0.05584150552749634 -0.16203732788562775 -0.13954001665115356 -0.34528639912605286 0.21771608293056488 0.13503645360469818 -0.02691229246556759 0.3139771521091461 0.20189078152179718 0.09138258546590805 -0.04311855137348175 0.08107774704694748 0.015758030116558075 0.02711145021021366 -0.1548122614622116 0.17415845394134521 0.020818477496504784 0.07917200773954391 -0.12686213850975037 0.08424029499292374 -0.14696425199508667 0.055854469537734985 0.026338879019021988 -0.11477161943912506 -0.004051076713949442 0.1065104529261589 -0.06401519477367401 0.1440848857164383 0.07800193130970001 -0.023527203127741814 -0.2930149435997009 0.12361854314804077 -0.08208530396223068 -0.11555754393339157 0.05950000137090683 0.01104977447539568 0.12177649140357971 0.08735144138336182 -0.00968027114868164 -0.16665804386138916 -0.13623575866222382 -0.14848382771015167 0.0324849970638752 -0.12473164498806 -0.10788830369710922 0.005085894837975502 -0.0062363408505916595 0.0254009161144495 -0.10049746930599213 -0.09929798543453217 0.002892144490033388 -0.05972594767808914 0.017261093482375145 0.1321246474981308 0.16685988008975983 -0.017492393031716347 -0.12480702996253967 -0.13951432704925537 0.1800156831741333 0.11213673651218414 -0.03233940154314041 0.05163310095667839 -0.19124296307563782 0.20626923441886902 -0.004991906229406595 -0.07542549073696136 -0.046611834317445755 0.22968482971191406 0.11371832340955734 0.0552825927734375 0.057878006249666214 -0.05858613923192024 -0.18678522109985352 -0.23771734535694122 0.001995554193854332 0.1261516511440277 0.0921071320772171 -0.04417114332318306 0.07254402339458466 -0.0790942907333374 -0.14967301487922668 0.04503645375370979 0.22859202325344086 0.18607193231582642 0.0671297237277031 -0.058965642005205154 0.12491292506456375 -0.21190860867500305 -0.09525955468416214 0.02199852280318737 0.19070088863372803 0.3440279960632324 0.04896363243460655 0.11061608791351318 -0.27790889143943787 0.17243404686450958 0.006591413170099258 0.03887803480029106 0.06894588470458984 0.19424594938755035 0.07916518300771713 -0.17443323135375977 0.10972732305526733 -0.14140112698078156 -0.03691161423921585 -5.6892004067776725e-05 -0.12418802827596664 0.26406800746917725 0.037528395652770996 0.07365239411592484 0.013567366637289524 -0.11639746278524399 -0.13395951688289642 0.11543130874633789 0.06769951432943344 0.04011724516749382 0.18717019259929657 -0.16794933378696442 -0.16045279800891876 0.12485154718160629 -0.04410582408308983 -0.1790255457162857 0.13211633265018463 0.03453497961163521 -0.11634763330221176 -0.0549728162586689 -0.09120745211839676 -0.023223867639899254 -0.14088329672813416 -0.07270622998476028 -0.06836524605751038 -0.1025724783539772 -0.0009694988839328289 0.26167505979537964 0.17377735674381256 -0.0484611950814724 0.0833023339509964 0.01380678080022335 0.1203213632106781 
0.24016223847866058 0.08270528167486191 -0.16851714253425598 0.006985489744693041 0.11139818280935287 0.1117904782295227 -0.10428262501955032 -0.23890697956085205 -0.05540384724736214 0.12914039194583893 0.06124896556138992 0.044745590537786484 -0.07953229546546936 -0.02723967656493187 0.1238102912902832 -0.15692920982837677 0.04832477495074272 0.05299796909093857 0.009066957980394363 0.1043832078576088 0.1920785903930664 -0.1519811451435089 -5.372018495108932e-05 0.06877762824296951 0.24410530924797058 0.11721635609865189 0.025332976132631302 0.07707147300243378 0.18328958749771118 0.1825639307498932 0.11128036677837372 0.16379357874393463 0.12311793863773346 0.1974494457244873 0.05421729385852814 -0.02156704291701317 0.3873845636844635 0.15507638454437256 0.11701691895723343 0.062103379517793655 -0.036929283291101456 -0.13284103572368622 0.05298266559839249 0.13613012433052063 -0.13436509668827057 0.04795699939131737 -0.11869406700134277 -0.08503905683755875 -0.12926064431667328 -0.07437168061733246 -0.1833621859550476 -0.08864539861679077 -0.0030097980052232742 0.023521792143583298 0.23092339932918549 0.14412160217761993 -0.007893286645412445 -0.18175949156284332 -0.2321992665529251 -0.08039289712905884 0.25430232286453247 0.040214501321315765 -0.06881754100322723 0.0550183542072773 0.15923938155174255 -0.14731359481811523 -0.05504566431045532 -0.055087074637413025 0.17133720219135284 0.05143183842301369 -0.11501571536064148 -0.16227898001670837 0.12441002577543259 0.24827831983566284 0.18511594831943512 -0.11887221038341522 -0.40469124913215637 -0.004737197421491146 -0.03117329627275467 -0.24876530468463898 -0.139604851603508 -0.20325638353824615 -0.0988994687795639 0.18765856325626373 -0.005662332288920879 -0.21528089046478271 -0.16162844002246857 0.032685186713933945 -0.018519414588809013 0.13871416449546814 -0.17795193195343018 -0.16286447644233704 0.0638836920261383 0.2542818784713745 0.30088010430336 -0.11495914310216904 -0.13777649402618408 -0.044059235602617264 -0.11380702257156372 -0.06327114254236221 -0.22302080690860748 -0.3052273392677307 0.09387626498937607 0.13544386625289917 -0.018990997225046158 0.15781047940254211 0.056799788028001785 -0.17805573344230652 0.1763920783996582 -0.19773665070533752 -0.2684456408023834 0.061587996780872345 0.009509620256721973 0.11374548822641373 0.15036669373512268 0.2013205587863922 0.17560812830924988 0.19768889248371124 0.20808005332946777 0.2863033413887024 -0.03568211570382118 -0.14423933625221252 0.02422110177576542 0.0659826397895813 -0.31241559982299805 -0.219395250082016 0.061540257185697556 -0.21104548871517181 0.03236369043588638 -0.06090957298874855 -0.17275480926036835 -0.015002314932644367 -0.03287196159362793 0.08163667470216751 -0.059327736496925354 0.08699379116296768 -0.054109957069158554 -0.057997725903987885 0.1028054729104042 0.17469169199466705 -0.17184118926525116 0.012355192564427853 0.08383526653051376 0.12227755039930344 -0.05960763245820999 -0.07377272099256516 -0.11766074597835541 -0.345643550157547 0.16368412971496582 0.04680544510483742 0.0768948569893837 0.12374280393123627 0.0644950345158577 0.25913429260253906 0.2751092314720154 0.1646975725889206 -0.03311685472726822 -0.07457184046506882 -0.5299625992774963 -0.8723143935203552 -0.017881060019135475 -0.2752704918384552 -0.2151140421628952 -0.1103048026561737 -0.12569113075733185 0.03010861761868 0.13537663221359253 -0.01419050432741642 -0.005896276328712702 0.14940346777439117 0.15975183248519897 -0.15846578776836395 0.1721237152814865 -0.16917684674263 -0.2192569077014923 -0.1881798505783081 -0.12341976910829544 -0.07246758788824081 0.09789752960205078 0.030081871896982193 -0.07106483727693558 -0.010248350910842419 0.024289876222610474 0.04625274986028671 -0.13265997171401978 0.10401949286460876 -0.004538606386631727 0.011571457609534264 0.17428047955036163 0.23808181285858154 0.0349164716899395 0.29726263880729675 0.17139451205730438 -0.12326452136039734 -0.09323988109827042 0.002259741071611643 -0.12463071197271347 0.061546362936496735 -0.012908056378364563 -0.2851699888706207 0.3533247411251068 0.09573537111282349 -0.2568083107471466 -0.3585471212863922 0.3444737195968628 -0.2580297291278839 -0.09631495922803879 0.029223419725894928 0.20850595831871033 -0.029568824917078018 -0.13700765371322632 -0.04139471799135208 0.1067461222410202 -0.13779820501804352 -0.12449479103088379 -0.16516315937042236 -0.15983717143535614 -0.10498854517936707 -0.02874014712870121 -0.2083745300769806 -0.09788882732391357 0.07384572923183441 -0.015439843758940697 -0.16378821432590485 0.05210531875491142 0.0009298813529312611 0.014945070259273052 -0.02177262119948864 0.08361203223466873 0.07596604526042938 0.2390124350786209 0.08419710397720337 -0.06222403794527054 0.08306053280830383 0.02256174199283123 -0.20531748235225677 0.25581246614456177 -0.020655250176787376 -0.3538120985031128 -0.3820572793483734 -0.008368543349206448 -0.19797828793525696 -0.13236793875694275 -0.06752444803714752 0.11202788352966309 0.23355205357074738 0.18250158429145813 0.05154263228178024 0.0866040363907814 0.0730583444237709 0.17036865651607513 0.06495972722768784 -0.15424297749996185 -0.20433823764324188 -0.0943661779165268 0.08105945587158203 
-0.21222080290317535 -0.03554682806134224 -0.0804198607802391 -0.05709223821759224 0.17790961265563965 -0.019842393696308136 -0.09646186232566833 -0.004905145615339279 0.20001554489135742 -0.010360007174313068 0.2848779261112213 0.01601933315396309 0.11056606471538544 -0.1511755883693695 -0.24934640526771545 0.25280192494392395 0.12922178208827972 -0.07105974107980728 -0.09654460102319717 -0.042000867426395416 0.00928872637450695 0.12170611321926117 -0.13481822609901428 0.17843970656394958 0.16751888394355774 -0.1803278923034668 -0.09532269090414047 0.011196830309927464 -0.005635406821966171 0.013453342020511627 0.12076245248317719 -0.03556043282151222 -0.07992024719715118 -0.08295956999063492 -0.1682915985584259 -0.0851602777838707 -0.1609438955783844 -0.08443514257669449 -0.10868848115205765 0.02296832762658596 0.06925470381975174 -0.004454870708286762 -0.033772122114896774 -0.006896659731864929 0.08000905066728592 0.02034149132668972 0.09316328167915344 -0.05785345286130905 0.06609568744897842 0.04317013919353485 0.1645135134458542 0.09260787814855576 0.06227528303861618 -0.14479492604732513 -0.08750084787607193 0.14098741114139557 -0.1079266145825386 -0.22068744897842407 -0.13434582948684692 -0.41631823778152466 -0.09488589316606522 0.04189230129122734 -0.09270796179771423 -0.41758570075035095 -0.15050621330738068 -0.08882077038288116 -0.20288830995559692 0.05240672826766968 0.08935406059026718 0.18582753837108612 0.20357555150985718 0.08160074800252914 0.05448795482516289 -0.13780371844768524 0.04712061211466789 -0.09592218697071075 -0.07872112095355988 -0.054242558777332306 -0.22185960412025452 -0.2212647795677185 -0.2758190333843231 0.12216638773679733 0.12397932261228561 -0.15080034732818604 -0.19637657701969147 0.006310218013823032 -0.11895610392093658 -0.10755190998315811 -0.3304564654827118 -0.2582852244377136 0.05057713761925697 -0.13462068140506744 -0.07055632770061493 -0.09453897178173065 -0.07160114496946335 0.300622820854187 -0.019481990486383438 0.12358113378286362 0.00440175598487258 -0.07877256721258163 0.16113504767417908 0.14584098756313324 0.1380116492509842 0.16373662650585175 -0.20607803761959076 -0.18544097244739532 0.15449495613574982 -0.13146570324897766 -0.3714802861213684 0.027350127696990967 -0.009439452551305294 -0.12392378598451614 -0.15674445033073425 -0.02714148350059986 0.14291730523109436 0.2656295597553253 0.007883143611252308 0.17232449352741241 0.2268439531326294 0.019514648243784904 -0.13071101903915405 -0.02478899247944355 0.13734418153762817 -0.012069129385054111 0.13297919929027557 0.06784095615148544 0.0820462629199028 -0.024380121380090714 -0.08367596566677094 0.0007822477491572499 -0.19336389005184174 0.15575069189071655 -0.3100583255290985 -0.006206877995282412 -0.08710639923810959 0.05442208796739578 -0.1841890811920166 -0.0692940354347229 0.12529294192790985 0.05620599910616875 -0.03285825252532959 -0.06721946597099304 0.0836147740483284 0.2262614518404007 -0.04811437800526619 -0.162776380777359 0.06404465436935425 0.08530310541391373 0.026664629578590393 0.12377170473337173 0.06937325745820999 -0.14190472662448883 0.09924820065498352 -0.10246387869119644 0.016054291278123856 0.03335863724350929 -0.2507774531841278 -0.06611049175262451 0.07291251420974731 -0.00790311023592949 -0.011311621405184269 -0.0390920490026474 -0.019924508407711983 0.0797249898314476 -0.0029537684749811888 0.06502798199653625 -0.00386722176335752 -0.059712063521146774 0.07177192717790604 -0.0958920419216156 -0.262428343296051 -0.2769869565963745 -0.0801890566945076 -0.04432380944490433 -0.21100544929504395 -0.618431806564331 -0.06827864050865173 0.2015266716480255 -0.0669301301240921 -0.05998750776052475 0.026326315477490425 0.006323560606688261 -0.07617821544408798 -0.09129005670547485 0.07884404808282852 -0.07921500504016876 -0.06283272057771683 -0.0361270010471344 -0.042173806577920914 -0.07600674033164978 -0.13850131630897522 0.2177334725856781 -0.20172230899333954 0.009414814412593842 -0.06988222897052765 0.19320544600486755 0.3642210364341736 0.0029491137247532606 -0.05132685974240303 0.058807339519262314 -0.13230589032173157 -0.1155254989862442 0.0051074861548841 -0.21470363438129425 -0.10030237585306168 0.03271946683526039 0.08766534179449081 0.11030516028404236 -0.1147424727678299 -0.041422005742788315 -0.016947543248534203 -0.08012966066598892 -0.20002733170986176 -0.11486516892910004 0.07227600365877151 -0.21559792757034302 -0.3840182423591614 -0.023944322019815445 0.11462337523698807 -0.158506840467453 0.14577175676822662 0.03221040964126587 0.14188238978385925 0.20550894737243652 -0.1592174619436264 0.02512902021408081 -0.21482576429843903 -0.1942937672138214 0.013507814146578312 0.06352104246616364 -0.08971263468265533 0.16627845168113708 0.14951257407665253 0.049590323120355606 0.002677459502592683 0.3059963285923004 0.030980277806520462 -0.011337334290146828 0.09222438931465149 0.04403034970164299 -0.2889716625213623 0.028895948082208633 0.10053253918886185 0.028909126296639442 -0.10628542304039001 0.1346772462129593 -0.06575759500265121 0.02246811054646969 -0.03600737079977989 0.0161485206335783 -0.1569162905216217 -0.012156986631453037 -0.06682843714952469 0.03945428133010864 -0.001422210712917149 -0.10155938565731049 
-0.06265762448310852 0.11660416424274445 0.004204684868454933 -0.08110746741294861 -0.21065768599510193 0.14059150218963623 0.10148212313652039 0.18136177957057953 -0.32083946466445923 -0.001684042508713901 0.024962851777672768 0.49500396847724915 -0.24238580465316772 -0.2825978696346283 -0.37921351194381714 0.06020228564739227 0.14217634499073029 -0.03888426721096039 0.23109841346740723 0.2579115331172943 0.018518036231398582 -0.04456591606140137 0.14798206090927124 0.023928560316562653 -0.07290533185005188 -0.07340038567781448 0.03111409954726696 -0.16106203198432922 -0.1213378757238388 -0.018071450293064117 -0.0051105129532516 -0.16113293170928955 0.036962494254112244 -0.1456293761730194 0.011445880867540836 0.26187607645988464 0.1594039499759674 0.04689642786979675 -0.020778944715857506 -0.14954377710819244 0.11242581903934479 -0.14754490554332733 -0.0983002632856369 -0.24749703705310822 -0.0990787148475647 0.05870295315980911 -0.12583023309707642 -0.26615437865257263 0.05445851758122444 -0.07701314985752106 -0.1476873755455017 -0.02731635794043541 0.017375677824020386 -0.0881321057677269 -0.2350713312625885 -0.04503994062542915 0.030920950695872307 0.0677490234375 -0.014343608170747757 0.04278406500816345 0.12528270483016968 0.2179734855890274 0.09067519009113312 0.0964023545384407 -0.15203678607940674 0.14144153892993927 0.21060137450695038 0.06368135660886765 -0.12533988058567047 0.10873163491487503 0.1490151435136795 0.08842932432889938 -0.08675121515989304 -0.12525637447834015 -0.09919656813144684 -0.013551455922424793 -0.2147248536348343 -0.3022603988647461 -0.08196265995502472 -0.04055523872375488 0.2531627416610718 -0.10849923640489578 0.18840807676315308 -0.09124640375375748 -0.11991394311189651 0.145446315407753 -0.09030108898878098 -0.27117919921875 -0.09243033826351166 0.05349764972925186 0.034374069422483444 0.08668604493141174 -0.16802313923835754 -0.06810402125120163 0.1456918716430664 0.14641757309436798 0.0788850411772728 0.0849321112036705 -0.13856849074363708 -0.12089502066373825 -0.2463681995868683 -0.028641149401664734 -0.059482403099536896 0.2901306450366974 0.01821242831647396 0.23596328496932983 0.07985955476760864 0.2245112955570221 0.19896185398101807 0.043249309062957764 0.0398951917886734 -0.2245483100414276 -0.0065760682336986065 0.007096148561686277 0.043894581496715546 0.12804871797561646 0.1903943568468094 -0.05379718169569969 -0.16125692427158356 0.00037840218283236027 -0.16738341748714447 -0.33534279465675354 -0.08256165683269501 0.13097946345806122 0.09614014625549316 -0.1543319970369339 -0.12190527468919754 -0.0406959131360054 -0.026683909818530083 0.17895221710205078 0.05711707845330238 -0.176926851272583 0.010483172722160816 0.15235956013202667 -0.0387626588344574 -0.1606282740831375 -0.03193211928009987 -0.1519356369972229 -0.027715064585208893 0.06490618735551834 -0.12842555344104767 0.02977934665977955 -0.06302027404308319 0.2229175865650177 0.1007620096206665 0.29934874176979065 0.1350245177745819 -0.32910484075546265 0.17458923161029816 -0.008904947899281979 -0.20927667617797852 -0.16055278480052948 -0.03625132143497467 -0.05521196499466896 -0.07255089282989502 -0.01736379787325859 -0.14977014064788818 -0.08975120633840561 0.0781753659248352 0.150811567902565 -0.08331631869077682 0.10380387306213379 0.05629279464483261 0.08680249005556107 0.11222526431083679 0.12343211472034454 -0.0315144918859005 -0.10286114364862442 0.15771044790744781 0.08154132962226868 -0.012838328257203102 -0.3410308361053467 0.028556236997246742 -0.03320452570915222 -0.12679800391197205 0.06494800746440887 0.2298111915588379 -0.020765842869877815 -0.031845223158597946 -0.2996945083141327 0.16083504259586334 -0.21341902017593384 -0.035196878015995026 -0.2471553087234497 -0.13655517995357513 0.03897888958454132 0.02369236946105957 0.047308310866355896 -0.08331913501024246 0.06584831327199936 0.07246840745210648 0.03819838911294937 -0.15918636322021484 0.08905062079429626 -0.10063781589269638 -0.2331046760082245 -0.10124753415584564 0.1583792269229889 -0.14410576224327087 -0.18206264078617096 -0.13217639923095703 0.2566804885864258 0.18532440066337585 -0.17969413101673126 -0.15346316993236542 0.30007699131965637 0.11657203733921051 -0.1115453839302063 0.051070842891931534 -0.06382119655609131 -0.123745396733284 0.05702740699052811 0.05801410973072052 0.10195218026638031 -0.13047660887241364 -0.1855514645576477 -0.1452646553516388 -0.049207333475351334 0.029379960149526596 0.038201361894607544 0.010957406833767891 0.1624137908220291 0.28882360458374023 -0.01837334968149662 0.0905064195394516 -0.0407702699303627 0.04975244402885437 -0.14169101417064667 -0.0651179775595665 -0.1978657841682434 0.00580773688852787 0.09870500862598419 0.03149379789829254 -0.08583632856607437 -0.08551792055368423 0.12936381995677948 -0.05426767095923424 -0.046060290187597275 -0.07686484605073929 -0.3990631401538849 -0.04017237573862076 0.10109595954418182 -0.02498280256986618 -0.07397027313709259 0.044701505452394485 -1.722561864880845e-05 0.03845617175102234 -0.04300827533006668 0.1403500884771347 0.037284500896930695 0.09527043253183365 0.17289115488529205 0.07846511155366898 0.0901225134730339 0.10952866077423096 0.18695898354053497 
0.23830793797969818 -0.09502024203538895 -0.29277583956718445 0.12575763463974 0.18168407678604126 0.032186657190322876 -0.05565205216407776 -0.08902854472398758 0.037666354328393936 -0.27029669284820557 0.1564423143863678 -0.0002901481057051569 -0.20302052795886993 -0.1622474491596222 0.08269244432449341 0.031892839819192886 0.0968380868434906 0.023187648504972458 -0.07547979056835175 -0.02228439785540104 0.09087348729372025 -0.0883069783449173 0.05166519805788994 0.2076404094696045 0.2709442973136902 0.18438471853733063 0.23282235860824585 0.13442359864711761 -0.017319856211543083 0.22250929474830627 0.21839144825935364 0.10196327418088913 0.10486970841884613 0.220884770154953 0.24312949180603027 -0.047092851251363754 0.08017006516456604 0.03546057268977165 0.2605561316013336 -0.04545117914676666 0.021756073459982872 -0.11934620887041092 0.18519321084022522 -0.04265063256025314 -0.3515101671218872 -0.03684011474251747 -0.20502705872058868 -0.03570136800408363 -0.28952649235725403 -0.1975225955247879 -0.14899075031280518 -0.2230055332183838 -0.11021779477596283 -0.0644734650850296 -0.007259013596922159 0.0617106668651104 0.08393337577581406 0.02046106569468975 -0.013934004120528698 0.19269336760044098 0.3398386836051941 0.2574150264263153 -0.010889299213886261 -0.01906353235244751 0.29721689224243164 0.18749107420444489 0.03127436712384224 0.026425981894135475 0.1296280026435852 0.16356948018074036 0.06634076684713364 -0.11453437060117722 0.050053972750902176 -0.026412801817059517 0.1417757272720337 0.008302032016217709 -0.1950637698173523 -0.30209821462631226 -0.057374995201826096 0.003971915692090988 -0.3347606360912323 -0.3952212333679199 -0.27691614627838135 -0.4664212167263031 -0.04048512130975723 -0.020878830924630165 -0.16202911734580994 0.015866290777921677 0.2886768877506256 0.08889315277338028 0.02099652960896492 -0.12511759996414185 0.2532402575016022 0.3053934574127197 0.22507230937480927 -0.023653272539377213 -0.1844409704208374 -0.24689453840255737 -0.15550237894058228 -0.238678976893425 -0.37695375084877014 -0.19024839997291565 0.04712939262390137 0.12412518262863159 0.0406670942902565 -0.11901705712080002 0.12338041514158249 0.17335496842861176 0.3653818666934967 0.3413541615009308 0.16547684371471405 0.08108853548765182 0.2828153073787689 0.28333935141563416 0.19633284211158752 -0.008363012224435806 0.19881226122379303 0.18073245882987976 0.0011309258406981826 0.038408469408750534 0.02322269417345524 -0.19739018380641937 0.015182309783995152 0.1322638839483261 -0.13999447226524353 -0.34696173667907715 -0.046244822442531586 -0.00923329871147871 -0.0050732591189444065 -0.021221870556473732 -0.10148315876722336 0.062221623957157135 0.07796551287174225 0.08900982141494751 0.10316955298185349 0.13906089961528778 0.08241120725870132 0.08906210958957672 0.1227763220667839 -0.07045191526412964 -0.2303624004125595 -0.20997005701065063 -0.34645095467567444 -0.049160100519657135 0.1545877605676651 0.2053585797548294 0.0643589049577713 0.19120705127716064 -0.15436294674873352 0.02744508720934391 0.14885061979293823 -0.10607340186834335 0.06193222478032112 0.0419190339744091 -0.16000325977802277 -0.16810427606105804 -0.13449522852897644 -0.3099062442779541 -0.1961328238248825 -0.18793341517448425 -0.13723546266555786 -0.10511558502912521 0.050647445023059845 0.11167103052139282 0.05440240725874901 0.07214707136154175 -0.050384990870952606 -0.05636231601238251 0.09802652150392532 0.0908169150352478 -0.014226119965314865 0.00270679104141891 -0.023259460926055908 0.09317823499441147 -0.021756628528237343 -0.06720457226037979 -0.2959107458591461 -0.06148814409971237 -0.23363716900348663 -0.14511549472808838 -0.3490530550479889 0.10815245658159256 -0.056152865290641785 0.2290012687444687 0.15546542406082153 0.013035891577601433 0.030022436752915382 0.05251910164952278 0.5932614803314209 0.2935399115085602 0.033663347363471985 0.13311614096164703 0.0757160484790802 0.014454759657382965 -0.08193805813789368 -0.06331992894411087 -0.23080097138881683 -0.15169952809810638 -0.16480937600135803 -0.18884041905403137 -0.01786183938384056 0.0968589037656784 -0.13873308897018433 -0.11007203161716461 0.197325199842453 0.29553350806236267 0.3075520098209381 0.2045026570558548 0.02609424851834774 0.04990464076399803 0.03699009492993355 0.05097329244017601 -0.298941045999527 -0.1534195989370346 0.0729585587978363 0.005505713634192944 -0.08761914074420929 0.0006005767500028014 0.04433906450867653 -0.07949787378311157 -0.17833533883094788 0.09880424290895462 -0.027144301682710648 -0.045365966856479645 0.15361154079437256 0.19213901460170746 0.07444072514772415 -0.16216811537742615 -0.03953312709927559 0.14088797569274902 -0.09531323611736298 -0.11864479631185532 -0.09938441962003708 -0.13945886492729187 0.007304073311388493 -0.06285951286554337 -0.2561591565608978 -0.13412980735301971 0.15697363018989563 0.008031745441257954 0.008318237029016018 -0.15576212108135223 0.01814419776201248 0.07650449126958847 0.11633313447237015 0.32699495553970337 0.062009297311306 0.020295115187764168 -0.02144111879169941 0.09805993735790253 0.1025005429983139 0.007369279395788908 -0.026226503774523735 -0.23030367493629456 -0.35472968220710754 -0.2177974134683609 
-0.035667259246110916 -0.009893902577459812 0.059597015380859375 -0.15431849658489227 0.033803991973400116 -0.10526183992624283 0.02116844244301319 -0.03520970419049263 -0.07565823942422867 -0.3713904321193695 0.08520049601793289 0.026010990142822266 -0.002541579073294997 -0.10767974704504013 0.006099186837673187 0.16471628844738007 0.1569807529449463 0.6102175712585449 0.21740594506263733 -0.0070838313549757 0.09366003423929214 0.3741333484649658 -0.005308050196617842 0.1515858769416809 0.055990129709243774 0.0570407472550869 0.02270134724676609 0.05675433203577995 -0.09885843098163605 0.06559298187494278 0.2230151742696762 -0.1363334357738495 -0.027855917811393738 0.2796700596809387 -0.028839174658060074 -0.041578732430934906 0.2211417555809021 0.06142421066761017 -0.11973761767148972 0.04028024524450302 0.058520667254924774 0.032568786293268204 -0.25884270668029785 -0.08379726111888885 0.010179456323385239 -0.06075747311115265 -0.15842869877815247 -0.15055051445960999 -0.16307185590267181 -0.13075323402881622 -0.292408287525177 -0.11782717704772949 0.06945328414440155 0.09675979614257812 -0.016114264726638794 -0.04652409628033638 -0.01570754684507847 -0.005471130833029747 0.021898405626416206 -0.17661450803279877 -0.10481024533510208 -0.07572214305400848 -0.07213226705789566 -0.016136251389980316 0.23275642096996307 0.1373531073331833 0.22014722228050232 0.0802602618932724 -0.019393423572182655 -0.12832877039909363 0.21811583638191223 0.16539764404296875 -0.11942007392644882 -0.126445934176445 -0.030744081363081932 0.0937105119228363 -0.025419367477297783 -0.15888158977031708 -0.060011837631464005 0.018212584778666496 0.030453801155090332 0.2561221122741699 -0.16707800328731537 -0.024049919098615646 -0.18015135824680328 -0.09953329712152481 -0.05336254462599754 -0.29271119832992554 -0.3910830616950989 -0.02318543568253517 0.08133476227521896 -0.20818281173706055 -0.19073624908924103 -0.05045534670352936 0.14903248846530914 0.03988802433013916 -0.12511788308620453 0.05787988379597664 -0.19481676816940308 -0.29102325439453125 -0.015749994665384293 0.02260044775903225 0.011405827477574348 -0.05599909648299217 0.005516456440091133 0.05724513903260231 0.029306720942258835 -0.12872035801410675 -0.15261134505271912 -0.09785466641187668 -0.10290928184986115 0.05287155508995056 -0.060920290648937225 0.3961217999458313 0.32964953780174255 0.08775915205478668 -0.01739206351339817 -0.09045500308275223 0.049183283001184464 -0.10429303348064423 -0.03911672532558441 -0.10116986185312271 -0.11854351311922073 -0.184983491897583 -0.004514703992754221 -0.01669335924088955 0.11610572785139084 0.10632447153329849 -0.0520850270986557 -0.16670353710651398 -0.041938427835702896 0.3113701045513153 -0.23357482254505157 -0.20654146373271942 -0.12645654380321503 -0.08783351629972458 -0.05938006564974785 -0.027254365384578705 -0.0850253626704216 0.06048259139060974 -0.041639409959316254 -0.004326346330344677 -0.06968258321285248 -0.22565189003944397 0.13617482781410217 -0.06202355772256851 -0.1607971340417862 -0.05656227469444275 -0.0842377245426178 -0.1310282200574875 -0.26287397742271423 -0.1607661247253418 0.032368432730436325 0.20175817608833313 -0.02966618910431862 -0.19032831490039825 0.056660450994968414 0.07567727565765381 -0.14341743290424347 -0.1113276258111 0.2753196358680725 -0.13493867218494415 -0.14167208969593048 -0.035844892263412476 -0.10423970967531204 0.024087795987725258 -0.050182148814201355 0.0816144049167633 0.07672946900129318 -0.10642170161008835 -0.07925530523061752 -0.1367197185754776 0.0252982247620821 -0.08126489818096161 -0.14782395958900452 -0.12324313074350357 0.08597110211849213 -0.09345933049917221 0.12919433414936066 0.08005183190107346 -0.1844063550233841 0.1061868816614151 0.06521806865930557 -0.06735879182815552 -0.11810152232646942 0.12812572717666626 0.11563412100076675 0.008242267183959484 0.026605604216456413 0.11547410488128662 0.05467414855957031 0.11980625241994858 0.36358922719955444 -0.21680332720279694 -0.12530459463596344 -0.054026927798986435 -0.029722068458795547 -0.12227606028318405 0.13641156256198883 -0.1728692352771759 -0.15252633392810822 0.01429184339940548 -0.12630100548267365 0.06450366228818893 -0.002250891411677003 0.056846171617507935 -0.13590246438980103 -0.05567167326807976 0.0047075385227799416 -0.1400885134935379 -0.10136943310499191 -0.05925871431827545 0.04942648112773895 -0.30597421526908875 -0.088619165122509 0.04543761909008026 -0.16383139789104462 -0.08595511317253113 0.08850640058517456 -0.02993384376168251 -0.03691311925649643 0.00936918705701828 0.0817454606294632 -0.06020992994308472 0.2064128816127777 -0.1554318219423294 0.08809010684490204 -0.115083247423172 0.20957998931407928 -0.03391893580555916 -0.0223898496478796 0.13513270020484924 0.17131225764751434 0.05733846500515938 -0.19381199777126312 0.04861200973391533 0.1051596999168396 -0.0233683492988348 -0.1750170737504959 0.20437787473201752 -0.22152824699878693 -0.19359846413135529 0.11246218532323837 0.03330932557582855 -0.15784141421318054 0.019542858004570007 0.06720734387636185 0.15118370950222015 0.09350325912237167 0.019785327836871147 -0.07770371437072754 -0.00612710602581501 0.07827658951282501 0.06478501111268997 -0.09435223042964935 0.12044698745012283 
0.05139532685279846 0.15290522575378418 0.07519224286079407 -0.04147833213210106 0.24416421353816986 -0.024855373427271843 0.04568532109260559 -0.08878892660140991 0.15934868156909943 -0.1159505769610405 -0.09836236387491226 0.06582257151603699 0.30601969361305237 -0.18377694487571716 -0.024174444377422333 0.23291777074337006 -0.09317243844270706 -0.2189740538597107 -0.03167153149843216 0.1012861430644989 0.06913473457098007 0.057089801877737045 0.05942057818174362 0.1848548948764801 -0.06130333989858627 -0.016313299536705017 0.06194373220205307 0.11070293933153152 0.0836457908153534 0.059415169060230255 0.06538234651088715 0.011737553402781487 -0.03769751638174057 -0.16715607047080994 -0.028131457045674324 0.3229280710220337 -0.21152369678020477 0.059811096638441086 0.07848744094371796 0.09287664294242859 -0.1667095571756363 -0.04358728602528572 0.19213418662548065 -0.08947931975126266 0.13679815828800201 0.007299761287868023 -0.05315523222088814 -0.08887215703725815 -0.056008320301771164 -0.1093125194311142 -0.020662080496549606 -0.05370184779167175 -0.04463542252779007 -0.12207238376140594 -0.08406535536050797 -0.02105587162077427 -0.27283066511154175 -0.2009875327348709 -0.1714724749326706 -0.07295038551092148 -0.07741773128509521 -0.0246715284883976 0.24205808341503143 0.1643679291009903 0.13108600676059723 -0.05177685245871544 -0.11680632084608078 -0.10413555800914764 -0.050559911876916885 0.009802291169762611 0.12666365504264832 0.03782898932695389 -0.14742273092269897 -0.17268264293670654 0.06059523671865463 -0.04538623243570328 -0.07587902992963791 -0.27469563484191895 -0.09539038687944412 -0.054807424545288086 -0.08098138123750687 0.11627752333879471 -0.08149264007806778 0.06736896932125092 0.1990818828344345 0.012462637387216091 -0.04488580673933029 -0.23293106257915497 -0.07371149957180023 -0.1143217533826828 -0.08466435968875885 0.03517495095729828 -0.11038904637098312 -0.026190126314759254 0.02848760411143303 -0.11408273130655289 0.0005642574978992343 -0.04554175212979317 0.019136901944875717 -0.0789165124297142 0.22140513360500336 0.027035575360059738 -0.20951184630393982 -0.29936742782592773 -0.17530059814453125 -0.1524922102689743 0.04859576374292374 0.06364303082227707 -0.22668977081775665 0.01668143831193447 0.2294841855764389 0.1447596251964569 -0.10946360975503922 -0.05892719328403473 0.11658556759357452 0.1458517462015152 0.050856418907642365 -0.16621464490890503 0.07698594778776169 0.019163167104125023 -0.2305367887020111 0.0024222645442932844 0.009236951358616352 -0.0054117897525429726 0.12925833463668823 0.17169369757175446 0.1570395678281784 -0.15538468956947327 0.04621686041355133 0.042501844465732574 -0.13257957994937897 0.014092901721596718 -0.038721565157175064 -0.07657948136329651 -0.06577390432357788 0.1348763406276703 0.03492724150419235 -0.12646165490150452 -0.09693995118141174 -0.23732762038707733 -0.07249006628990173 -0.06393646448850632 -0.021311094984412193 0.0389770045876503 0.06671451032161713 0.1525108516216278 0.10513479262590408 -0.021459434181451797 0.059473734349012375 0.010515263304114342 -0.04637002944946289 -0.1940327286720276 0.058169830590486526 -0.1345103532075882 -0.32582181692123413 -0.15469947457313538 -0.30190709233283997 -0.3706505000591278 -0.08317957073450089 0.16018225252628326 0.10277704894542694 0.12246806174516678 0.01199181005358696 0.00921813677996397 -0.048116449266672134 -0.08497219532728195 0.09070420265197754 0.052687205374240875 -0.021529367193579674 -0.33155712485313416 -0.0731038823723793 0.10870158672332764 -0.2111624926328659 -0.20914192497730255 -0.1717700958251953 -0.1384308785200119 -0.00495549151673913 0.1206740066409111 -0.21510428190231323 -0.03370268642902374 0.004015699960291386 -0.0380624420940876 -0.1249876394867897 -0.008303426206111908 0.07833926379680634 -0.0034849701914936304 -0.11443696171045303 0.06316423416137695 0.11976711452007294 0.009280639700591564 -0.10757403075695038 -0.14181463420391083 0.2510867118835449 -0.0106899319216609 0.11875085532665253 -0.0009063870529644191 0.24902397394180298 -0.1212518960237503 -0.2618199288845062 -0.011179587803781033 0.058489784598350525 0.006468520499765873 0.20242366194725037 0.30112433433532715 -0.22939717769622803 -0.019914885982871056 0.08940991759300232 -0.18862919509410858 0.0853627622127533 -0.08309708535671234 -0.10330746322870255 -0.029070863500237465 0.28293412923812866 0.08622463792562485 0.058423373848199844 -0.2511131167411804 -0.032708194106817245 0.1414462774991989 0.013027925044298172 0.04819516837596893 0.07862639427185059 -0.042701356112957 0.18715500831604004 -0.1936965435743332 0.018895428627729416 0.19860325753688812 -0.07780752331018448 -0.08378832787275314 0.17435145378112793 0.012740408070385456 -0.2678380608558655 -0.15367503464221954 0.07862485200166702 0.10239904373884201 -0.05058284103870392 0.28234678506851196 0.28245607018470764 -0.006272036582231522 0.1315646767616272 0.1491057276725769 0.1736539602279663 0.02939680404961109 0.1250493824481964 0.023902641609311104 -0.14313122630119324 0.014878418296575546 -0.026990776881575584 0.22312365472316742 -0.1748635470867157 -0.1103951707482338 -0.23428422212600708 -0.2899399995803833 -0.1529201865196228 -0.08528243750333786 -0.009048856794834137 0.06812629848718643 
0.12294194102287292 0.28166094422340393 -0.006381595972925425 0.11101916432380676 0.1976737082004547 0.024546585977077484 -0.19658143818378448 -0.21334554255008698 0.038087744265794754 -0.05557391792535782 0.12386253476142883 -0.07679577171802521 -0.03669121488928795 -0.00799056701362133 0.2349768579006195 0.012948193587362766 -0.0021078679710626602 0.06560511142015457 0.010226693004369736 -0.1085798591375351 -0.09544580429792404 -0.2534785866737366 -0.08587298542261124 -0.04709796607494354 -0.07146414369344711 -0.07765059173107147 -0.06009626016020775 0.13235676288604736 0.002881012624129653 0.08947161585092545 -0.0041534509509801865 0.0903528705239296 -0.10955193638801575 -0.0809248760342598 0.11697746813297272 -0.17249558866024017 -0.044777993112802505 0.04151247814297676 0.08305904269218445 0.003885250072926283 -0.04706704989075661 0.03400689736008644 -0.23773835599422455 0.16500498354434967 0.026045961305499077 -0.18204665184020996 -0.1680176705121994 0.045499417930841446 -0.12481547147035599 -0.0409698486328125 -0.11553321033716202 -0.3427070081233978 -0.23275703191757202 0.04122002050280571 0.05706514045596123 0.21767091751098633 0.11933745443820953 0.06808432191610336 -0.06430065631866455 0.009780779480934143 -0.09217307716608047 0.0143301235511899 -0.08399325609207153 -0.06697623431682587 -0.21780188381671906 -0.49607497453689575 -0.2845790684223175 0.16163896024227142 -0.25874078273773193 -0.19527357816696167 -0.17202524840831757 -0.23714061081409454 -0.12694966793060303 -0.06276019662618637 0.04799620434641838 0.13859790563583374 0.17526966333389282 -0.09366509318351746 0.12421035021543503 0.010720438323915005 0.06032870337367058 -0.10158546268939972 -0.11556576937437057 0.026727648451924324 0.0763465091586113 -0.17897257208824158 0.20797273516654968 0.07377178221940994 -0.34947511553764343 0.03600343316793442 -0.058163948357105255 -0.09364522993564606 0.05407809466123581 0.044612057507038116 0.1162228137254715 -0.1873793751001358 0.12186449766159058 0.0658210888504982 -0.10948939621448517 -0.014146877452731133 0.12623392045497894 -0.12390675395727158 -0.05663890391588211 -0.009813554584980011 -0.26963284611701965 -0.1597784459590912 -0.14168715476989746 -0.02426752634346485 -0.185357004404068 -0.21815964579582214 0.027676083147525787 0.024328824132680893 -0.2612884044647217 -0.26838865876197815 -0.18159817159175873 -0.01238873042166233 -0.006920729298144579 0.1677749902009964 -0.011885969899594784 -0.038448579609394073 0.18720436096191406 -0.0814470574259758 -0.10725387185811996 -0.12532415986061096 -0.17662060260772705 0.02418048121035099 0.028896687552332878 0.1641606241464615 -0.0909421518445015 -0.2591760754585266 0.008772769011557102 0.030209239572286606 -0.13254372775554657 0.11578284204006195 -0.011132529005408287 -0.027394380420446396 0.02291422337293625 -0.011330378241837025 0.05249785631895065 0.04514429718255997 0.14914806187152863 0.05834483355283737 0.011659365147352219 -0.10088276863098145 -0.165849506855011 -0.1871652752161026 -0.12663020193576813 0.01069776713848114 0.039984915405511856 0.25508925318717957 -0.0698918029665947 0.0048731304705142975 0.05584290996193886 0.17639963328838348 0.18448787927627563 0.05023078992962837 0.1209569200873375 0.07331009209156036 -0.1266530305147171 -0.1794680953025818 -0.3135424554347992 -0.337217777967453 -0.29402056336402893 -0.2725623846054077 -0.31713348627090454 -0.2155086100101471 -0.07360488176345825 0.020708609372377396 0.08643881231546402 0.031773097813129425 0.12308908998966217 0.07687899470329285 0.021367067471146584 0.08718603104352951 -0.048581354320049286 -0.1538446843624115 -0.02649071253836155 0.09751914441585541 0.1820305436849594 -0.04435984417796135 0.18905217945575714 0.18303686380386353 0.13051779568195343 0.07121435552835464 0.08966047316789627 -0.04092046990990639 0.009465757757425308 -0.04366316273808479 -0.08507497608661652 0.09355631470680237 0.03284763917326927 0.12859995663166046 0.24527490139007568 0.16825412213802338 -0.05007358640432358 -0.08391088992357254 0.08338239789009094 -0.1377216875553131 0.1434098482131958 0.045487940311431885 -0.02478046342730522 0.25773951411247253 0.025838082656264305 -0.09924906492233276 0.1048140600323677 -0.0992746353149414 -0.04590253904461861 0.030911417677998543 0.22677160799503326 0.16002324223518372 -0.22465069591999054 0.33693987131118774 0.128068745136261 -0.20900024473667145 0.1027349978685379 0.06712543219327927 -0.11417775601148605 0.037531182169914246 0.07109189033508301 -0.056932177394628525 -0.018050245940685272 -0.029612421989440918 0.14671562612056732 -0.08772444725036621 -0.0636136457324028 0.09144601970911026 0.015435995534062386 0.06254173070192337 0.19172479212284088 -0.022337602451443672 0.04633866250514984 -0.0808614119887352 -0.037193190306425095 -0.1754143089056015 0.046515949070453644 -0.13680215179920197 -0.001345814554952085 -0.10643377900123596 0.029113521799445152 0.23257718980312347 -0.208598792552948 -0.33990761637687683 -0.1883712112903595 0.03493191674351692 0.04802508279681206 0.03573962673544884 0.07972780615091324 -0.0678742527961731 0.11660902947187424 0.1728425920009613 0.17179642617702484 -0.05162185803055763 0.05894188955426216 -0.010240765288472176 -0.03889128565788269 -0.26651105284690857 
-0.2174217402935028 -0.09777084738016129 0.060054730623960495 0.19883310794830322 0.11133847385644913 -0.3859918415546417 0.16922824084758759 0.05640949308872223 0.07629682868719101 -0.2766856849193573 0.1568506956100464 0.15783490240573883 0.1275148093700409 0.21868698298931122 0.11577622592449188 -0.01277993991971016 -0.06077761575579643 0.49475225806236267 0.20020583271980286 0.10003036260604858 0.12142195552587509 0.3760974705219269 -0.02756533958017826 0.004262971691787243 0.03406737744808197 0.31137531995773315 0.18025392293930054 -0.18560107052326202 0.15437200665473938 0.06997686624526978 0.17338381707668304 0.009534795768558979 -0.11470510810613632 0.33475518226623535 0.0736047700047493 0.05924560874700546 -0.23325583338737488 0.0666087344288826 -0.08838619291782379 -0.05001460388302803 0.20743069052696228 0.18702387809753418 -0.13596783578395844 -0.0025430822279304266 0.1515917330980301 -0.09612428396940231 -0.12151597440242767 0.02929181046783924 0.18289321660995483 0.10776934772729874 0.010490745306015015 -0.030790284276008606 0.09509817510843277 -0.08114767074584961 -0.0503603033721447 0.03703451529145241 -0.23652300238609314 -0.05457588657736778 -0.0332956463098526 -0.13263309001922607 -0.4202660322189331 -0.32205963134765625 -0.13882878422737122 -0.12087907642126083 0.10813699662685394 -0.012300245463848114 -0.2566350996494293 -0.00752250524237752 0.1915844827890396 0.028491796925663948 0.01332309003919363 -0.23507946729660034 0.02987225539982319 -0.03296751528978348 0.07483777403831482 -0.11056449264287949 -0.14904119074344635 0.03090551681816578 -0.10173593461513519 -0.08731634169816971 0.031157420948147774 0.30880457162857056 0.02909882180392742 -0.0147590022534132 -0.1595410704612732 -0.110646553337574 -0.21367774903774261 -0.1600520759820938 -0.02024768479168415 0.01574794203042984 0.1387295424938202 0.013484415598213673 -0.023768749088048935 -0.1721986085176468 -0.03182496875524521 0.1608934998512268 -0.02354096621274948 0.13360443711280823 -0.033040471374988556 -0.015805600211024284 0.04577221721410751 -0.19751447439193726 0.14937244355678558 -0.19107896089553833 -0.21057651937007904 -0.13523967564105988 0.09349560737609863 0.03764243796467781 -0.28025123476982117 -0.19540387392044067 0.09431000798940659 0.015511883422732353 -0.30628976225852966 0.3291093409061432 0.48591363430023193 0.04643949121236801 -0.35548681020736694 0.06246563419699669 0.14715145528316498 -0.0050986227579414845 -0.13629959523677826 0.13978424668312073 0.015249240212142467 -0.177010640501976 -0.11701112240552902 0.006919221021234989 0.044623930007219315 -0.1511966586112976 -0.166404590010643 -0.12259779870510101 0.03891129046678543 -0.03381071239709854 -0.021998781710863113 -0.022963492199778557 -0.047717440873384476 0.16401618719100952 0.04799431189894676 -0.14160551130771637 -0.04465103521943092 0.09708449989557266 0.14441898465156555 -0.2882467210292816 0.0939931571483612 -0.032129235565662384 0.09398844093084335 -0.08640900999307632 -0.10515196621417999 -0.19108131527900696 0.21374399960041046 0.0866008773446083 -0.13629712164402008 -0.06388382613658905 -0.0021918900310993195 -0.17294614017009735 -0.18010644614696503 0.06159660220146179 0.03468482196331024 -0.14604195952415466 -0.1784052699804306 0.05524811893701553 0.2737284004688263 0.16040286421775818 -0.14685069024562836 -0.11825624853372574 0.286274254322052 0.21345216035842896 0.1612279862165451 -0.007194787263870239 -0.14358600974082947 -0.08765514940023422 0.05489542335271835 -0.039368923753499985 -0.16453534364700317 -0.253692626953125 -0.17122431099414825 -0.08544903993606567 0.05532093718647957 -0.1315065622329712 -0.1401018351316452 0.322124183177948 0.001904963981360197 0.023633858188986778 -0.01976398378610611 0.1648104190826416 -0.1922406107187271 0.03961058706045151 2.8007443688693456e-05 0.20964586734771729 0.26166650652885437 0.08185649663209915 0.036435581743717194 0.10949263721704483 0.39765387773513794 -0.37370362877845764 -0.14863291382789612 0.04314665496349335 0.038552574813365936 -0.26129546761512756 0.02238558605313301 -0.04825286567211151 -0.0502004511654377 -0.27585750818252563 -0.10762720555067062 0.18957331776618958 0.04666801914572716 0.07618740946054459 0.08562126010656357 -0.006894875783473253 -0.28183379769325256 -0.23326508700847626 -0.2767743170261383 0.07332658767700195 -0.21401913464069366 -0.5137239098548889 -0.041240014135837555 -0.34362855553627014 0.2098425328731537 -0.08420407772064209 -0.20496173202991486 -0.14473292231559753 -0.011582493782043457 -0.08069676160812378 -0.08038323372602463 0.07575251162052155 -0.05069882050156593 -0.017868518829345703 -0.18235260248184204 0.20226535201072693 0.15871918201446533 -0.14306320250034332 -0.08104869723320007 0.07452170550823212 0.11760596185922623 -0.0796964019536972 -0.14022772014141083 0.13165926933288574 0.1066010594367981 -0.1226460263133049 0.11067363619804382 0.1879633516073227 -0.07068496197462082 -0.054240304976701736 0.06008855998516083 -0.033953957259655 -0.12215162813663483 -0.01448845211416483 0.16711890697479248 0.04575018212199211 -0.020024685189127922 0.019752345979213715 -0.2196161448955536 0.025021083652973175 -0.022183554247021675 -0.05952487513422966 -0.14195695519447327 -0.17532019317150116 
0.024686014279723167 -0.2673225700855255 -0.27504056692123413 0.1410236656665802 0.20952996611595154 -0.2944676876068115 -0.2374359667301178 -0.1466917246580124 0.011628135107457638 -0.30030059814453125 -0.32361868023872375 -0.10200528055429459 -0.12264088541269302 -0.1448638141155243 -0.1248064637184143 -0.047239355742931366 0.17132271826267242 0.05641816183924675 0.026184378191828728 -0.17527401447296143 -0.13533298671245575 -0.13056299090385437 0.38052597641944885 0.13398750126361847 -0.012064552865922451 0.06100308522582054 0.1376028209924698 0.19098563492298126 0.06239413097500801 0.11760321259498596 0.042770981788635254 0.11246420443058014 0.07727916538715363 -0.025865338742733 0.2848483622074127 -0.06279095262289047 -0.04491202533245087 0.10331587493419647 0.14388050138950348 -0.25251397490501404 0.10667059570550919 0.28944531083106995 0.043614596128463745 -0.2453572154045105 -0.131707563996315 -0.061510030180215836 -0.23085416853427887 -0.13753676414489746 0.014623058028519154 -0.060128144919872284 -0.04461956024169922 -0.18073727190494537 0.01504647545516491 -0.08004067093133926 -0.007821274921298027 0.06679242849349976 -0.09481123834848404 -0.06723430007696152 0.0959189385175705 0.1971314251422882 0.08626649528741837 -0.06507714092731476 0.022751005366444588 -0.060070402920246124 -0.002080555073916912 -0.1551111787557602 -0.19332127273082733 -0.03772708773612976 0.11089707165956497 0.11615251749753952 -0.07050114125013351 -0.07977689057588577 0.0683271512389183 -0.016470346599817276 0.07493999600410461 -0.02426554448902607 -0.20652705430984497 0.040565405040979385 0.0985364243388176 0.021073484793305397 -0.08445616811513901 -0.0638468936085701 -0.19823326170444489 -0.2388797402381897 0.03989511355757713 0.0613740049302578 0.16391593217849731 -0.0017062433762475848 0.10000398755073547 0.11955447494983673 -0.05073158070445061 0.05592922493815422 0.23495550453662872 -0.01720857433974743 0.10928372293710709 0.07119004428386688 -0.09729650616645813 -0.10183171927928925 -0.10496105253696442 -0.2804388105869293 -0.04435387998819351 0.003488086862489581 0.11128940433263779 -0.057334717363119125 -0.0643579363822937 -0.11163298785686493 0.1266128271818161 0.2203860729932785 -0.11085561662912369 -0.0381985567510128 0.11754553765058517 0.3767508566379547 0.07402753829956055 0.14356571435928345 0.2236778885126114 -0.13450610637664795 0.20152920484542847 0.12521427869796753 -0.03399290516972542 0.0333639420568943 0.11759699881076813 -0.12147067487239838 -0.07680195569992065 0.023402400314807892 -0.21927444636821747 -0.37058520317077637 -0.3985803425312042 -0.26023322343826294 -0.12815572321414948 -0.03787532448768616 0.1419195830821991 0.19493035972118378 -0.009530826471745968 -0.020753655582666397 -0.13337436318397522 0.032034289091825485 0.3332298994064331 0.2511516213417053 -0.008147270418703556 -0.07533029466867447 0.11344932019710541 0.12262540310621262 -0.08411948382854462 0.10256950557231903 -0.09933499246835709 0.08456183224916458 0.03959565982222557 0.04511604085564613 0.041931964457035065 0.10820119082927704 -0.03499007225036621 -0.17483893036842346 0.33273833990097046 0.10377327352762222 -0.1135631799697876 -0.11629770696163177 0.004245318006724119 -0.2129543423652649 -0.05254094675183296 0.08149053156375885 0.15141752362251282 0.1985858678817749 -0.1307384967803955 -0.08977590501308441 -0.12944787740707397 -0.15372760593891144 0.12942786514759064 -0.10839104652404785 0.13135215640068054 -0.0074341013096272945 0.19386053085327148 0.18874473869800568 -0.1292203664779663 -0.21655826270580292 -0.06585567444562912 0.20444554090499878 -0.009663396514952183 0.09640049189329147 -0.23685622215270996 -0.0686570480465889 -0.07102496176958084 -0.035789620131254196 0.07441376149654388 0.2546980679035187 -0.04111263528466225 -0.07640976458787918 0.13164229691028595 -0.15354076027870178 0.18811817467212677 0.33267855644226074 0.25446435809135437 0.09016093611717224 0.07823344320058823 -0.2708190381526947 -0.2022991180419922 -0.16272804141044617 -0.00033275707392022014 0.03501049801707268 -0.047092974185943604 -0.1570935845375061 -0.010709710419178009 0.10479315370321274 -0.10903750360012054 0.14904528856277466 -0.04336634278297424 0.24292682111263275 0.41722220182418823 0.13129600882530212 -0.18851877748966217 -0.158029705286026 -0.09275098145008087 -0.11827056109905243 -0.08082956075668335 0.0454319529235363 0.04310591518878937 -0.1369445025920868 -0.004211081191897392 -0.029402045533061028 -0.13749393820762634 -0.06423796713352203 0.09682445228099823 0.07728642970323563 0.14520986378192902 0.15946093201637268 -0.010360333137214184 -0.061313726007938385 -0.31513041257858276 -0.23032936453819275 0.12137375771999359 -0.14772704243659973 -0.4525386095046997 -0.5574037432670593 0.1352451741695404 -0.08881042897701263 -0.2994364798069 -0.46201491355895996 -0.22433418035507202 -0.31232592463493347 -0.07346317172050476 -0.11538636684417725 0.10493757575750351 0.12460844963788986 0.17440837621688843 0.2400670200586319 0.012548316270112991 -0.09150850772857666 0.09149245917797089 0.28511202335357666 0.03942345455288887 0.12425344437360764 0.17262683808803558 0.16912761330604553 -0.17296715080738068 -0.12722471356391907 -0.058644428849220276 -0.11185885965824127 
-0.19497422873973846 -0.07629714906215668 -0.13027425110340118 0.12684442102909088 -0.009212511591613293 -0.08453850448131561 0.021106263622641563 0.013176791369915009 0.02466880902647972 -0.06164400279521942 0.13770973682403564 0.30148622393608093 0.026895495131611824 0.10071700811386108 0.12570323050022125 0.22608505189418793 -0.07325691729784012 0.37441444396972656 0.09227222204208374 -0.017784355208277702 0.06303463876247406 0.30825892090797424 0.17108900845050812 0.014196017757058144 -0.037350039929151535 0.19023960828781128 -0.03957381844520569 -0.20395420491695404 -0.06698805838823318 0.01791464351117611 0.009059954434633255 -0.241038978099823 -0.10711024701595306 -0.057474322617053986 0.051106419414281845 -0.10936315357685089 -0.02528711035847664 0.1836591511964798 0.0881500095129013 0.03472690284252167 0.35124149918556213 0.27791285514831543 -0.09681663662195206 -0.1276063621044159 -0.002507016994059086 -0.2280561774969101 -0.0063199191354215145 0.023439355194568634 0.17288094758987427 0.07942262291908264 0.161961629986763 0.11721228808164597 0.09052349627017975 -0.006563764996826649 -0.17302878201007843 -0.14888407289981842 -0.08387541770935059 0.008649954572319984 0.0033608342055231333 0.11364450305700302 -0.49925512075424194 -0.2645583152770996 -0.36170488595962524 -0.46894437074661255 -0.04054367169737816 -0.0072537618689239025 -0.1450643092393875 0.05050932243466377 0.11197153478860855 0.11269409209489822 0.08525986224412918 -0.05796463042497635 -0.09740146994590759 -0.04008496552705765 -0.05999261885881424 0.009413125924766064 -0.31539657711982727 -0.26825881004333496 -0.12203163653612137 -0.08949033915996552 -0.05287591740489006 0.1597292423248291 -0.34194397926330566 -0.1990562528371811 -0.012239639647305012 0.1207473874092102 -0.021699124947190285 -0.011300661601126194 -0.1182357668876648 0.05170203372836113 0.1352660357952118 -0.030521323904395103 -0.11835847795009613 0.06239054352045059 -0.10643863677978516 -0.04158514738082886 0.10818254202604294 0.28035610914230347 -0.09926906228065491 0.019667113199830055 0.12178663909435272 0.03218727186322212 0.0312577560544014 -0.06926240026950836 -0.14837661385536194 -0.1530705988407135 -0.07411083579063416 0.034646015614271164 -0.19023039937019348 -0.19321678578853607 -0.28758853673934937 -0.3126499056816101 -0.11657551676034927 -0.009871113114058971 0.11363980919122696 -0.0851309597492218 -0.18744289875030518 0.11991536617279053 0.2778972089290619 -0.0644945278763771 -0.3922661542892456 0.24586333334445953 -0.03368004411458969 -0.05463998764753342 -0.2618281841278076 0.014812820591032505 0.004519588313996792 -0.038324024528265 -0.014430468901991844 0.034883346408605576 -0.1269376277923584 0.06392237544059753 -0.09887619316577911 -0.12548109889030457 -0.12152078002691269 0.1708819717168808 0.02492186613380909 0.04324744641780853 -0.040397126227617264 0.008854683488607407 0.08307722955942154 -0.035208843648433685 0.20869292318820953 -0.004911360796540976 0.0714164599776268 -0.11281759291887283 -0.18374569714069366 -0.26034343242645264 0.20833732187747955 0.20244170725345612 0.21652548015117645 0.02091183513402939 0.11047407239675522 -0.35429272055625916 -0.31546223163604736 -0.12289499491453171 -0.05186891928315163 -0.09392762929201126 -0.14751364290714264 0.07096005976200104 -0.02482912503182888 0.07231543213129044 -0.038453198969364166 -0.1519704908132553 0.18588539958000183 0.20631447434425354 0.08887837827205658 0.16765329241752625 -0.1296011507511139 -0.3593737781047821 -0.28578901290893555 -0.30773815512657166 -0.3915560245513916 -0.34378135204315186 -0.3087514638900757 -0.13370421528816223 -0.11737880855798721 0.1450083702802658 -0.14526985585689545 0.2566199004650116 -0.0610351599752903 0.018140938133001328 0.1069251224398613 0.1258348971605301 -0.04228387027978897 -0.07632481306791306 0.05784201622009277 -0.012431014329195023 0.2628742754459381 0.21651701629161835 0.08258742094039917 0.14796966314315796 0.18337500095367432 -0.07951129972934723 -0.0502798967063427 -0.03854096308350563 0.2927902340888977 -0.06994487345218658 -0.013471795246005058 0.09850677102804184 -0.22155989706516266 -0.30327048897743225 -0.318839430809021 0.04744752123951912 0.11636798828840256 -0.07492852956056595 0.08408528566360474 -0.038916416466236115 -0.1372125893831253 -0.12542323768138885 -0.0828314796090126 0.10470534861087799 -0.12457863986492157 -0.26385578513145447 0.11258594691753387 -0.019701309502124786 0.047971706837415695 0.04380275681614876 -0.1760154813528061 -0.11824099719524384 -0.0746191069483757 -0.2177954763174057 -0.22780603170394897 0.011918759904801846 -0.026925308629870415 0.14774468541145325 -0.22386950254440308 -0.04573414847254753 0.124214768409729 0.14635442197322845 -0.021951161324977875 0.18327480554580688 0.30383095145225525 0.011364140547811985 -0.00498665077611804 0.2010069638490677 0.24942593276500702 -0.141907200217247 0.04917880892753601 0.17099234461784363 -0.18604129552841187 -0.12107120454311371 -0.023852599784731865 -0.006282510235905647 -0.03441924974322319 -0.137557253241539 0.11155875027179718 0.04907102510333061 -0.142629936337471 -0.1609291285276413 0.07699261605739594 0.19339333474636078 -0.1274273693561554 -0.2951516807079315 -0.22490571439266205 -0.12216439843177795 
-0.2200736403465271 0.11984463036060333 0.27777576446533203 0.024077437818050385 -0.3900150954723358 0.11766765266656876 0.1739746779203415 0.0018091753590852022 -0.20809972286224365 0.046663206070661545 0.07945741713047028 0.12902915477752686 -0.042613182216882706 -0.048659857362508774 0.006626455578953028 0.21606288850307465 -0.05848325043916702 0.37240707874298096 -0.03336366266012192 0.06762635707855225 0.023093098774552345 -0.0063925147987902164 0.04990648105740547 -0.0146414116024971 -0.0032048679422587156 0.220362588763237 -0.07923031598329544 -0.14599910378456116 0.24982436001300812 0.18859802186489105 -0.1449761539697647 -0.038023483008146286 0.3430541753768921 0.4259810745716095 -0.03647786006331444 -0.05620446056127548 -0.014881043694913387 0.008291077800095081 -0.29061540961265564 0.14875428378582 0.27953776717185974 -0.1261231005191803 0.045345891267061234 0.015877095982432365 -0.0774943083524704 0.026966417208313942 -0.0685519203543663 -0.051669880747795105 -0.07393085211515427 -0.07928454875946045 0.014877574518322945 -0.04998921975493431 0.11785109341144562 0.028996340930461884 -0.03832412138581276 -0.1251634806394577 -0.0688190758228302 -0.0959140956401825 -0.1920369267463684 -0.17024630308151245 -0.08558052033185959 -0.07799989730119705 -0.018736908212304115 -0.15464334189891815 -0.1274663209915161 0.21759270131587982 -0.01836913451552391 -0.023968258872628212 -0.17306172847747803 -0.16498883068561554 -0.06678629666566849 -0.007298085372895002 -0.1677115112543106 -0.10743850469589233 -0.3210439085960388 -0.03381964564323425 -0.11493375897407532 -0.35892975330352783 -0.48504987359046936 -0.07568085193634033 0.16042940318584442 -0.08711709827184677 0.12224534898996353 0.14585839211940765 -0.2597366273403168 -0.26890236139297485 -0.37688931822776794 -0.06174600496888161 -0.1374054104089737 -0.17053431272506714 -0.21550101041793823 -0.17111361026763916 -0.16147489845752716 -0.0689542293548584 -0.2944357693195343 -0.1248055100440979 -0.13162091374397278 -0.13393695652484894 -0.02852088399231434 -0.03177083656191826 0.040594883263111115 -0.0764567032456398 0.21302761137485504 -0.1767910122871399 -0.03376581519842148 -0.07585395872592926 -0.18011662364006042 -0.1907513290643692 0.12107500433921814 -0.05944842845201492 -0.06794968992471695 -0.05088618025183678 -0.11581429839134216 0.01656368374824524 0.004976868163794279 0.27368006110191345 -0.15324416756629944 -0.40301117300987244 -0.06362514197826385 0.1178351566195488 -0.1658056676387787 -0.2832390367984772 -0.2271777093410492 0.11662387102842331 0.0023447154089808464 -0.04754369333386421 -0.39919978380203247 -0.06339278072118759 0.15357328951358795 0.003015130292624235 0.12825821340084076 -0.034170038998126984 0.05897224694490433 -0.11254489421844482 -0.029737047851085663 -0.14726997911930084 -0.08742595463991165 -0.30886396765708923 0.06697119772434235 -0.09701734036207199 -0.06048991158604622 -0.13565228879451752 -0.02816854603588581 -0.042283929884433746 0.11600373685359955 -0.061389289796352386 -0.057458408176898956 0.05638149753212929 0.03117833472788334 0.031334877014160156 0.19043773412704468 0.08000680804252625 -0.02615310065448284 0.03147510439157486 0.016260195523500443 0.09069149196147919 -0.022959303110837936 -0.003354698419570923 -0.13482579588890076 -0.21361510455608368 -0.09998608380556107 -0.2925178110599518 -0.33048972487449646 -0.10325583815574646 -0.05589503422379494 -0.012589078396558762 -0.33138254284858704 -0.2349572628736496 0.08928333222866058 0.04157119616866112 -0.20753104984760284 -0.3813949525356293 0.08890070021152496 0.039366498589515686 0.07736340165138245 -0.1308378279209137 -0.4365927278995514 -0.5858222842216492 0.0843341201543808 0.26278820633888245 -0.05799143388867378 0.10096541792154312 0.049476366490125656 0.06828623265028 0.27008742094039917 0.3329710364341736 -0.12408342957496643 -0.057122163474559784 0.1453475058078766 0.128526508808136 0.1967788189649582 0.026528753340244293 -0.05159745365381241 -0.02792205847799778 -0.11784958094358444 -0.1356770098209381 -0.11393897980451584 0.2031443864107132 0.02184433862566948 -0.37151750922203064 0.18064574897289276 0.0504705011844635 -0.0776451826095581 -0.2587348222732544 0.1094760000705719 0.0568525604903698 -0.058825913816690445 0.292728990316391 -0.08198454231023788 -0.16461384296417236 -0.07971183955669403 0.004805983044207096 -0.19742290675640106 -0.19479584693908691 -0.10750674456357956 -0.08280918002128601 -0.08005022257566452 0.030837465077638626 -0.23583441972732544 -0.3020097017288208 0.032052330672740936 -0.15618762373924255 -0.1578952521085739 -0.054609011858701706 0.16364620625972748 -0.04391741007566452 0.2253805547952652 0.03305846452713013 -0.3763493597507477 -0.027702571824193 0.07406974583864212 0.23777523636817932 -0.048927392810583115 0.0723743662238121 -0.04094971343874931 -0.002286377130076289 -0.007305633742362261 -0.02163544110953808 -0.15220670402050018 -0.1900835633277893 -0.3118538558483124 -0.03698962926864624 0.025060461834073067 -0.15049627423286438 0.03977145627140999 0.1419200450181961 -0.13115566968917847 -0.12699387967586517 -0.11539766937494278 -0.05982007458806038 -0.07181531935930252 0.09636881947517395 -0.0701357051730156 0.06519994884729385 0.12713105976581573 -0.18049463629722595 
-0.010944057255983353 0.09414736926555634 -0.03032013215124607 -0.11252402514219284 0.009748349897563457 -0.20799261331558228 0.004127936437726021 0.18094342947006226 0.025203892961144447 0.07997491210699081 -0.030776837840676308 -0.002510610269382596 0.08327934145927429 0.10304861515760422 -0.06310219317674637 0.134304940700531 0.06992766261100769 -0.07891672104597092 0.05030721798539162 0.06465981155633926 -0.0025903163477778435 -0.10456055402755737 -0.13234812021255493 -0.16514603793621063 0.015790332108736038 0.11529611796140671 0.0681171715259552 -0.16033236682415009 0.07141434401273727 0.06208766996860504 0.0874464362859726 -0.05008688569068909 -0.16718675196170807 -0.09978817403316498 -0.06434851884841919 0.07200071215629578 0.28103920817375183 0.11094782501459122 0.12223567068576813 -0.08350655436515808 -0.07793845236301422 -0.07371959090232849 -0.029872629791498184 -0.0477752760052681 0.08754923194646835 -0.059244051575660706 0.1405605673789978 -0.023351913318037987 -0.17996764183044434 -0.09028355777263641 -0.12433446198701859 -0.10884749889373779 0.04996190220117569 0.0799497589468956 0.21491739153862 0.026427609845995903 0.04878704622387886 0.0050096455961465836 -0.009869295172393322 -0.11470983177423477 0.26151716709136963 0.06356917321681976 -0.09505841135978699 -0.13124577701091766 -0.22059708833694458 -0.08956316113471985 0.04153209552168846 -0.007973347790539265 -0.08434204757213593 -0.10408032685518265 -0.11375714093446732 -0.08734094351530075 0.38775065541267395 0.19795246422290802 -0.12138090282678604 -0.030704254284501076 0.001235172851011157 0.07109992206096649 -0.15661418437957764 -0.0484514944255352 0.32053497433662415 0.0559871606528759 0.06640207767486572 -0.07861868292093277 0.010475728660821915 -0.24129903316497803 0.0021164878271520138 -0.11358252912759781 -0.16786697506904602 0.14194759726524353 0.050146449357271194 0.045930661261081696 0.14127875864505768 0.20820392668247223 0.22955849766731262 0.04230225458741188 0.15563875436782837 -0.07348307222127914 0.08266693353652954 0.015850964933633804 -0.2504207491874695 -0.28328102827072144 -0.137517511844635 0.006259540095925331 0.08874959498643875 0.14030131697654724 -0.01632930338382721 -0.21356041729450226 -0.09453416615724564 0.13803896307945251 -0.007872406393289566 0.08198162913322449 -0.1759335696697235 -0.20772534608840942 -0.04654258117079735 0.1139511689543724 0.3095962405204773 0.26327019929885864 -0.04931502789258957 -0.047335609793663025 -0.143950417637825 -0.2347630262374878 -0.003189314855262637 -0.10112231224775314 -0.05786590650677681 0.12367119640111923 0.1422402411699295 0.09666677564382553 -0.1168566569685936 0.05958022177219391 -0.00810328684747219 -0.24847139418125153 -0.07754555344581604 0.11984038352966309 0.10590509325265884 -0.12537112832069397 0.040146905928850174 0.08897340297698975 0.06512493640184402 0.2411354035139084 -0.20318302512168884 -0.24704577028751373 -0.16066567599773407 -0.0991055816411972 -0.09534630179405212 -0.019577234983444214 -0.1372792273759842 -0.13591817021369934 0.030121253803372383 -0.14484655857086182 -0.26717662811279297 0.10319817066192627 0.005178243853151798 0.10907088965177536 0.22774219512939453 0.007965310476720333 -0.20759350061416626 -0.16670556366443634 -0.06459596008062363 -0.10579532384872437 -0.1581801027059555 -0.218045175075531 -0.10982257127761841 -0.04667699709534645 0.16221995651721954 0.0030696645844727755 -0.034233588725328445 -0.20625808835029602 0.09833206981420517 0.44770362973213196 0.2715597450733185 -0.12346013635396957 -0.17217373847961426 -0.27347704768180847 -0.07251038402318954 -0.16473673284053802 0.2368403524160385 0.0313379131257534 -0.03235413134098053 -0.11674095690250397 -0.07755308598279953 -0.08020736277103424 -0.17840027809143066 -0.25239384174346924 -0.23558494448661804 0.00396769167855382 0.20501366257667542 0.07679028064012527 -0.10381834954023361 0.003039838746190071 0.04062939062714577 -0.00035010496503673494 -0.04700389504432678 -0.069094218313694 -0.2002868503332138 0.12655961513519287 -0.09802380949258804 -0.17198514938354492 0.07405310869216919 0.0219316016882658 0.24699224531650543 -0.021876884624361992 0.030735652893781662 0.11662887781858444 0.3129100501537323 -0.07428884506225586 -0.049033600836992264 -0.039941880851984024 0.14264172315597534 -0.1825355887413025 -0.34103554487228394 -0.05088980123400688 0.06903555989265442 0.025725053623318672 0.0022268265020102262 -0.06283894926309586 -0.053215835243463516 -0.22551895678043365 0.006147392094135284 0.02260752022266388 0.1926509588956833 0.0437590628862381 0.08513382822275162 -0.18490831553936005 -0.09200572222471237 -0.10084793716669083 0.03741854801774025 -0.01572159118950367 -0.06796551495790482 -0.21358363330364227 0.13150794804096222 0.07202522456645966 -0.051180146634578705 0.026690537109971046 -0.02370971441268921 -0.09487458318471909 0.0962313562631607 0.10146387666463852 -0.09148300439119339 0.05090062692761421 0.07205430418252945 -0.03957271948456764 0.035838328301906586 -0.056619882583618164 0.06366200745105743 0.0453200563788414 0.04740596190094948 0.06438615918159485 0.035659730434417725 0.10978568345308304 0.06247267499566078 0.03886516019701958 -0.15886160731315613 0.0005256359581835568 -0.03093765489757061 0.09014322608709335 
