-0.050405748188495636 0.06787954270839691 -0.28174275159835815 -0.012281746603548527 -0.01426514983177185 
0.20223018527030945 -0.0139123210683465 -0.09088863432407379 -0.27283158898353577 -0.3509250581264496 
0.1710064560174942 0.067415252327919 -0.15524998307228088 -0.22422552108764648 -0.21807487308979034 
-0.2176292985677719 -0.07316959649324417 -0.32392266392707825 -0.4289352595806122 -0.04967891424894333 
-0.3214896619319916 -0.2433321624994278 -0.37243425846099854 -0.3071812093257904 0.026217635720968246 

-0.2944721281528473 -0.12776851654052734 0.04291504994034767 -0.0788264125585556 -0.4691663682460785 
-0.09026343375444412 0.0033261568751186132 0.07192198187112808 -0.29477933049201965 -0.4430154263973236 
0.20872347056865692 -0.0008345404057763517 -0.180463507771492 -0.36727583408355713 -0.12354995310306549 
0.3524635136127472 -0.1638343334197998 -0.3802016079425812 0.026022572070360184 0.03444117307662964 
-0.010225491598248482 -0.3824467360973358 -0.22115936875343323 0.09419913589954376 0.19921433925628662 

0.14750473201274872 -0.11142627149820328 -0.056976404041051865 0.2760714292526245 0.30141448974609375 
0.13970085978507996 -0.17138232290744781 -0.210823655128479 0.20818711817264557 0.3143804371356964 
0.11620458215475082 -0.20483748614788055 -0.1176319494843483 0.17755615711212158 0.22018331289291382 
-0.09881070256233215 -0.3651667833328247 0.13727261126041412 0.14205302298069 0.07518716156482697 
-0.09897598624229431 -0.13370035588741302 0.19404634833335876 -0.003131881356239319 -0.02468578889966011 


