-0.04338356852531433 0.08449595421552658 0.07015623897314072 -0.09292373806238174 0.14442592859268188 
0.180435910820961 0.2892720699310303 0.06286914646625519 -0.03934907168149948 -0.0340433232486248 
0.009584101848304272 0.2799570858478546 0.12633869051933289 -0.02208210527896881 0.09825631976127625 
-0.09267553687095642 0.06688816100358963 -0.15301769971847534 0.002268840791657567 0.018287964165210724 
0.010867105796933174 -0.09972572326660156 -0.25122326612472534 -0.15221379697322845 -0.09587060660123825 

-0.2884567975997925 -0.054645802825689316 0.08004242926836014 0.10388538241386414 -0.10612694174051285 
-0.04873798415064812 0.09563761204481125 -0.08845353126525879 0.04010985791683197 -0.19229631125926971 
-0.1695466786623001 -0.3424205482006073 -0.2762329876422882 -0.17914560437202454 0.052843689918518066 
-0.261384516954422 0.06628553569316864 -0.002135512186214328 -0.11111920326948166 0.044825319200754166 
0.061150532215833664 0.14656557142734528 0.14771901071071625 0.13709363341331482 -0.06518489867448807 

0.14305928349494934 0.24354825913906097 -0.24051761627197266 0.023495003581047058 0.21860526502132416 
-0.029835574328899384 -0.110700823366642 -0.2158770114183426 -0.028511228039860725 0.11018670350313187 
-0.16974526643753052 -0.13649283349514008 0.10523679107427597 -0.013003325089812279 0.03891138732433319 
-0.09228154271841049 -0.0858289897441864 0.15207365155220032 -0.08994016796350479 0.022534063085913658 
-0.4951957166194916 -0.1709042489528656 -0.015496887266635895 -0.12434274703264236 -0.15652120113372803 


