-0.10748016089200974 0.025828802958130836 0.07211882621049881 0.08771046996116638 0.07516030967235565 
-0.07245144993066788 -0.23097571730613708 -0.2355351448059082 -0.30856969952583313 0.03819786757230759 
-0.026697995141148567 -0.1484944373369217 -0.13832668960094452 -0.1659940928220749 0.011227797716856003 
0.02659161202609539 0.1398937702178955 -0.10750661790370941 -0.3061414659023285 -0.18606096506118774 
0.02308272011578083 0.028283920139074326 0.04229459911584854 -0.05546911805868149 -0.14774152636528015 

-0.054024744778871536 0.16760888695716858 0.13094812631607056 0.06528168171644211 -0.0658697858452797 
-0.018417712301015854 0.17482513189315796 0.2899569571018219 0.4081323742866516 0.04600387439131737 
0.08510901033878326 -0.08926410228013992 0.12435352057218552 0.3290505111217499 0.252079576253891 
0.05610434710979462 0.034513458609580994 -0.06562250852584839 0.18382617831230164 0.2903103828430176 
0.05598904937505722 -0.09948837012052536 -0.12310297787189484 -0.1851547658443451 -0.17233017086982727 

-0.120346300303936 0.07585738599300385 0.1698867678642273 0.2467297911643982 0.2749367654323578 
-0.2877652943134308 -0.0788951963186264 -0.07587994635105133 -0.09182196110486984 0.46164295077323914 
0.07802412658929825 0.042590830475091934 -0.1943649798631668 -0.24326033890247345 0.0688922181725502 
-0.056795958429574966 0.23149120807647705 0.1551758199930191 -0.07896338403224945 -0.15865172445774078 
0.15693902969360352 0.029845034703612328 -0.006094834301620722 -0.10475783050060272 -0.2002985179424286 


