-0.0934348925948143 -0.002704544924199581 0.0810646042227745 0.27562904357910156 0.13052834570407867 
-0.6122269034385681 -0.48950451612472534 -0.12415634095668793 -0.2023683339357376 -0.11527423560619354 
-0.23323534429073334 -0.2322676032781601 -0.31980860233306885 -0.21246472001075745 0.03921578824520111 
-0.03859075531363487 -0.11773155629634857 0.08539365231990814 -0.12079540640115738 0.10313472151756287 
0.0341234914958477 -0.07509641349315643 -0.12969663739204407 -0.05850100517272949 0.008881473913788795 

-0.10320308804512024 -0.08891565352678299 -0.02312587760388851 -0.00545888114720583 -0.036883722990751266 
0.18957671523094177 0.4039500653743744 0.30089372396469116 0.074342742562294 0.1060585007071495 
-0.08881112933158875 0.17038355767726898 0.35341209173202515 0.15784679353237152 -0.09360945224761963 
-0.0593750923871994 -0.32824429869651794 -0.4463020861148834 0.13833419978618622 -0.08845562487840652 
0.11067087203264236 0.14590202271938324 -0.22265669703483582 -0.0030364871490746737 0.1280304491519928 

0.16031084954738617 0.17041639983654022 0.3262876868247986 0.35037586092948914 0.2791978418827057 
-0.09678816050291061 0.15028147399425507 0.20745252072811127 0.15024524927139282 -0.07775150239467621 
0.0800093486905098 -0.15913812816143036 -0.2461356520652771 -0.20014739036560059 0.1339017152786255 
0.012664556503295898 -0.15520666539669037 0.005248933099210262 0.20586000382900238 0.1235579401254654 
-0.17229975759983063 -0.09142670780420303 0.15160228312015533 0.08256078511476517 -0.07378778606653214 


