0.2414570152759552 -0.21384531259536743 0.08387994766235352 0.3354419469833374 0.11808141320943832 
0.5590881109237671 0.35630929470062256 -0.01617974042892456 0.2213801145553589 0.3098800480365753 
-0.021742569282650948 0.2989269196987152 0.054534152150154114 -0.15821769833564758 -0.11477731913328171 
-0.1933555155992508 -0.09469815343618393 -0.10185133665800095 -0.16303494572639465 -0.2725633680820465 
0.11862031370401382 -0.04344269260764122 -0.25035393238067627 -0.2038586437702179 -0.2909921705722809 

0.06759630143642426 0.0368485152721405 0.08108193427324295 0.2766953706741333 0.3097899854183197 
-0.13766957819461823 0.030468950048089027 0.15385331213474274 0.06463117897510529 -0.2761266827583313 
-0.1574278324842453 -0.15628820657730103 -0.1678219437599182 -0.2712339162826538 -0.049533382058143616 
0.016760243102908134 0.032581642270088196 -0.16386286914348602 0.02609594166278839 -0.009572104550898075 
-0.0305960513651371 0.05772591754794121 0.19249117374420166 0.09283822774887085 0.04115363210439682 

-0.08975604921579361 -0.18429550528526306 -0.00782094243913889 0.10539470613002777 -0.044901080429553986 
-0.014257259666919708 -0.2806646227836609 -0.3672255575656891 0.040681030601263046 -0.12813423573970795 
0.22785314917564392 -0.21081744134426117 -0.20689380168914795 -0.008266784250736237 -0.0911865383386612 
0.11136891692876816 -0.04691118746995926 -0.019893808290362358 0.10871309041976929 0.038077108561992645 
0.20295597612857819 0.12198042124509811 0.19432130455970764 0.09314409643411636 -0.23552101850509644 

-0.034976452589035034 -0.14408956468105316 -0.0430598184466362 -0.1886952817440033 -0.0005083283176645637 
-0.1552126407623291 -0.22916492819786072 -0.07578679919242859 -0.06600063294172287 -0.18698962032794952 
-0.21946848928928375 -0.16345307230949402 -0.09360421448945999 -0.276835560798645 -0.16134057939052582 
0.039587415754795074 -0.0104249631986022 0.11782146245241165 0.06498633325099945 0.1887025237083435 
0.08446872234344482 0.10939860343933105 0.3751666843891144 0.357228547334671 0.1505078673362732 


