-0.2442653924226761 0.03715169429779053 0.06547325849533081 -0.20816639065742493 0.0028329375199973583 
-0.24874363839626312 -0.023185059428215027 0.0024713720194995403 -0.2504812479019165 -0.17954933643341064 
-0.3426230251789093 -0.44365066289901733 -0.1303221881389618 -0.2504691183567047 -0.29138606786727905 
-0.03557676449418068 -0.21823395788669586 -0.24033915996551514 0.12819142639636993 0.1613961160182953 
0.042665667831897736 0.08324175328016281 0.15461352467536926 0.25222426652908325 0.15801522135734558 

-0.029453177005052567 -0.014042135328054428 -0.11019052565097809 -0.051308922469615936 -0.13374769687652588 
0.10565487295389175 0.11517132818698883 -0.13278597593307495 0.22147610783576965 -0.02508840709924698 
0.2707393169403076 0.25977379083633423 0.02677331678569317 0.25221872329711914 -0.07647233456373215 
0.16179259121418 0.23233628273010254 -0.04171547666192055 0.08445538580417633 0.12755045294761658 
0.019686812534928322 -0.07485469430685043 -0.3837008774280548 -0.29796236753463745 0.024989834055304527 

0.042420364916324615 0.053303226828575134 0.2332485318183899 0.03788081929087639 0.1680312603712082 
0.1570979505777359 0.1475396305322647 0.090385802090168 0.16281449794769287 0.30185946822166443 
-0.18657471239566803 -0.046021729707717896 -0.10999493300914764 0.12813927233219147 0.11660058051347733 
-0.05513481795787811 -0.2840278744697571 -0.489394873380661 -0.13810095191001892 0.07075897604227066 
-0.08359938859939575 -0.1136738508939743 -0.1973782181739807 0.09397190809249878 0.1130702942609787 

0.143318310379982 -0.015526533126831055 0.10215982794761658 0.38297370076179504 0.14613185822963715 
-0.01845649443566799 0.042270272970199585 0.18761175870895386 0.26537320017814636 0.1961907297372818 
-0.27517077326774597 -0.1955733746290207 -0.2989676296710968 -0.051523949950933456 0.06584180891513824 
-0.21618308126926422 -0.16802440583705902 -0.22897841036319733 -0.1461184024810791 0.13983817398548126 
-0.01728173904120922 0.03160602226853371 -0.3518543541431427 -0.2604260742664337 -0.036828894168138504 


