-0.24236302077770233 -0.22078736126422882 0.06750767678022385 0.07496562600135803 0.09449853748083115 
0.08005055040121078 -0.5423030853271484 -0.5270465016365051 -0.3242153227329254 -0.11161717027425766 
0.49017927050590515 0.362427681684494 0.20598401129245758 -0.003420200664550066 -0.12312083691358566 
0.07250218093395233 0.16284404695034027 0.08666675537824631 -0.04334472119808197 -0.15424011647701263 
-0.186414435505867 0.054568495601415634 0.1829647570848465 0.08980632573366165 0.04947863146662712 


0.2676122486591339 0.039803292602300644 0.22758936882019043 0.18348585069179535 0.11305321753025055 
-0.0729825347661972 0.2441951483488083 0.16383737325668335 0.20126992464065552 0.12008146196603775 
-0.029750924557447433 0.05440538004040718 0.022092675790190697 -0.014902915805578232 -0.023629698902368546 
-0.3348989486694336 -0.5844299793243408 -0.3740752339363098 -0.39825668931007385 -0.2948887050151825 
-0.2928354740142822 -0.24719837307929993 -0.18077398836612701 -0.010529126971960068 0.1440432220697403 


-0.07810496538877487 0.0992501750588417 0.29634031653404236 -0.04091310501098633 0.050575610250234604 
-0.12398228794336319 0.2746042311191559 0.18810731172561646 -0.10244795680046082 -0.31437188386917114 
0.08494207262992859 0.3863227069377899 -0.046927690505981445 -0.02986922673881054 -0.42486435174942017 
0.06998403370380402 0.2828267216682434 0.24999701976776123 -0.2566250264644623 -0.3530479669570923 
-0.14193479716777802 0.11818155646324158 0.12781964242458344 0.05734218284487724 -0.044342342764139175 


-0.23819725215435028 0.1794677972793579 0.198914036154747 0.1842615306377411 0.15598750114440918 
0.30873218178749084 0.3523746728897095 0.16328053176403046 0.056410305202007294 -0.21524173021316528 
0.2528769075870514 -0.2545093297958374 -0.3963872790336609 -0.32868772745132446 -0.02690191939473152 
-0.23176288604736328 -0.2717674970626831 -0.2618633508682251 0.03431987762451172 0.1329587697982788 
-0.04456949979066849 0.12495414912700653 0.10597308725118637 0.16798263788223267 -0.2051246464252472 


0.22619690001010895 0.0746631994843483 -0.17883899807929993 -0.3530586063861847 -0.32089975476264954 
-0.17099590599536896 -0.20492659509181976 -0.13296905159950256 -0.1157672330737114 0.11200662702322006 
-0.10864716023206711 0.08058974146842957 -0.18297399580478668 0.08483896404504776 0.3566380441188812 
0.24130047857761383 0.24374887347221375 -0.07698743790388107 0.23792333900928497 0.26176968216896057 
-0.06987659633159637 0.162662535905838 0.24475541710853577 -0.003690621117129922 -0.052240222692489624 


0.07002820819616318 0.10874354094266891 0.12783408164978027 -0.14457111060619354 0.16676181554794312 
0.1314900815486908 0.32730603218078613 0.25895312428474426 -0.11302278190851212 0.04572348669171333 
-0.25709664821624756 -0.09218744933605194 0.32069820165634155 0.08818583190441132 0.18329448997974396 
-0.16298425197601318 -0.027459684759378433 0.16904868185520172 -0.14867495000362396 0.08733753859996796 
-0.3514516055583954 -0.12986475229263306 -0.09507916867733002 -0.12097664177417755 0.21275745332241058 


