-0.08657649904489517 -0.0390743762254715 0.1999027281999588 0.06942673772573471 0.08740513771772385 
0.032676663249731064 -0.13343317806720734 0.23052774369716644 0.2638249099254608 -0.026236606761813164 
-0.05984174460172653 -0.04287014901638031 0.3211010694503784 0.19420236349105835 0.1692081093788147 
-0.22098848223686218 0.12036886811256409 0.2454146295785904 0.0398394875228405 0.015537627972662449 
-0.10816359519958496 0.240240216255188 0.18208089470863342 0.009080498479306698 -0.0691266879439354 

-0.27990034222602844 -0.2191740721464157 0.09777989238500595 0.194062739610672 -0.04699568450450897 
-0.07693211734294891 -0.18832962214946747 0.013407462276518345 0.163591668009758 -0.1767217069864273 
-0.20325975120067596 0.01149817556142807 0.09164154529571533 -0.05615673586726189 -0.07013392448425293 
0.09037040919065475 0.1603417992591858 0.020526466891169548 -0.22709286212921143 -0.11157295107841492 
0.1575101912021637 -0.16034090518951416 0.019514992833137512 -0.16820304095745087 -0.09613090008497238 

-0.15389449894428253 0.04949985444545746 0.2272864729166031 -3.048754297196865e-05 0.05706381797790527 
0.018057389184832573 0.11367741972208023 0.14161142706871033 0.10516846925020218 -0.08560051769018173 
-0.06731965392827988 -0.010289792902767658 -0.22352242469787598 -0.2197333723306656 -0.41621479392051697 
0.05991746112704277 -0.09746095538139343 -0.4930146038532257 -0.5989108681678772 -0.21704347431659698 
-0.18366187810897827 -0.11987452954053879 -0.6068981885910034 -0.26812636852264404 -0.007074712309986353 

-0.1548512876033783 0.01936587318778038 -0.12942202389240265 -0.20907588303089142 0.004207167308777571 
-0.021355681121349335 0.07830540835857391 -0.29205045104026794 -0.31882038712501526 -0.00429778965190053 
-0.04661363735795021 -0.36085638403892517 -0.3086356818675995 -0.22955361008644104 -0.0930941253900528 
-0.061526939272880554 -0.2193659543991089 0.010885925963521004 -0.06628115475177765 -0.09171929955482483 
0.08582457900047302 0.003481406718492508 0.10415922850370407 0.0958121120929718 0.1379176676273346 


