0.061271946877241135 -0.08298631012439728 0.0008379617938771844 -0.07118552178144455 -0.001737526385113597 0.07772023230791092 -0.008872614242136478 -0.12299249321222305 -0.02765352465212345 0.0021412449423223734 -0.12011242657899857 -0.17156489193439484 -0.03762323781847954 -0.10021623969078064 -0.06067991629242897 -0.10493345558643341 0.052060697227716446 -0.18441621959209442 -0.09643501788377762 0.01606139913201332 0.051766861230134964 -0.05981600657105446 0.12417317181825638 -0.06050088256597519 -0.16094154119491577 -0.0722382590174675 -0.19563832879066467 -0.10696934908628464 -0.14745210111141205 0.06474407017230988 -0.0920809656381607 0.05109930783510208 -0.23380795121192932 0.14185038208961487 -0.15633736550807953 0.014486609026789665 -0.026004647836089134 -0.053332701325416565 0.01903376914560795 -0.10493876039981842 -0.09187890589237213 -0.021686147898435593 0.127947136759758 0.044611018151044846 -0.06349313259124756 0.013275589793920517 -0.0970853716135025 0.02224641479551792 -0.06848887354135513 -0.0771908164024353 -0.05671535059809685 -0.08161812275648117 0.04479892551898956 -0.02769698202610016 -0.1837363839149475 -0.03777115419507027 0.08345171809196472 -0.18476152420043945 0.08029639720916748 -0.13315196335315704 -0.05783320590853691 -0.05421583727002144 -0.09712959080934525 0.006058217491954565 -0.01900668255984783 -0.11687761545181274 -0.103235624730587 0.001189919770695269 -0.16660432517528534 -0.01081905234605074 -0.08829739689826965 -0.04610975831747055 -0.12456975132226944 0.07918508350849152 0.020658712834119797 -0.08722127974033356 0.04080801457166672 0.07418017089366913 -0.04930681362748146 -0.0906047374010086 -0.0036244404036551714 -0.03691369295120239 -0.0009568236418999732 -0.023846711963415146 -0.21270836889743805 -0.022009188309311867 -0.04534773528575897 -0.1687689572572708 -0.10010083764791489 -0.19841884076595306 -0.013629656285047531 0.09257113188505173 -0.09716078639030457 -0.03232508897781372 -0.0388016514480114 -0.1644977331161499 -0.12527811527252197 -0.13315683603286743 0.02326546609401703 0.006356382742524147 0.027470560744404793 0.09203392267227173 -0.06007559224963188 -0.07603678107261658 -0.15591152012348175 -0.026650018990039825 -0.019469575956463814 -0.21805641055107117 -0.05222701653838158 -0.05696537345647812 0.06499118357896805 0.024741914123296738 0.05491487309336662 -0.08970910310745239 0.12477957457304001 -0.07003235071897507 -0.04503324255347252 -0.09120606631040573 0.010511564090847969 -0.05563950911164284 