0.056132812052965164 0.005080793984234333 0.029478387907147408 -0.11118326336145401 0.09520130604505539 -0.008609126321971416 -0.224781796336174 0.04976549372076988 0.036336977034807205 -0.08513578772544861 0.10901893675327301 0.05931541696190834 -0.15505635738372803 -0.09009750187397003 -0.03822394460439682 -0.16015033423900604 0.006350746378302574 0.3019694685935974 -0.13617229461669922 0.09395109117031097 0.04914749786257744 -0.11355111002922058 0.08614615350961685 0.13920482993125916 -0.23515857756137848 0.034574978053569794 0.07783123850822449 0.2954424321651459 0.053568582981824875 0.2355080544948578 0.278030127286911 -0.24469636380672455 0.021577656269073486 -0.14582395553588867 -0.31202661991119385 -0.17582669854164124 0.0795213058590889 0.13623079657554626 -0.09630978107452393 -0.09350976347923279 -0.1775313913822174 -0.019356442615389824 -0.3181159198284149 0.15624204277992249 -0.19639983773231506 -0.0011767010437324643 0.08971747010946274 0.13013827800750732 -0.12461826950311661 0.10518589615821838 -0.11259839683771133 0.11170537769794464 -0.22884218394756317 -0.06468132138252258 -0.024509912356734276 0.19265355169773102 -0.12490705400705338 0.08870730549097061 -0.15782643854618073 -0.09677137434482574 0.02963969111442566 0.10058923810720444 0.008689089678227901 -0.2710985243320465 0.09431198984384537 0.30497631430625916 0.16935259103775024 -0.023538406938314438 0.011998978443443775 -0.07530436664819717 -0.07190275192260742 0.011651452630758286 0.007490626536309719 -0.09506315737962723 0.05218876525759697 -0.04400721192359924 0.015022494830191135 -0.14992904663085938 -0.20822425186634064 0.05604638531804085 -0.21710044145584106 0.001629495993256569 -0.05476926267147064 -0.22809338569641113 -0.22563140094280243 -0.14409920573234558 -0.15245363116264343 -0.1421792209148407 -0.195936381816864 0.1941409558057785 -0.1314477175474167 0.03850214183330536 -0.07748080790042877 -0.2160111665725708 -0.21867157518863678 0.08558434993028641 0.03265293687582016 -0.09162304550409317 0.17175135016441345 -0.237444207072258 0.16485685110092163 -0.08693163841962814 0.18120349943637848 0.05878520756959915 0.02872036211192608 0.09610815346240997 0.19345533847808838 -0.030528917908668518 -0.11096478253602982 -0.1562321037054062 -0.03923226520419121 -0.04657737538218498 0.029848987236618996 -0.12413319200277328 -0.1726912409067154 -0.25915971398353577 -0.0752008706331253 -0.15248800814151764 -0.1739654242992401 -0.006463199853897095 
0.04781472310423851 0.022077033296227455 0.13711236417293549 0.13436564803123474 0.051829807460308075 -0.16993950307369232 -0.12843488156795502 0.03919380530714989 0.0018643285147845745 0.20072230696678162 0.057917769998311996 0.20250113308429718 0.00014410188305191696 -0.06663129478693008 -0.1834128051996231 0.11439808458089828 -0.14274556934833527 0.007099874783307314 -0.06809351593255997 0.14296181499958038 -0.14148542284965515 -0.009600916877388954 0.04384227842092514 0.1856258511543274 -0.0050737131386995316 0.31201472878456116 0.008493663743138313 -0.14238306879997253 -0.1387077420949936 0.03821149840950966 0.05239364132285118 0.043444205075502396 -0.028602667152881622 0.15480776131153107 -0.1919775754213333 -0.10455621033906937 -0.00549203110858798 -0.0783328041434288 -0.2686313986778259 -0.3675861358642578 -0.09164562821388245 0.07639148086309433 -0.13392364978790283 0.14399155974388123 -0.2245081514120102 0.09789276123046875 -0.060112591832876205 0.14432430267333984 -0.23235930502414703 0.054602280259132385 -0.08441708236932755 -0.07265542447566986 -0.13395956158638 -0.32959774136543274 -0.04943589121103287 -0.036976009607315063 0.07114000618457794 0.12875357270240784 -0.11065030843019485 0.07938222587108612 -0.27199938893318176 0.05830221250653267 -0.01564248837530613 -0.2794278562068939 0.040918175131082535 0.2202899158000946 -0.09402777254581451 0.03886555880308151 -0.06711339950561523 0.06421777606010437 0.07590757310390472 -0.022586647421121597 -0.2506560981273651 -0.03744519129395485 -0.004006591625511646 -0.08647280186414719 0.18596912920475006 -0.10264787822961807 0.14189177751541138 0.11688084900379181 0.0017230598023161292 0.30472689867019653 -0.27140340209007263 0.04097166657447815 0.0888948068022728 0.07951454073190689 -0.06339135766029358 0.05375807732343674 -0.19591736793518066 0.1347719132900238 0.07981423288583755 -0.08465498685836792 -0.048782527446746826 0.14487117528915405 0.028687473386526108 -0.18153691291809082 -0.1106266975402832 -0.26368066668510437 0.0749073401093483 -0.1564466953277588 0.10071735829114914 0.07471433281898499 0.040507134050130844 0.10132137686014175 -0.16847459971904755 0.02813071198761463 0.35916846990585327 -0.0748608410358429 0.05805670842528343 -0.2176188826560974 0.07645240426063538 0.19604405760765076 0.12201467156410217 0.02001545950770378 0.17795734107494354 -0.1890648454427719 -0.19636815786361694 -0.20807069540023804 0.032327357679605484 0.048753753304481506 
0.21879276633262634 0.04119023680686951 0.10714101791381836 0.10838773101568222 -0.13313984870910645 0.12255840003490448 0.14282304048538208 0.19880667328834534 -0.11108195781707764 0.2096337080001831 0.030012063682079315 0.00659922044724226 -0.23034577071666718 0.03158866614103317 0.03743864595890045 0.2009410858154297 -0.03931679204106331 0.15237563848495483 -0.23756901919841766 0.13009293377399445 -0.2570711076259613 -0.03137394040822983 0.03712296858429909 0.0027039546985179186 0.04182275012135506 0.01614503748714924 -0.1108398362994194 0.15285615622997284 -0.15569719672203064 0.050631482154130936 0.11507395654916763 0.013153479434549809 -0.12622055411338806 -0.14782845973968506 -0.28073650598526 -0.007561978884041309 -0.198736771941185 0.0775643065571785 0.0725955069065094 -0.14195255935192108 0.10134690254926682 -0.09353046864271164 -0.05825992673635483 0.09857834875583649 -0.05529255419969559 0.06813942641019821 -0.18144746124744415 0.4514966905117035 -0.09693188965320587 -0.21108849346637726 -0.12055036425590515 0.16794966161251068 -0.19989347457885742 -0.03003736026585102 -0.042624279856681824 0.027365388348698616 0.09975164383649826 0.1731625646352768 -0.19411909580230713 -0.24400894343852997 -0.14723990857601166 -0.09416947513818741 -0.18017345666885376 0.005389142781496048 -0.19424526393413544 0.12830814719200134 -0.03213097155094147 0.2010638266801834 -0.007156636565923691 0.020688336342573166 -0.1042591854929924 0.1064242497086525 -0.318175345659256 0.01711474359035492 0.09362884610891342 -0.02428797073662281 -0.16357843577861786 -0.2515011131763458 -0.08185058832168579 -0.10736295580863953 0.08857935667037964 0.2763100564479828 0.23648467659950256 -0.003497741185128689 -0.04408783093094826 -0.05795253440737724 -0.019125062972307205 -0.1407189816236496 -0.17077331244945526 -0.07461132854223251 -0.04083700850605965 -0.0013391455868259072 -0.08622363954782486 0.060961369425058365 -0.036572594195604324 -0.11622610688209534 -0.13021470606327057 0.3763725459575653 -0.2139245569705963 -0.0471697561442852 -0.008171435445547104 0.12953738868236542 0.29942649602890015 0.032671958208084106 -0.20392023026943207 -0.0711693987250328 -0.15729404985904694 0.22007234394550323 0.171089768409729 -0.07958627492189407 -0.35271888971328735 0.18450261652469635 0.08213836699724197 0.12477710098028183 0.19434763491153717 0.0824650228023529 0.18834629654884338 -0.013688539154827595 -0.008616073057055473 0.027770088985562325 
-0.010962632484734058 -0.17363540828227997 0.1386236995458603 -0.04008415341377258 0.12798355519771576 -0.01425358559936285 0.03713873401284218 0.025966143235564232 -0.06917651742696762 -0.06771914660930634 0.16864292323589325 -0.18066617846488953 -0.055096399039030075 -0.00599054666236043 0.016198882833123207 0.36826077103614807 0.058119624853134155 -0.055445607751607895 -0.11329665780067444 -0.3168101906776428 -0.10766971111297607 -0.1712929904460907 0.14729230105876923 0.1692560315132141 0.09526398032903671 -0.0349513478577137 -0.024860261008143425 0.28357869386672974 -0.15281401574611664 -0.05152609944343567 0.08151591569185257 0.11387810111045837 -0.12593494355678558 0.15609003603458405 -0.1724981814622879 -0.0697690099477768 -0.18707327544689178 0.0003329286992084235 0.15963785350322723 -0.10188035666942596 -0.14147894084453583 -0.09455759823322296 0.0966382548213005 0.1393391191959381 -0.17536048591136932 -0.08048801869153976 0.17271701991558075 0.017936471849679947 -0.14214979112148285 -0.011676999740302563 0.06528547406196594 0.17286498844623566 0.018338358029723167 -0.15471498668193817 -0.0754331648349762 -0.016633128747344017 -0.1158536896109581 0.10521316528320312 0.037986088544130325 -0.007643433753401041 -0.14503464102745056 0.04140397161245346 -0.006393360905349255 0.17203503847122192 0.008877599611878395 0.040432076901197433 0.22715671360492706 0.0995602235198021 0.018842078745365143 -0.1822344958782196 0.14275352656841278 0.09247536212205887 0.11074858158826828 0.12938475608825684 -0.023384300991892815 -0.01641940511763096 -0.08560556173324585 0.023840883746743202 -0.37196242809295654 -0.314556747674942 -0.029926292598247528 0.052123185247182846 -0.042347200214862823 0.028492039069533348 -0.0014059628592804074 0.022582458332180977 0.10876156389713287 -0.347176730632782 0.1388116031885147 0.029956312850117683 -0.2308674454689026 0.1323421597480774 0.1666845828294754 0.018101053312420845 0.06133975088596344 -0.02069931849837303 0.2548532485961914 0.09776802361011505 0.09269105643033981 -0.10235995054244995 -0.051201675087213516 -0.10967788100242615 0.24386060237884521 -0.17593109607696533 -0.016057947650551796 -0.0442831888794899 0.005359787959605455 0.2818414270877838 0.12853403389453888 0.0701071172952652 0.02218417078256607 0.035420503467321396 0.04070478305220604 -0.0009634664747864008 -0.0067822374403476715 0.161756694316864 0.009536265395581722 -0.01807297207415104 -0.007173240650445223 0.08163870126008987 
-0.5180070996284485 -0.12116067856550217 0.3068647086620331 0.07414112240076065 -0.07674092799425125 0.08866120129823685 0.010586376301944256 -0.08064529299736023 -0.06458213925361633 -0.28140637278556824 -0.10642700642347336 -0.09239696711301804 -0.1826791614294052 -0.25016316771507263 0.10745114088058472 0.07502816617488861 -0.17751815915107727 -0.04717781022191048 0.06508029252290726 0.14934948086738586 -0.04642434045672417 0.004378040786832571 -0.12912622094154358 0.016647810116410255 0.004139771219342947 -0.22773507237434387 0.09412626177072525 0.1397693008184433 -0.043819114565849304 -0.032293062657117844 0.024225721135735512 -0.34664562344551086 -0.09604093432426453 -0.08446327596902847 -0.014935732819139957 0.1253812313079834 0.15806137025356293 -0.12638086080551147 0.1441766768693924 0.13890287280082703 -0.12079676240682602 0.03739235922694206 -0.12883099913597107 -0.24272851645946503 0.014957316219806671 -0.2693919241428375 -0.5726096630096436 -0.2700200378894806 0.03765734285116196 0.09014462679624557 0.056258268654346466 0.10078410804271698 -0.1492852121591568 -0.11419504135847092 0.06411026418209076 0.07505831122398376 -0.030148908495903015 0.05469980463385582 0.01872054859995842 0.04365493357181549 0.024668466299772263 0.1588008850812912 0.14686588943004608 -0.20327366888523102 0.02565889060497284 -0.15480025112628937 -0.054926421493291855 0.05435529351234436 0.09408491104841232 -0.3183499872684479 -0.29010358452796936 -0.24586503207683563 0.18958832323551178 -0.010384752415120602 0.006352089811116457 -0.11692531406879425 -0.1755211055278778 0.20507818460464478 0.07248781621456146 0.03553416207432747 -0.1513158679008484 -0.09861461818218231 -0.2502855956554413 0.24652065336704254 -0.10553959757089615 0.008979820646345615 -0.12840673327445984 -0.16683714091777802 -0.11659333109855652 0.19692184031009674 -0.04111338406801224 0.08606202155351639 0.09180498868227005 0.03051397204399109 0.027123624458909035 -0.02537628822028637 0.22836574912071228 -0.2591869831085205 -0.11013142764568329 -0.24775755405426025 0.035840559750795364 -0.11811552941799164 -0.19083209335803986 -0.07129571586847305 0.03672170639038086 -0.15666258335113525 0.14310921728610992 -0.09710503369569778 -0.3263126313686371 -0.10266373306512833 0.07081201672554016 -0.012135998345911503 0.19305682182312012 0.09331486374139786 -0.20380817353725433 0.33096444606781006 -0.6211179494857788 0.1974877119064331 -0.24248149991035461 0.05297200381755829 
0.14434731006622314 -0.10761648416519165 0.2115270048379898 0.17449162900447845 0.13298457860946655 -0.026935268193483353 0.10904878377914429 -0.1023661270737648 -9.078544098883867e-05 0.16263875365257263 -0.43182793259620667 0.02532936818897724 0.13756974041461945 0.17110292613506317 -0.0312650129199028 -0.18977148830890656 -0.21125370264053345 -0.15494677424430847 0.07638733088970184 0.1196630597114563 0.03126342222094536 0.06493443250656128 0.1484811007976532 -0.17592614889144897 -0.08403588831424713 0.10699719935655594 0.023066282272338867 -0.2664153575897217 -0.11190527677536011 -0.055352866649627686 -0.5436785817146301 0.14510247111320496 0.020097365602850914 0.14396655559539795 -0.0008483690908178687 -0.005003752186894417 -0.012808350846171379 0.057555072009563446 -0.09031491726636887 -0.0018642579670995474 0.029821516945958138 0.17686404287815094 0.24940268695354462 0.12405915558338165 0.19611679017543793 0.1346333622932434 0.12511323392391205 0.09326879680156708 0.17545382678508759 0.08694210648536682 -0.16781896352767944 -0.23682425916194916 0.1305350959300995 0.19469256699085236 0.008428291417658329 -0.16131508350372314 -0.004899983294308186 0.12545354664325714 -0.021089768037199974 -0.21089911460876465 -0.2442435622215271 -0.0006039212457835674 -0.13630537688732147 0.029558071866631508 -0.009187175892293453 -0.3622886538505554 -0.1810741126537323 -0.049435894936323166 -0.03319021686911583 0.15752297639846802 0.19159813225269318 0.10098054260015488 -0.21549884974956512 -0.022730892524123192 -0.08668100833892822 -0.010422437451779842 0.08013045787811279 -0.00808161124587059 0.021075328812003136 -0.11859063804149628 0.06644583493471146 -0.19177445769309998 -0.1630997210741043 -0.024074789136648178 0.2506582736968994 0.025666020810604095 0.12116678804159164 -0.0973166972398758 0.018728971481323242 -0.14126795530319214 0.024758046492934227 0.22318010032176971 -0.17570623755455017 0.08186981081962585 0.09868184477090836 0.05810841545462608 -0.22518277168273926 0.2616807222366333 -0.14944970607757568 0.3007037341594696 0.11070504784584045 -0.06818123906850815 -0.09692095965147018 -0.08157187700271606 -0.1445472538471222 0.2415681928396225 -0.15752959251403809 -0.10294818878173828 0.23573185503482819 -0.07202201336622238 0.1666652411222458 0.02589326538145542 0.11183340102434158 -0.019836369901895523 0.11708872020244598 -0.3457368314266205 0.07610324025154114 0.08712390810251236 0.3382645547389984 -0.13113044202327728 
0.11558427661657333 0.019313566386699677 0.04633990302681923 0.046461500227451324 -0.036337580531835556 0.009107418358325958 -0.11256697028875351 0.09635799378156662 -0.08274094015359879 0.26431363821029663 0.05383516848087311 0.27181917428970337 -0.20612989366054535 0.12843000888824463 0.12466289103031158 0.006684699095785618 0.07638944685459137 0.2080642282962799 -0.11840800195932388 -0.112266406416893 -0.009576348587870598 -0.11821765452623367 0.04402920976281166 -0.005606845021247864 0.15777117013931274 -0.23490001261234283 -0.091795414686203 0.11289933323860168 0.07815096527338028 -0.03494898974895477 0.05091990530490875 -0.26447534561157227 0.022005761042237282 0.004631704185158014 -0.25613468885421753 -0.4559130072593689 -0.34886476397514343 0.3649139702320099 -0.028323959559202194 -0.14067764580249786 -0.11860521882772446 -0.04090777039527893 -0.14887602627277374 -0.00891921203583479 -0.08595680445432663 -0.04930192232131958 -0.01118489634245634 0.23113013803958893 -0.4795999526977539 0.020821429789066315 0.007905969396233559 0.16707605123519897 -0.23380312323570251 -0.06198813393712044 -0.0029512059409171343 0.1433391571044922 0.10012328624725342 -0.0003351849736645818 0.04978043958544731 -0.15910236537456512 -0.1335575133562088 -0.09880182892084122 0.06413226574659348 -0.01625704951584339 0.02368398755788803 0.13556617498397827 -0.1298142820596695 0.19052323698997498 -0.07933919876813889 0.015911651775240898 -0.28080496191978455 0.0447721853852272 0.1221817284822464 0.0014605015749111772 0.13050687313079834 -0.3145093321800232 -0.5213680863380432 0.09166581928730011 -0.055845972150564194 -0.22092120349407196 0.11734258383512497 0.4204690158367157 0.16143202781677246 -0.029983971267938614 -0.2572375237941742 -0.16665798425674438 -0.010767600499093533 -0.058476924896240234 -0.177914559841156 -0.06096683070063591 -0.2948653995990753 0.22097332775592804 0.04757184535264969 -0.015869148075580597 -0.08624173700809479 -0.1650112122297287 0.08574271947145462 0.0021048691123723984 -0.037528637796640396 0.07230442017316818 -0.22649066150188446 0.06618967652320862 0.23277613520622253 -0.06873995065689087 -0.10077245533466339 0.10863245278596878 -0.12891238927841187 0.11170700937509537 0.12137337774038315 -0.2780507802963257 -0.20776885747909546 0.1926056295633316 0.07685292512178421 0.10910862684249878 0.19121062755584717 0.07911860197782516 0.037100449204444885 -0.14617183804512024 0.1535254418849945 0.09857608377933502 
0.17364661395549774 0.3001443147659302 0.03335143253207207 -0.0226534903049469 0.2088974565267563 -0.34015706181526184 -0.169622004032135 0.40469852089881897 -0.05090433359146118 0.14543910324573517 0.021006636321544647 0.23864443600177765 -0.0589275024831295 0.11529873311519623 -0.15282772481441498 0.0026361653581261635 -0.3091566264629364 -0.09483560174703598 0.17105935513973236 -0.046611517667770386 0.11847085505723953 0.07581766694784164 -0.1046133041381836 -0.027488822117447853 -0.04708336293697357 0.048340413719415665 -0.009219846688210964 -0.1993667036294937 0.03500158712267876 -0.10533339530229568 -0.06274524331092834 0.06267332285642624 0.06403480470180511 -0.07373321801424026 0.041250698268413544 -0.04313904047012329 -0.02236354351043701 -0.0860934853553772 -0.561935544013977 -0.04521559178829193 -0.24990597367286682 -0.015165422111749649 -0.0708036869764328 -0.013522244058549404 0.05884294584393501 0.24536022543907166 0.08056654036045074 0.14120633900165558 -0.1197374016046524 0.06201287358999252 0.0983557179570198 -0.022687092423439026 0.06019838899374008 -0.07916285842657089 -0.06176995858550072 0.06977049261331558 0.02938148006796837 0.040069449692964554 0.2889385521411896 0.21661600470542908 -0.07457966357469559 0.029343092814087868 0.024865075945854187 -0.3869161307811737 0.0277261883020401 -0.1538432240486145 -0.17120571434497833 -0.4374502897262573 -0.0100966552272439 0.07530021667480469 0.12292373180389404 0.1802407205104828 0.02640429697930813 -0.18727990984916687 0.015314893797039986 0.21855461597442627 -0.09265017509460449 -0.02389577031135559 -0.11781605333089828 -0.06383917480707169 -0.07679197937250137 0.1273951530456543 0.007570518180727959 -0.18166442215442657 0.029820004478096962 0.050505395978689194 -0.09586777538061142 0.19518207013607025 -0.07465989887714386 0.06391211599111557 0.011799009516835213 0.026728041470050812 0.12558303773403168 -0.13416962325572968 0.11762720346450806 0.02957201562821865 -0.13437774777412415 -0.3276681900024414 0.0801825001835823 0.13544099032878876 -0.027570364996790886 0.14471067488193512 -0.07721416652202606 -0.025741219520568848 0.1177697405219078 0.06747664511203766 -0.29663971066474915 -0.35115525126457214 -0.12206840515136719 -0.10626554489135742 0.06343915313482285 -0.031572796404361725 -0.047734856605529785 -0.011759190820157528 0.0006813641521148384 0.049735892564058304 0.17266413569450378 0.027648089453577995 0.1270136535167694 0.07301437109708786 
-0.03208783641457558 0.10448352247476578 0.010257896967232227 -0.08830775320529938 0.14954710006713867 0.006713670212775469 0.006974490359425545 0.19217361509799957 -0.2447107434272766 0.17919404804706573 -0.12533912062644958 0.09307670593261719 -0.10070497542619705 -0.027306823059916496 0.05356929451227188 -0.17719990015029907 -0.22078053653240204 0.07896128296852112 0.06099293380975723 0.023538485169410706 -0.06092138588428497 0.10975804924964905 -0.11278180778026581 -0.21075372397899628 0.21276718378067017 -0.05657656490802765 -0.1391160935163498 0.13939541578292847 0.11901132762432098 0.06238137185573578 0.07066487520933151 0.08796387910842896 -0.03171449527144432 -0.020794829353690147 0.09481523931026459 -0.12976382672786713 -0.07843678444623947 -0.004883391782641411 -0.09085165709257126 -0.0636715218424797 0.08511915802955627 -0.003775828517973423 -0.008494207635521889 0.03868476673960686 0.19868160784244537 0.01416086871176958 -0.047196563333272934 0.26756539940834045 -0.04930787906050682 0.013197341933846474 0.0779087096452713 -0.011967139318585396 -0.09875766932964325 0.12863415479660034 -0.12116903066635132 0.017929455265402794 -0.04628404602408409 -0.21166838705539703 0.25952261686325073 -0.07345445454120636 0.09716136753559113 -0.12307416647672653 -0.3005017936229706 -0.16949264705181122 -0.11414951831102371 0.16441087424755096 0.011897715739905834 -0.1798565834760666 0.025944257155060768 0.2752251625061035 -0.1472569704055786 0.17604081332683563 -0.22346296906471252 -0.14456626772880554 0.056506019085645676 0.10845230519771576 -0.08909858763217926 -0.007112851832062006 -0.0785793662071228 -0.1793491542339325 0.17629094421863556 0.10396198183298111 0.3991757929325104 -0.0949508473277092 -0.17700940370559692 -0.07562053948640823 -0.04343494400382042 -0.03996924310922623 -0.014337116852402687 0.04160716012120247 -0.07350194454193115 -0.08311748504638672 -0.0984392836689949 0.062042467296123505 0.01903907023370266 -0.04178440198302269 -0.12234679609537125 0.0013487579999491572 -0.023951562121510506 0.3056713044643402 -0.1923898160457611 0.013954594731330872 -0.016526339575648308 -0.06475790590047836 -0.03735070675611496 0.10029879957437515 -0.25022250413894653 0.03711449354887009 0.12919744849205017 -0.04451523348689079 -0.06576137244701385 0.25923237204551697 -0.027315203100442886 0.1056378185749054 -0.07557947933673859 -0.1348448544740677 -0.06388282030820847 0.015715280547738075 0.12235971540212631 0.025204138830304146 
0.0970885381102562 0.06329771876335144 -0.19301964342594147 -0.00417663948610425 0.10274053364992142 0.1326134204864502 -0.06247156485915184 0.2198939025402069 -0.008403368294239044 -0.1849191039800644 0.4756793677806854 -0.26804691553115845 0.07087374478578568 0.030384277924895287 0.04485628008842468 0.0942789614200592 0.2298322468996048 -0.08978569507598877 -0.12019844353199005 0.004389279056340456 0.21160782873630524 -0.024944260716438293 -0.12100033462047577 0.03319183737039566 -0.13487546145915985 -0.008950244635343552 0.08554010838270187 -0.14448776841163635 0.11576048284769058 0.06178703159093857 0.1677846610546112 -0.01052933931350708 0.00983772799372673 0.02775505557656288 -0.020963700488209724 0.07262135297060013 0.089896060526371 0.14156073331832886 0.19049201905727386 -0.011835716664791107 0.06244446337223053 -0.13932524621486664 -0.09313128888607025 0.06775440275669098 -0.18800875544548035 -0.22683089971542358 -0.00349977589212358 -0.17278876900672913 0.11317405849695206 0.0933293029665947 0.0329803042113781 -0.03357580676674843 0.03836241364479065 -0.15990646183490753 -0.07444319874048233 0.11087535321712494 0.10647869110107422 0.08515913039445877 0.05338769406080246 0.11200600862503052 0.18329457938671112 0.12006091326475143 0.0591646209359169 0.0015957170398905873 0.050074443221092224 0.18818941712379456 -0.04234839230775833 0.1538735032081604 0.09797114133834839 -0.03242804482579231 -0.1557551920413971 -0.02972552925348282 0.3109048902988434 0.12361655384302139 0.2159123420715332 -0.0315738283097744 -0.022652780637145042 -0.08192172646522522 0.28402596712112427 -0.08924607932567596 -0.2531639337539673 0.1728915423154831 -0.13566820323467255 -0.006950529757887125 0.059625983238220215 0.03638700768351555 0.050016481429338455 0.048648733645677567 -0.027346666902303696 0.19649198651313782 -0.03523542732000351 -0.050877247005701065 0.11591050028800964 -0.1190953478217125 0.005453926976770163 -0.03873050585389137 -0.059182506054639816 -0.2283710092306137 0.19389964640140533 -0.14390286803245544 -0.057765793055295944 0.26287969946861267 -0.06624237447977066 0.2412741631269455 0.22612661123275757 -0.058839503675699234 0.22928684949874878 0.07956542074680328 -0.013058846816420555 0.07996691018342972 -0.05782727897167206 0.013541994616389275 0.07907551527023315 -0.03598454222083092 -0.15392844378948212 0.21026161313056946 -0.059759676456451416 0.07176043093204498 -0.09814521670341492 0.00738866999745369 
-0.2923718988895416 0.04793130233883858 -0.33994752168655396 -0.04107650741934776 0.14300820231437683 -0.07740624994039536 -0.09933403134346008 0.2063968926668167 0.09056573361158371 0.0868498831987381 0.13228143751621246 0.03520793840289116 -0.08263123780488968 0.004829871468245983 -0.2913389205932617 -0.13812389969825745 -0.042431753128767014 -0.16023506224155426 0.04961708188056946 0.08610101789236069 -0.04170367121696472 0.2050020694732666 -0.3708326816558838 -0.2794700264930725 0.011910214088857174 0.14733676612377167 0.03408022224903107 -0.19204017519950867 0.1669989824295044 -0.23198764026165009 -0.19916503131389618 0.03619673103094101 -0.10295726358890533 0.055089667439460754 0.1435880810022354 0.1609378606081009 0.0761081650853157 0.09993327409029007 0.04620039463043213 0.022177480161190033 0.04031210392713547 -0.1642858237028122 -0.015823738649487495 -0.08445627242326736 0.061932679265737534 -0.025380464270710945 0.0190298929810524 -0.23516812920570374 -0.012340093962848186 0.06641701608896255 0.10128690302371979 -0.1100439727306366 0.0828903391957283 0.13940654695034027 0.0920722484588623 -0.14253424108028412 -0.23352472484111786 -0.032216962426900864 0.1256762444972992 -0.09327416121959686 0.1529257893562317 -0.10919249802827835 -0.19143205881118774 -0.00042828754521906376 -0.20797480642795563 0.16127464175224304 0.03576285019516945 -0.058407630771398544 -0.12752747535705566 0.29669299721717834 0.0031267828308045864 0.06625744700431824 -0.0023167498875409365 -0.12231080234050751 -0.07324443012475967 0.19027520716190338 -0.1054634377360344 -0.1286611557006836 0.04685487970709801 0.042324285954236984 0.024782484397292137 -0.13904033601284027 0.10696125030517578 0.033765435218811035 -0.12646660208702087 0.14563684165477753 -0.035223402082920074 0.0875675156712532 0.11202928423881531 -0.018727751448750496 0.1397446244955063 -0.23262232542037964 -0.11837957799434662 0.04057960584759712 0.0659709945321083 0.08371501415967941 -0.15348874032497406 -0.0945361778140068 -0.0011585797183215618 0.212253600358963 0.008498961105942726 0.14522680640220642 -0.1399337202310562 0.06360916793346405 0.14081180095672607 0.21877513825893402 -0.26080086827278137 0.16520173847675323 0.011836151592433453 0.017268138006329536 0.15501253306865692 -0.07411797344684601 -0.19398802518844604 0.012127428315579891 -0.12142620980739594 -0.30148637294769287 0.16856972873210907 0.17055150866508484 -0.018739204853773117 -0.020563457161188126 
0.07881725579500198 0.016035674139857292 -0.21750277280807495 -0.013759388588368893 -0.02612592652440071 0.29333269596099854 -0.06910962611436844 0.27912914752960205 -0.07093822211027145 0.08728178590536118 0.1382926106452942 -0.05854213237762451 -0.045156367123126984 0.012075033038854599 0.18264175951480865 -0.08934041112661362 0.19762441515922546 -0.07310806959867477 -0.1723477989435196 -0.10334115475416183 0.024944711476564407 -0.010437827557325363 0.03467511758208275 0.11843880265951157 0.10139559209346771 -0.032121531665325165 0.10335686802864075 -0.10501691699028015 -0.018371902406215668 0.003377818036824465 0.09961564838886261 -0.13445886969566345 0.17950019240379333 -0.07477804273366928 -0.1310185343027115 -0.1262402981519699 -0.2865794897079468 0.30990070104599 -0.04532092809677124 -0.025946633890271187 0.0848413035273552 -0.046406339854002 -0.26397767663002014 -0.05762048438191414 0.057161845266819 0.1035907045006752 -0.15936246514320374 0.09479685127735138 -0.016743090003728867 -0.04176654666662216 0.05969051644206047 0.020449070259928703 -0.026648595929145813 0.012479863129556179 -0.01936640590429306 0.05694914981722832 0.18958401679992676 0.06995117664337158 -0.0033931497018784285 -0.036802083253860474 0.1589209884405136 -0.11159690469503403 0.01457788236439228 -0.06880056113004684 -0.13650043308734894 0.2377386838197708 -0.06220680847764015 0.034032780677080154 -0.05696688964962959 0.1539674699306488 -0.19753754138946533 -0.012111008167266846 0.18810006976127625 -0.1246204748749733 0.23891934752464294 -0.14742963016033173 -0.15024153888225555 -0.09335476160049438 0.32674527168273926 0.00426075141876936 0.17321039736270905 0.17560632526874542 0.3670336902141571 -0.02258777804672718 -0.001901097479276359 0.01369659323245287 0.0745990201830864 -0.02519715577363968 0.023574091494083405 -0.08150585740804672 -0.020946873351931572 0.12048722058534622 0.014850128442049026 0.0018259489443153143 0.02383306808769703 -0.0985419750213623 0.09269174188375473 -0.15519921481609344 0.233295738697052 0.0011184192262589931 -0.08389202505350113 0.1276673525571823 0.0819399431347847 0.39572978019714355 0.18767370283603668 0.037765659391880035 0.07928325235843658 0.2104942798614502 0.06792871654033661 -0.17763133347034454 -0.16207915544509888 0.12564659118652344 -0.06807271391153336 0.204283207654953 0.15433664619922638 0.017070889472961426 0.1277937889099121 -0.04106265306472778 -0.13109183311462402 0.008971531875431538 
-0.020613938570022583 -0.1374693065881729 0.010454469360411167 -0.015256577171385288 -0.14598403871059418 0.056694693863391876 -0.008233674801886082 -0.1042361781001091 0.140595480799675 0.11464603245258331 -0.28314918279647827 -0.1691916286945343 0.09716126322746277 -0.23924434185028076 0.22710363566875458 -0.08103366196155548 0.14870645105838776 0.2939649224281311 -0.15843424201011658 0.1398244947195053 -0.16537223756313324 0.031039312481880188 -0.006597539875656366 0.12231703102588654 -0.01590678282082081 -0.1720150113105774 -0.0521446168422699 0.1903008371591568 0.00916592963039875 0.11492591351270676 0.05369740352034569 -0.14740540087223053 0.1271853744983673 -0.2412966787815094 0.030693573877215385 -0.08116316050291061 0.0754382535815239 -0.14764198660850525 0.0258634090423584 0.03533579781651497 0.007782340981066227 0.052739981561899185 -0.12810783088207245 -0.061556171625852585 -0.014870882034301758 0.023355625569820404 -0.37236666679382324 -0.07516823709011078 0.11049069464206696 -0.16727598011493683 0.030791934579610825 -0.05242781713604927 -0.18125513195991516 0.11472498625516891 0.09695407003164291 0.2343520075082779 0.058581188321113586 -0.045982543379068375 -0.30142879486083984 -0.0029986074659973383 -0.003393629565834999 -0.06350549310445786 0.07991807162761688 0.17319998145103455 -0.11857595294713974 -0.19168315827846527 0.13034780323505402 0.12363379448652267 -0.09632730484008789 -0.0640084519982338 -0.1385194957256317 -0.07904082536697388 -0.20960189402103424 -0.11593640595674515 0.04699418321251869 -0.009798292070627213 -0.19863800704479218 -0.10458322614431381 0.1678069680929184 0.06990788877010345 0.121770478785038 0.019350744783878326 0.15798135101795197 0.11998044699430466 -0.1849471628665924 -0.06409989297389984 -0.04422736167907715 0.04061627760529518 0.06684833765029907 0.08712376654148102 0.09055209159851074 -0.020124131813645363 0.0069638448767364025 0.09475167095661163 -0.04256043955683708 -0.005460658110678196 0.25439903140068054 0.015868764370679855 -0.0460464246571064 -0.10306873172521591 -0.26044127345085144 0.0198381207883358 0.02111055701971054 0.1227818951010704 -0.04473331570625305 0.019041692838072777 0.14832478761672974 0.10514097660779953 -0.08611880987882614 0.06262113898992538 -0.00145431247074157 0.13204093277454376 0.004669662099331617 0.06274988502264023 -0.11319227516651154 0.09500367939472198 -0.08147899806499481 -0.0268925279378891 -0.22644352912902832 0.027574365958571434 
0.031791362911462784 0.14871469140052795 -0.2018156498670578 -0.29226672649383545 0.12285302579402924 -0.10079104453325272 -0.3353455662727356 0.09197262674570084 0.03374649956822395 0.16943570971488953 0.22598889470100403 0.09968209266662598 0.024740854278206825 -0.1951826959848404 0.2526703476905823 0.05113831162452698 0.3249081075191498 0.11281181126832962 -0.07444366067647934 0.061581287533044815 0.012783176265656948 0.05631934851408005 -0.07498710602521896 -0.02513481304049492 -0.01494661159813404 -0.001829920569434762 0.036920905113220215 -0.19668106734752655 0.13320466876029968 -0.0967819094657898 -0.03851351514458656 0.01826435513794422 -0.08345703035593033 -0.3307361602783203 0.14705024659633636 -0.03004731424152851 0.06798501312732697 0.3051309585571289 -0.2770044505596161 -0.05786527693271637 0.10028956830501556 -0.19990752637386322 -0.12020789831876755 -0.12938174605369568 0.22708815336227417 0.1605379581451416 0.13792328536510468 -0.0013565396657213569 0.12723898887634277 0.035249557346105576 -0.03140890225768089 -0.10744544863700867 -0.09155774116516113 0.094302237033844 -0.07840152084827423 0.0995672196149826 0.06849856674671173 0.04455766826868057 -0.168422132730484 0.09447676688432693 0.14041516184806824 -0.04681682959198952 0.031212572008371353 -0.22851073741912842 -0.10776055604219437 0.07918725907802582 0.16373930871486664 0.07396520674228668 0.057395633310079575 -0.021968014538288116 0.024028556421399117 -0.06284920871257782 0.08132478594779968 -0.14106111228466034 -0.1301722526550293 0.0379958376288414 -0.09079939126968384 -0.044458311051130295 0.07978298515081406 0.11642026156187057 0.058866843581199646 0.17972169816493988 -0.08480782806873322 -0.043901704251766205 0.19800502061843872 0.11178090423345566 -0.039669573307037354 0.2657630145549774 -0.1326315999031067 -0.05872437357902527 0.21060533821582794 -0.05671797692775726 0.007662840187549591 -0.3126915693283081 -0.1754920482635498 -0.026928311213850975 -0.14497867226600647 -0.18255889415740967 -0.15450383722782135 -0.2782021462917328 -0.06361032277345657 -0.05629320442676544 0.04464977979660034 0.11767853051424026 -0.1144874170422554 -0.013384608551859856 -0.008855262771248817 -0.25917941331863403 -0.014106547459959984 0.12972675263881683 -0.3343057930469513 -0.2798117697238922 -0.10096482932567596 -0.09448019415140152 0.03381698206067085 -0.0497916042804718 0.04039982706308365 -0.17711018025875092 0.08421635627746582 0.13074418902397156 
-0.036308083683252335 -0.29639893770217896 0.0923309251666069 -0.005283423699438572 0.015054701827466488 -0.11571172624826431 0.0374196395277977 0.032251931726932526 0.0738617405295372 0.005534731782972813 -0.3036864101886749 -0.16948871314525604 -0.12658050656318665 -0.09949758648872375 0.020936043933033943 0.023671336472034454 -0.1250692456960678 0.11675094068050385 -0.2136400043964386 0.08567920327186584 -0.14833427965641022 -0.02459811232984066 0.12078193575143814 0.13785971701145172 0.22573275864124298 0.029527738690376282 -0.28198155760765076 0.1740124672651291 -0.1770136058330536 -0.07646770030260086 0.07019982486963272 0.19624674320220947 0.033269789069890976 0.1248234435915947 -0.011896884068846703 -0.23686611652374268 0.03346174582839012 -0.13974471390247345 -0.20802362263202667 -0.07186020910739899 -0.035229023545980453 -0.15634730458259583 0.15853038430213928 0.1244199350476265 -0.08735466748476028 -0.015204228460788727 0.09460348635911942 0.10551697015762329 -0.08164948970079422 -0.04051373898983002 -0.15259987115859985 0.19994518160820007 -0.12898096442222595 0.0868893638253212 -0.3800417482852936 -0.08634898066520691 -0.33287015557289124 0.336721271276474 -0.1340581625699997 0.0027515338733792305 -0.02574264444410801 -0.19991864264011383 -0.19634340703487396 -0.0856446623802185 -0.05583171546459198 -0.00851271953433752 0.2606827914714813 -0.34510740637779236 -0.17871306836605072 -0.048915017396211624 0.07394393533468246 -0.002089892514050007 -0.2716836631298065 -0.006677952129393816 -0.039217863231897354 0.12779046595096588 0.009159146808087826 0.028966758400201797 -0.059187471866607666 -0.23938362300395966 0.2516663074493408 -0.366718053817749 0.032927244901657104 0.16175313293933868 0.09067492932081223 0.02690204605460167 0.1905049979686737 -0.1419045329093933 0.039503760635852814 0.03353048861026764 -0.12102466821670532 -0.08066371828317642 0.10950065404176712 0.10406762361526489 0.06066451966762543 0.05365808680653572 -0.06212540343403816 0.2629565894603729 -0.08376795798540115 0.1254684180021286 -0.014457402750849724 -0.3290247321128845 0.014454695396125317 -0.3670831620693207 -0.07341008633375168 -0.07773326337337494 0.1804780811071396 0.009730485267937183 -0.03211076930165291 -0.009103454649448395 0.042733434587717056 0.041820868849754333 0.11332643032073975 -0.04225537180900574 -0.25119471549987793 -0.15237945318222046 -0.015063068829476833 -0.0545395202934742 -0.0844942107796669 0.0070197973400354385 
-0.10772758722305298 -0.03636016324162483 0.024279041215777397 -0.045880574733018875 -0.11266672611236572 -0.11266234517097473 0.05847790092229843 -0.06128005310893059 -0.01992018148303032 0.013353414833545685 -0.04254085198044777 0.07537844032049179 -0.05524122342467308 -0.08810402452945709 -0.0796017050743103 0.020464906468987465 -0.10110991448163986 -0.01576346904039383 0.018075034022331238 -0.05665025860071182 -0.04933548346161842 -0.09239717572927475 -0.049632709473371506 -0.019696973264217377 -0.08442758768796921 -0.06983847916126251 -0.035187143832445145 -0.055907778441905975 -0.015495018102228642 0.040063150227069855 0.06683284789323807 -0.00848166923969984 -0.03355727717280388 -0.07157653570175171 -0.01499214582145214 -0.0769713968038559 -0.04482365399599075 -0.09607649594545364 -0.01338756363838911 -0.021689523011446 0.022396886721253395 -0.0837426707148552 -0.08102679252624512 0.07805958390235901 -0.10821577906608582 -0.05426551029086113 0.07979661226272583 0.06609930098056793 -0.08868679404258728 -0.030140068382024765 -0.08388539403676987 0.03199795261025429 -0.0749291479587555 -0.03620524704456329 -0.11324939876794815 -0.040673911571502686 0.0542491152882576 -0.09247463941574097 -0.053320106118917465 -0.051784951239824295 -0.08375664055347443 -0.07446960359811783 -0.08317194879055023 -0.019604427739977837 -0.0922815129160881 -0.08772061765193939 -0.055062152445316315 0.018590254709124565 0.030214427039027214 -0.04581887647509575 -0.08159445226192474 0.017086880281567574 -0.06479934602975845 -0.08754871040582657 -0.0889071524143219 -0.06825608015060425 0.027927039191126823 -0.06372414529323578 -0.10683758556842804 -0.07090402394533157 -0.07983097434043884 -0.046797897666692734 0.01220625638961792 -0.08962047100067139 0.05876738578081131 0.034410372376441956 -0.02485501579940319 0.035225119441747665 0.05471827834844589 -0.07059327512979507 -0.03162680193781853 0.02683780901134014 0.05724724382162094 -0.00871187262237072 -0.10351044684648514 0.04694708064198494 -0.1058836579322815 -0.046116530895233154 0.012718300335109234 -0.09545566141605377 -0.07648743689060211 0.04664035886526108 -0.030511949211359024 0.053875863552093506 0.02485164813697338 -0.039724525064229965 -0.0928909033536911 -0.07070980221033096 -0.11171001195907593 0.020473195239901543 -0.03829396888613701 0.048185382038354874 -0.006955214310437441 -0.05936861038208008 -0.10782020539045334 -0.01744680665433407 0.0346548818051815 -0.028891583904623985 -0.08642617613077164 -0.06414160132408142 
-0.35164356231689453 -0.02130390889942646 -0.03376040980219841 -0.0618944875895977 -0.1535152792930603 0.02391262724995613 0.04377475380897522 -0.22599442303180695 -0.010544076561927795 0.10402238368988037 -0.06928595155477524 0.035544633865356445 0.05538390576839447 -0.33938708901405334 -0.014171731658279896 0.16305096447467804 0.012491346336901188 0.23732903599739075 -0.05656209588050842 -0.012057607062160969 -0.017643358558416367 0.23534439504146576 -0.00546009698882699 -0.1841973066329956 0.0004920866340398788 -0.018534604460000992 0.06938157975673676 0.5826417207717896 0.051942236721515656 0.08017325401306152 0.021453410387039185 0.17238208651542664 0.00453180493786931 0.09800626337528229 -0.021746983751654625 0.16116443276405334 0.0251829382032156 0.24431726336479187 0.24601972103118896 0.08142394572496414 -0.08968484401702881 0.03558109328150749 0.04484620317816734 0.1332063376903534 0.1961907595396042 -0.03620752692222595 -0.031079459935426712 -0.09759215265512466 -0.05636259913444519 -0.23905950784683228 0.06773173063993454 0.04862019792199135 0.006713481154292822 0.10032206773757935 0.05250190570950508 -0.0315701998770237 0.018139762803912163 -0.08442046493291855 0.1360761672258377 -0.1601129025220871 -0.30179423093795776 0.07262743264436722 0.21979224681854248 0.19843411445617676 -0.13316041231155396 -0.009839335456490517 -0.16961131989955902 -0.00629713200032711 -0.13112713396549225 0.010721711441874504 -0.11498314887285233 0.13054202497005463 -0.07287509739398956 -0.015081343241035938 -0.10938964784145355 0.03357351943850517 -0.12508834898471832 -0.007303612306714058 0.20641927421092987 0.13603529334068298 -0.12676465511322021 -0.009678103029727936 -0.12268214672803879 -0.012321148999035358 -0.2749369442462921 0.15250147879123688 -0.30868855118751526 -0.10067180544137955 -0.006176491267979145 -0.1358712613582611 0.0076612066477537155 -0.12617771327495575 -0.19701047241687775 0.09829147905111313 -0.030011801049113274 -0.12625497579574585 0.07188843935728073 -0.27086517214775085 -0.16917933523654938 0.2944706976413727 0.04051172360777855 -0.08167514204978943 0.17677946388721466 -0.19354096055030823 -0.38654205203056335 0.08381985872983932 -0.006435162387788296 -0.03735227882862091 0.09560920298099518 -0.0019733128137886524 0.05143109709024429 -0.004996299743652344 0.03340362757444382 -0.12260165065526962 0.011486900970339775 -0.19124175608158112 -0.1126510500907898 0.06905682384967804 -0.11081016808748245 0.03476865962147713 
0.02655119076371193 -0.1476845145225525 -0.1548728197813034 -0.07416395843029022 0.07644551247358322 -0.03961336612701416 -0.17775112390518188 -0.09723944216966629 0.02106771059334278 -0.13225112855434418 -0.04094840958714485 0.07848896831274033 0.13397157192230225 -0.12017901241779327 0.053068552166223526 0.33908241987228394 0.23824866116046906 0.010901253670454025 -0.20348627865314484 -0.03865508735179901 0.1496352106332779 -0.11124412715435028 -0.09145916998386383 0.07772285491228104 -0.07431483268737793 -0.013613229617476463 -0.025721048936247826 -0.0734693706035614 -0.06656132638454437 0.24806296825408936 -0.08797771483659744 -0.0904029905796051 0.14431971311569214 -0.013794412836432457 -0.18602733314037323 -0.04232182726264 0.02086232788860798 -0.006662573199719191 -0.05662897974252701 -0.060243841260671616 0.028124427422881126 -0.010963037610054016 -0.05486118048429489 0.05098309367895126 -0.0930771604180336 0.037359241396188736 0.0403304249048233 -0.013382410630583763 -0.10663899779319763 -0.09659938514232635 -0.10914566367864609 0.21828167140483856 -0.15514905750751495 -0.0522582083940506 -0.009269701316952705 0.13930784165859222 -0.08120696991682053 0.12569624185562134 -0.15125757455825806 -0.0981328934431076 0.10244717448949814 -0.061820629984140396 0.03741143271327019 -0.07392840087413788 -0.05129549652338028 -0.1054920107126236 -0.08183877915143967 0.04455970600247383 -0.12966032326221466 -0.14575091004371643 -0.10668329149484634 0.11200825124979019 0.0870986357331276 -0.24242925643920898 0.13173863291740417 -0.21278175711631775 0.11986211687326431 -0.0729849562048912 0.03086012974381447 -0.09943169355392456 -0.2083042412996292 -0.025364845991134644 0.053007401525974274 -0.12040137499570847 0.07960239052772522 -0.19670872390270233 0.06239866465330124 -0.044928018003702164 -0.2001148760318756 -0.11888710409402847 -0.013609737157821655 -0.24289923906326294 -0.16324245929718018 0.1533184051513672 -0.1396513283252716 0.1047641709446907 0.01686212792992592 -0.05646412819623947 0.1434049904346466 -0.08897366374731064 -0.04498922452330589 0.19034190475940704 -0.14666230976581573 -0.11948759108781815 -0.006396673619747162 -0.06032021343708038 0.11188877373933792 0.1456182450056076 -0.2151704728603363 -0.05070522055029869 -0.12503787875175476 -0.05732129514217377 -0.12209978699684143 -0.08724262565374374 -0.01926439255475998 -0.05655664578080177 -0.11705603450536728 -0.09630657732486725 -0.06810549646615982 0.13103699684143066 
0.020709989592432976 0.042675528675317764 0.176140695810318 0.09803789108991623 0.1119697317481041 0.013529524207115173 0.0688006579875946 0.12554626166820526 -0.07963016629219055 0.0627647116780281 -0.08504414558410645 0.03764543682336807 0.03973781317472458 0.16795814037322998 0.20579323172569275 -0.05687544122338295 0.05274017155170441 -0.25798988342285156 0.00029384851222857833 -0.24086548388004303 -0.08699614554643631 -0.2335066944360733 0.43574315309524536 -0.08969465643167496 0.024021118879318237 0.05204904451966286 -0.13243240118026733 0.24182447791099548 -0.10199038684368134 -0.02256283350288868 -0.09631004184484482 0.046616971492767334 0.01765621080994606 0.18215428292751312 -0.20796501636505127 -0.2915040850639343 -0.2192927747964859 -0.010120510123670101 -0.059594664722681046 -0.05714847519993782 -0.0650600790977478 -0.1646130383014679 0.04271510988473892 0.07876633107662201 -0.033831506967544556 -0.06528095155954361 0.04694569855928421 0.19996105134487152 -0.5040838718414307 -0.0503699965775013 0.12668970227241516 0.11984313279390335 0.08606655895709991 -0.07996988296508789 -0.21791157126426697 -0.0237758569419384 0.14161363244056702 -0.12129329144954681 0.07592760771512985 0.08896195143461227 -0.2443930208683014 -0.018094778060913086 -0.1557052731513977 -0.03233199566602707 0.2192334532737732 -0.08110718429088593 0.1971563845872879 -0.002721357624977827 0.07078270614147186 -0.015334583818912506 0.1591489166021347 0.13634999096393585 -0.051553260535001755 -0.0963454470038414 0.015043055638670921 -0.061874426901340485 0.12954437732696533 0.10751064866781235 -0.0822344422340393 -0.2746507227420807 0.10537923872470856 0.1111864522099495 0.00754367932677269 0.030745716765522957 0.006655165925621986 0.12578709423542023 0.1599448174238205 0.12609699368476868 0.08853190392255783 0.03462602198123932 -0.17249663174152374 0.31348562240600586 0.14450885355472565 0.017075099050998688 1.931462793436367e-05 -0.14153975248336792 -0.24205359816551208 0.21958018839359283 0.1445866823196411 0.2318965345621109 -0.03884575888514519 -0.09245254844427109 0.05743910372257233 -0.07476405799388885 -0.00041535060154274106 0.04856330528855324 0.13429680466651917 0.031100336462259293 0.08244886249303818 -0.19605417549610138 0.018803684040904045 0.10280481725931168 0.26540330052375793 0.1618904322385788 0.15912237763404846 -0.015245532616972923 -0.06882808357477188 -0.059138741344213486 0.011171715334057808 0.02349761873483658 
-0.03347140923142433 -0.11089637875556946 -0.15645986795425415 -0.04254579916596413 0.003819089150056243 -0.10015604645013809 0.16532443463802338 -0.08348485827445984 -0.13832759857177734 -0.07114972919225693 -0.03879924863576889 0.002502752933651209 -0.1620345115661621 0.027738584205508232 -0.12309181690216064 -0.15599802136421204 -0.2391577661037445 -0.20899644494056702 -0.12621448934078217 -0.0812017023563385 -0.16177920997142792 -0.043919939547777176 0.13726162910461426 0.130269855260849 -0.01338877808302641 0.023265616968274117 0.030534161254763603 -0.20233646035194397 0.10695470124483109 -0.49735426902770996 0.08696964383125305 0.041369326412677765 -0.1215088814496994 -0.18000853061676025 0.0774412527680397 0.05588173866271973 -0.18593229353427887 0.11224375665187836 0.0026828583795577288 -0.054429784417152405 0.186052605509758 -0.0545794777572155 -0.04828862473368645 -0.1416667401790619 -0.2098148912191391 -0.018130045384168625 -0.12523745000362396 -0.10958193242549896 -0.11239960789680481 0.09343656152486801 0.06024985387921333 -0.023957055062055588 0.03269102796912193 -0.025723731145262718 -0.19819937646389008 -0.2510546147823334 -0.26581767201423645 0.138718843460083 -0.03819078579545021 0.0776732936501503 -0.24341408908367157 -0.07394489645957947 -0.2033701241016388 -0.02662476897239685 -0.07217936962842941 -0.08958357572555542 0.22055336833000183 -0.1848609447479248 -0.01291144173592329 0.08513466268777847 0.03626493364572525 -0.01931649073958397 0.24074415862560272 -0.0830753892660141 -0.16959233582019806 0.07952114939689636 -0.0309707410633564 -0.014368035830557346 -0.21186748147010803 0.04849116876721382 0.06574873626232147 -0.11948584020137787 -0.15447191894054413 0.22151872515678406 0.09949973970651627 0.1957513988018036 0.20725135505199432 0.1093517392873764 0.0009201945504173636 0.02914833463728428 -0.012200103141367435 -0.15955065190792084 -0.036513593047857285 0.08988139778375626 0.07225342839956284 0.0641838014125824 -0.061428725719451904 0.25716468691825867 -0.1715177446603775 -0.026335494592785835 -0.05827105790376663 -0.18268851935863495 -0.3144984543323517 -0.03691136837005615 -0.12501734495162964 0.02267749235033989 0.16591112315654755 -0.0957617536187172 -0.03528328612446785 -0.002302284352481365 -0.09580805897712708 -0.16102741658687592 0.1680014431476593 0.2232363224029541 -0.12518855929374695 -0.04028383269906044 0.011035057716071606 0.20747874677181244 0.059640366584062576 -0.07507415115833282 
-0.11292178928852081 -0.027770034968852997 -0.08446421474218369 -0.014337117783725262 -0.14975561201572418 -0.09728988260030746 -0.1308824121952057 0.19874761998653412 -0.08011838793754578 -0.04495173692703247 -0.12266340106725693 0.1532384157180786 0.056895431131124496 -0.08573015034198761 0.02345677651464939 0.2212790995836258 0.3263269066810608 0.18481779098510742 -0.07391113042831421 -0.12888069450855255 -0.3048557937145233 -0.19431719183921814 0.272946834564209 -0.03672916069626808 -0.13256163895130157 -0.28305312991142273 -0.13180546462535858 0.03482285141944885 -0.1478123962879181 0.06028824672102928 0.3313106894493103 -0.22703897953033447 0.19922266900539398 -0.018715549260377884 -0.14728540182113647 -0.19071504473686218 -0.18795764446258545 -0.011414540000259876 0.014372697100043297 -0.027691517025232315 0.03576315566897392 0.09891843795776367 -0.014175827614963055 0.05065005272626877 -0.007190250325948 -0.17922964692115784 0.14911788702011108 0.12862826883792877 -0.1556835174560547 -0.2534598112106323 -0.12433908879756927 0.1909223049879074 -0.025901317596435547 -0.037098925560712814 -0.058111995458602905 -0.12759968638420105 -0.11998744308948517 -0.05718464404344559 -0.06215783953666687 -0.21742959320545197 -0.1494370847940445 0.02986278012394905 -0.006637397687882185 -0.1212974488735199 -0.10198255628347397 0.10802675038576126 0.028739765286445618 0.023265615105628967 -0.1922806054353714 0.04120897874236107 -0.05492749810218811 0.1711863875389099 -0.10493914037942886 0.08308202028274536 -0.07425232976675034 -0.24842657148838043 -0.18015293776988983 -0.13379722833633423 0.09718374907970428 -0.049666911363601685 0.11719352006912231 0.23959434032440186 0.02694731391966343 -0.08511048555374146 -0.15882368385791779 0.04275817424058914 -0.036253921687603 -0.13206791877746582 -0.03791635483503342 0.052553340792655945 -0.12780235707759857 -0.23711220920085907 -0.11193890124559402 -0.24291656911373138 0.11480346322059631 -0.24743662774562836 0.13067501783370972 0.014563918113708496 -0.010207735933363438 0.21136103570461273 -0.04852500930428505 0.027790118008852005 0.029088469222187996 0.005403163842856884 0.12959837913513184 0.10136926919221878 -0.14348921179771423 0.19643518328666687 -0.0488775297999382 -0.0018485664622858167 -0.019828636199235916 0.09497948735952377 0.02740434557199478 -0.06407999992370605 0.012582913041114807 -0.007731396704912186 -0.2780092656612396 -0.03124202974140644 -0.14768067002296448 -0.11542906612157822 
-0.10593649744987488 0.07615533471107483 -0.17620277404785156 0.06072797253727913 -0.19850324094295502 0.14163322746753693 0.03537740185856819 -0.055140309035778046 0.018111255019903183 -0.07548850029706955 -0.06494486331939697 -0.012080501765012741 0.11120665818452835 -0.1267622411251068 -0.018967023119330406 -0.05409010499715805 -0.22932471334934235 -0.1334410309791565 -0.13216212391853333 0.14449377357959747 -0.0937526598572731 0.055726777762174606 0.03484028950333595 0.012859966605901718 -0.032764874398708344 0.025550762191414833 -0.15997855365276337 -0.07393446564674377 -0.1448732167482376 -0.15654686093330383 0.0785214751958847 -0.05131198465824127 -0.00240982579998672 -0.07934077829122543 -0.11144301295280457 -0.03694871813058853 -0.020692316815257072 -0.057430095970630646 0.06054080277681351 0.08230060338973999 -0.11323998868465424 -0.11784684658050537 0.10076496005058289 -0.05963902920484543 -0.07617765665054321 0.14235302805900574 0.010194558650255203 -0.0167964156717062 -0.03516983240842819 0.046292781829833984 -0.19380083680152893 -0.0050734588876366615 -0.051773544400930405 -0.05963598191738129 -0.13878123462200165 0.052018582820892334 -0.028205715119838715 -0.1260012835264206 -0.05970786139369011 -0.0859161764383316 -0.06861995905637741 -0.15090630948543549 -0.1576399803161621 -0.20741239190101624 -0.058803483843803406 0.08430914580821991 -0.021462921053171158 -0.1613200306892395 0.01616404578089714 -0.17165981233119965 0.054664939641952515 0.004207406658679247 -0.0672406554222107 0.12911497056484222 -0.1127048134803772 -0.016690578311681747 -0.1663915067911148 0.12062956392765045 -0.06617745757102966 -0.13299086689949036 -0.0460624136030674 -0.12391844391822815 0.014583906158804893 0.0050382292829453945 0.28719496726989746 -0.03456373140215874 0.12043379992246628 -0.010703000240027905 -0.06528481841087341 -0.3041035532951355 0.011275765486061573 0.09957372397184372 -0.1933680921792984 -0.17350555956363678 0.007397691253572702 -0.15136924386024475 0.0575561486184597 -0.05036196485161781 -0.18741168081760406 -0.1222519725561142 -0.0958918109536171 -0.010279019363224506 -0.06762536615133286 0.014608779922127724 -0.2155657410621643 -0.023513976484537125 -0.12096518278121948 -0.02389572560787201 -0.018790796399116516 0.006298334337770939 -0.2199113965034485 -0.013231389224529266 -0.13243575394153595 0.10034185647964478 -0.06691619008779526 0.0037779398262500763 0.0514700822532177 0.04753052443265915 -0.037624575197696686 -0.07586751878261566 
0.026317786425352097 -0.28796815872192383 -0.035336315631866455 -0.13302338123321533 0.07845281064510345 0.16736717522144318 -0.01499653048813343 -0.16759510338306427 -0.07801759988069534 0.08863595128059387 -0.2455357313156128 -0.02435852587223053 -0.08409876376390457 -0.14091190695762634 0.12033440172672272 0.039994120597839355 0.276111900806427 -0.017710331827402115 0.008484777063131332 -0.017777029424905777 0.11925805360078812 -0.03056502714753151 0.11502440273761749 0.12416259199380875 -0.2445329874753952 -0.050393812358379364 0.06118889898061752 -0.12122920900583267 -0.2039669007062912 0.15794359147548676 -0.16820091009140015 -0.13906359672546387 -0.15570369362831116 0.04855453968048096 -0.06361296772956848 0.1834988296031952 -0.15035618841648102 -0.1689516305923462 -0.032480813562870026 0.1250554621219635 0.14416930079460144 0.02769792266190052 0.06443554908037186 -0.12283558398485184 0.05178506299853325 0.1618538647890091 0.14801734685897827 -0.22256574034690857 -0.027286848053336143 -0.008396702818572521 0.022233547642827034 0.06669213622808456 0.03271784260869026 -0.0356525182723999 -0.04020524397492409 -0.1491055190563202 -0.1451435685157776 0.1780102699995041 -0.2885008156299591 0.08100315928459167 -0.03089650720357895 -0.09230422973632812 -0.0663222223520279 0.1915188878774643 0.013956931419670582 -0.08613090962171555 -0.06559465080499649 -0.13428905606269836 -0.06509126722812653 -0.23074288666248322 -0.06534362584352493 -0.18937258422374725 -0.18075725436210632 -0.09825312346220016 0.0448295958340168 -0.007472993806004524 0.06629900634288788 0.20160788297653198 0.12203843891620636 -0.004629568662494421 -0.09639406204223633 0.025164473801851273 -0.06838177889585495 -0.13568027317523956 -0.10605290532112122 -0.21101869642734528 -0.04013926163315773 -0.17224514484405518 0.02704618126153946 -0.2280496209859848 -0.10013242810964584 0.0018156185979023576 0.19512075185775757 -0.33706676959991455 0.07427287846803665 -0.014336168766021729 -0.11801543086767197 0.15488070249557495 -0.01926717534661293 -0.20489639043807983 0.02723187953233719 -0.107840396463871 0.03390847519040108 -0.06640104949474335 0.12983179092407227 -0.08088129013776779 0.017713559791445732 -0.20757503807544708 -0.04938536882400513 -0.1594371646642685 -0.06508032977581024 -0.1476057767868042 -0.02753685787320137 0.1585092693567276 0.15626467764377594 -0.08525729924440384 -0.09464213252067566 0.007264982908964157 -0.15874135494232178 0.003930914215743542 
-0.14914734661579132 0.10861031711101532 0.2155786156654358 0.118522047996521 -0.12735411524772644 -0.06073173135519028 -0.08686470240354538 -0.091580331325531 0.1503223478794098 0.021047141402959824 -0.23409852385520935 0.12163513898849487 0.07289917021989822 -0.1623162180185318 0.2641417384147644 0.10385268926620483 0.3646810054779053 0.08396662026643753 -0.3222212493419647 -0.07498105615377426 0.08759359270334244 -0.012094266712665558 -0.09138456732034683 -0.14438726007938385 0.03725561127066612 -0.05798884853720665 0.04586639255285263 0.15256081521511078 -0.05371703580021858 0.36808380484580994 -0.017154153436422348 0.039732255041599274 0.12441255897283554 -0.27030083537101746 0.023373156785964966 -0.060302890837192535 -0.04469088837504387 -0.2606181204319 -0.19785989820957184 -0.06510881334543228 -0.27563756704330444 0.2819311022758484 -0.03859367221593857 -0.04883282631635666 -0.19018858671188354 0.24136748909950256 -0.011791209690272808 0.024634789675474167 -0.022116120904684067 -0.32327330112457275 -0.30405962467193604 -0.06787921488285065 -0.021918311715126038 0.0629120022058487 0.11895125359296799 0.2027694135904312 0.10396473854780197 0.07422138750553131 -0.1213761493563652 -0.07751478999853134 -0.11390502750873566 -0.3672610819339752 0.07416387647390366 -0.24543660879135132 -0.0880894660949707 0.010270453989505768 -0.11569999903440475 0.24949662387371063 -0.3871127963066101 -0.1872427761554718 0.0663909837603569 0.019377078860998154 -0.3868713080883026 -0.021462928503751755 0.265388160943985 -0.07358665764331818 0.09872225672006607 0.16773651540279388 -0.34297168254852295 0.16632558405399323 0.17356863617897034 0.20314669609069824 0.1004854217171669 0.012687480077147484 0.05080093443393707 -0.10642039775848389 -0.1070752963423729 0.1267467588186264 -0.22489747405052185 -0.06528784334659576 0.20873256027698517 0.1373569369316101 0.16643276810646057 0.018406400457024574 -0.16797588765621185 -0.07355143874883652 0.1356476992368698 -0.07084325700998306 0.07382876425981522 -0.12278718501329422 -0.014026952907443047 0.12870857119560242 0.15714582800865173 0.14828358590602875 -0.07262206822633743 0.06965255737304688 -0.03973239287734032 0.08836274594068527 -0.06454934924840927 0.06382089108228683 -0.12572377920150757 -0.01200072467327118 -0.26123562455177307 -0.02441766858100891 0.14629718661308289 -0.016092047095298767 0.009909681975841522 -0.06644223630428314 -0.16120101511478424 0.10723429918289185 
0.18930009007453918 -0.01216173730790615 0.015071071684360504 0.026679079979658127 0.03624003753066063 -0.08833983540534973 -0.026610808447003365 0.004939448554068804 -0.1234409287571907 -0.08314044028520584 -0.006612098775804043 -0.003390729194507003 -0.09077699482440948 -0.04374738410115242 0.0816183090209961 0.00016532281006220728 -0.003746555419638753 0.1706431806087494 0.033016495406627655 -0.09704839438199997 -0.17080536484718323 -0.15272682905197144 0.01898057572543621 0.014474771916866302 0.01896142214536667 -0.05738215893507004 0.1098148450255394 -0.05212128162384033 -0.14110879600048065 0.09162002801895142 0.003273191163316369 -0.18689844012260437 -0.08269640058279037 -0.02711009606719017 -0.1185327023267746 -0.02499251253902912 -0.16501674056053162 -0.04976274073123932 -0.05935231223702431 -0.025330964475870132 -0.06080412119626999 0.013686051592230797 -0.0561990849673748 0.12129030376672745 -0.016504138708114624 -0.07262609899044037 -0.07982540875673294 0.05529233068227768 -0.03966663032770157 -0.10817824304103851 0.017002401873469353 -0.04931258037686348 -0.20039711892604828 -0.17111077904701233 -0.046340685337781906 -0.07941708713769913 0.016057167202234268 -0.03688192740082741 -0.06360432505607605 0.01041380874812603 0.024178946390748024 0.10600511729717255 -0.19281606376171112 -0.0663054883480072 -0.024186832830309868 0.20310679078102112 -0.043162986636161804 -0.06289951503276825 -0.16227513551712036 0.10203757882118225 -0.14188246428966522 -0.030113575980067253 0.21925891935825348 -0.0825272724032402 0.028009679168462753 -0.06408493965864182 -0.11090461164712906 -0.0337805338203907 0.02090739645063877 0.16851826012134552 0.022055814042687416 0.1319669634103775 -0.030839789658784866 -0.002281040186062455 0.008895996026694775 -0.007473996840417385 -0.05736503750085831 -0.07748976349830627 -0.16393393278121948 -0.015271171927452087 -0.016391819342970848 -0.0013918938348069787 -0.10661229491233826 -0.03512683883309364 -0.07958373427391052 0.00796426460146904 -0.031842779368162155 0.04226791486144066 0.02233152650296688 -0.03801487758755684 -0.11295484751462936 -0.09615550190210342 -0.04713255912065506 0.052457161247730255 -0.10834784805774689 -0.04091814532876015 0.1621887981891632 -0.024762960150837898 -0.09066595137119293 -0.037206266075372696 0.004899590276181698 -0.023078152909874916 -0.07942087203264236 0.12337777763605118 0.05478535592556 0.06536340713500977 0.09525176137685776 0.12450536340475082 0.05087786912918091 -0.012366476468741894 
0.19944922626018524 -0.0415567085146904 -0.020869601517915726 -0.03514224290847778 0.11348586529493332 -0.18567867577075958 -0.041039399802684784 0.2691418528556824 -0.005398285109549761 0.0344921238720417 0.17522470653057098 0.020939281210303307 -0.10188869386911392 0.055078789591789246 -0.07512985169887543 0.14518311619758606 -0.176983043551445 -0.13298866152763367 0.04203944653272629 -0.16275887191295624 0.20689009130001068 -0.22945080697536469 0.02865234762430191 0.07728876918554306 0.04576481133699417 -0.016432421281933784 -0.10465306788682938 0.283784955739975 0.19808614253997803 0.2388426512479782 -0.04771197587251663 0.03342120721936226 -0.004343326669186354 0.16663451492786407 -0.09762154519557953 -0.08137422055006027 -0.06595516949892044 0.024184051901102066 -0.10346469283103943 -0.1510080248117447 -0.13987091183662415 -0.14922598004341125 0.0791671946644783 0.16721150279045105 -0.14492900669574738 0.023396451026201248 0.3434760868549347 0.2976149320602417 -0.14145220816135406 0.12362870573997498 0.03129284456372261 0.21902237832546234 0.0706261470913887 -0.051794521510601044 -0.05781784653663635 0.005972105078399181 0.05601608380675316 0.07533237338066101 -0.08154866844415665 -0.08210323005914688 0.12974193692207336 0.0760917142033577 0.023283416405320168 0.06427982449531555 0.05536298081278801 -0.12119872868061066 0.19980594515800476 0.04981711506843567 0.04765855148434639 -0.039421334862709045 0.24395568668842316 0.16013002395629883 0.3208829164505005 0.08188387751579285 0.2085881382226944 0.01795101724565029 0.052165575325489044 -0.017579155042767525 -0.3211287558078766 -0.29053837060928345 -0.14626653492450714 0.11745594441890717 0.17613467574119568 -0.28888946771621704 0.06798964738845825 -0.03637317940592766 -0.13607682287693024 -0.12266100198030472 -0.013829629868268967 -0.027987061068415642 -0.10825294256210327 0.0040644071996212006 0.04670189693570137 -0.23364241421222687 0.033036451786756516 0.03225735202431679 -0.05670221149921417 0.10770056396722794 0.15674906969070435 0.03384743258357048 0.04005003347992897 0.055203877389431 0.19890867173671722 -0.10887785255908966 0.14825628697872162 0.022521046921610832 -0.07351509481668472 0.025821350514888763 -0.023873256519436836 0.24330784380435944 0.05662550777196884 -0.06538797914981842 -0.10233213752508163 -0.15454912185668945 -0.13763365149497986 0.2124740034341812 0.13812658190727234 -0.052162300795316696 0.09656248986721039 0.06180708482861519 
-0.038559239357709885 -0.056248217821121216 -0.07825430482625961 -0.041487641632556915 -0.13592128455638885 0.0017625128384679556 0.13450005650520325 -0.204255610704422 -0.13926321268081665 -0.06683038175106049 0.30743172764778137 -0.12739351391792297 0.15282906591892242 -0.1571672558784485 -0.15856818854808807 0.23133455216884613 -0.19793231785297394 0.16375544667243958 -0.10834646224975586 0.006335032172501087 0.021828636527061462 0.006891519296914339 -0.049334343522787094 0.15540066361427307 0.06180953606963158 0.1105106994509697 0.18637308478355408 0.08867044746875763 -0.07662849128246307 -0.140933096408844 0.2857612669467926 0.0002588971401564777 0.00881322380155325 -0.0512026846408844 -0.15076100826263428 0.1936255395412445 0.15325237810611725 0.3737971782684326 0.2258261889219284 0.0458732545375824 0.04470843821763992 -0.23402729630470276 -0.20228217542171478 -0.09545336663722992 -0.3138880729675293 -0.3383462727069855 -0.08524597436189651 -0.16113032400608063 -0.010728897526860237 0.057133644819259644 0.18426011502742767 0.07295303791761398 0.08317726850509644 0.10373267531394958 -0.023489993065595627 -0.08201022446155548 -0.29957279562950134 -0.19493602216243744 0.03605853393673897 -0.0249088853597641 -0.016043731942772865 0.25499820709228516 -0.23531711101531982 0.11043796688318253 0.11218768358230591 0.12007083743810654 0.012801936827600002 0.07521990686655045 0.14258931577205658 0.015798095613718033 -0.28520330786705017 -0.13821454346179962 -0.0394715815782547 0.13941317796707153 -0.24869629740715027 0.11940959095954895 0.0847419798374176 -0.324260950088501 0.22158165276050568 0.2014862298965454 -0.20313043892383575 0.05546283721923828 -0.1412232369184494 0.0735345110297203 -0.12497652322053909 0.007590030785650015 0.08052312582731247 -0.061490826308727264 0.0688147321343422 0.2591962218284607 -0.07212284207344055 -0.21214555203914642 -0.16580666601657867 0.10060092061758041 -0.04138337820768356 -0.011979404836893082 -0.01821138523519039 -0.2051740288734436 -0.003415841842070222 0.06684194505214691 0.08321190625429153 -0.11192882806062698 -0.09156812727451324 0.12278464436531067 0.0037784778978675604 -0.03769552335143089 0.2519640326499939 -0.003930135630071163 0.023117076605558395 -0.022564349696040154 0.09768284112215042 -0.11553151905536652 0.1744736135005951 0.03138389065861702 0.06953535974025726 0.0949818566441536 0.03187853470444679 0.15835687518119812 -0.05682201683521271 0.004093003924936056 
0.0346100889146328 -0.3891328275203705 0.11949748545885086 0.11983466893434525 -0.11284638196229935 0.26124244928359985 0.0537688322365284 -0.08028954267501831 -0.009610086679458618 -0.09585241228342056 0.08034814894199371 -0.10018827021121979 0.07805805653333664 -0.31802359223365784 0.3023334741592407 0.3048946261405945 0.28801509737968445 0.08089578151702881 -0.22619687020778656 -0.03952033072710037 -0.11148610711097717 -0.10863327234983444 0.07960638403892517 0.1563791185617447 0.13791082799434662 0.08193565160036087 0.02573513239622116 0.17422685027122498 -0.022535273805260658 0.180985689163208 0.11963268369436264 0.040995847433805466 0.14985468983650208 -0.039404019713401794 -0.06593973934650421 0.15513476729393005 0.08398429304361343 -0.03474307805299759 0.15410484373569489 0.1555570513010025 0.2472943365573883 -0.006097715813666582 -0.06527729332447052 -0.04678560420870781 -0.1455935835838318 0.1114085391163826 0.1205168142914772 -0.15802240371704102 0.04781866446137428 -0.11281897127628326 0.015782512724399567 0.13028967380523682 -0.0730426013469696 0.013702197931706905 -0.15674474835395813 0.08603823184967041 0.05091756582260132 -0.05786101147532463 -0.4267372786998749 -0.015134080313146114 0.020228000357747078 -0.0514342226088047 0.09938444197177887 0.20612908899784088 0.0735437199473381 0.11919248849153519 0.2967590391635895 0.3994365930557251 -0.009325959719717503 -0.1891058385372162 -0.12780402600765228 -0.06578824669122696 -0.06870583444833755 0.08431801944971085 0.13567595183849335 0.003589086700230837 0.06408698111772537 0.03406109660863876 0.1293262243270874 -0.15128639340400696 0.17001229524612427 -0.083554208278656 -0.06616935133934021 0.13574646413326263 0.04220370575785637 -0.06437107175588608 -0.11685789376497269 -0.009168260730803013 0.102044478058815 0.17225030064582825 0.025205550715327263 0.09846145659685135 -0.006114112213253975 -0.00941022764891386 -0.07394102960824966 -0.04980392009019852 0.10679109394550323 0.2835009694099426 -0.0190106350928545 -0.22923389077186584 0.10336931049823761 0.025700006633996964 0.2121102511882782 0.37384873628616333 0.005351491272449493 -0.08505935966968536 0.4994819760322571 0.32198455929756165 -0.15343861281871796 -0.05945834890007973 -0.007170108612626791 -0.07490985840559006 0.19692665338516235 0.1269557774066925 -0.031255289912223816 0.14415386319160461 -0.027774257585406303 0.1427241712808609 -0.31340041756629944 -0.05483701825141907 
-0.08542240411043167 0.07548882067203522 0.05594450980424881 0.19382719695568085 0.04043826833367348 0.1997499316930771 0.14633072912693024 -0.05869987979531288 -0.22739921510219574 0.05369040369987488 -0.013415000401437283 -0.15157121419906616 -0.07052857428789139 -0.1586534082889557 0.29934263229370117 -0.04082895442843437 -0.13919486105442047 0.08028163760900497 -0.18294869363307953 0.008877062238752842 -0.1471174657344818 0.05439167469739914 0.0012541234027594328 0.17159557342529297 0.23357249796390533 0.0977642759680748 0.023006843402981758 0.16592925786972046 -0.08431128412485123 0.08190924674272537 -0.016434509307146072 0.1737058311700821 0.12556415796279907 -0.26806676387786865 -0.13457965850830078 -0.07842525094747543 -0.09880362451076508 0.2204776108264923 0.1577514410018921 -0.0012518600560724735 0.19664126634597778 -0.1632954478263855 -0.3047960102558136 -0.26042190194129944 -0.01997310109436512 -0.014552387408912182 -0.3604283630847931 0.0017628124915063381 0.012670468538999557 -0.11397069692611694 0.04847361519932747 -0.09652635455131531 0.09370356798171997 -0.1627291738986969 -0.03229314461350441 0.033393796533346176 -0.022133437916636467 -0.037933479994535446 -0.15413278341293335 -0.026655245572328568 0.0361146479845047 0.14083260297775269 -0.03653879091143608 0.09360741078853607 -0.013254907913506031 0.21217507123947144 0.061532773077487946 0.34305340051651 0.1503298133611679 -0.06197148188948631 -0.2623504102230072 -0.20331184566020966 0.05104701593518257 -0.10073017328977585 0.07462822645902634 -0.041371896862983704 -0.025704575702548027 0.0025841614697128534 0.3257305324077606 0.2014230191707611 0.003442742396146059 0.18448051810264587 -0.04414274916052818 0.18545489013195038 -0.04802869260311127 -0.0513915978372097 -0.1757221817970276 -0.06651058048009872 -0.04013508930802345 0.3255113661289215 -0.17987893521785736 0.11869105696678162 -0.009010949172079563 0.10468314588069916 -0.15034253895282745 -0.17993183434009552 0.2845967411994934 -0.09372847527265549 -0.04251740500330925 -0.2487424612045288 -0.08193010091781616 0.019094347953796387 0.0757167711853981 0.39027005434036255 0.14241889119148254 -0.0716065913438797 0.3160991072654724 0.2824353873729706 -0.006003396585583687 -0.2011864334344864 -0.10372596979141235 -0.021631410345435143 0.08919072151184082 0.0330839641392231 0.14155623316764832 0.37120288610458374 0.0020212996751070023 0.020132623612880707 -0.23978251218795776 -0.014583194628357887 
-0.2190612256526947 0.12226975709199905 0.10155945271253586 0.04761083796620369 0.13969650864601135 -0.11310867965221405 0.11260879784822464 -0.004508176818490028 -0.24440997838974 0.18315696716308594 -0.046912360936403275 0.13507337868213654 0.12436436116695404 0.046041760593652725 -0.17837342619895935 -0.08672723919153214 -0.13094088435173035 0.20762041211128235 0.015296699479222298 -0.10992708057165146 -0.20117290318012238 0.2223123162984848 0.07367328554391861 -0.034450359642505646 -0.02947172336280346 0.007773957680910826 -0.0848599225282669 0.40748196840286255 -0.049451038241386414 -0.10681947320699692 0.03217785060405731 -0.07790249586105347 -0.08983633667230606 0.019562268629670143 0.19995158910751343 0.0017797343898564577 0.056433580815792084 -0.17142415046691895 -0.10732665657997131 0.05740181729197502 -0.2962758243083954 -0.1213729977607727 -0.008230932988226414 -0.06511300802230835 0.1429249346256256 -0.3001452386379242 -0.25919032096862793 -0.1182359978556633 -0.20726712048053741 -0.11450151354074478 -0.027000930160284042 0.15412965416908264 0.03190659359097481 0.03836807608604431 -0.1390916109085083 0.10955391824245453 -0.37789830565452576 -0.0836457759141922 0.16913191974163055 0.023883696645498276 -0.25954726338386536 -0.17792204022407532 -0.10206837207078934 -0.15164491534233093 -0.07076378166675568 -0.09533499926328659 -0.14772775769233704 -0.17807507514953613 -0.08936405181884766 0.10928375273942947 -0.09241249412298203 0.10647232085466385 -0.49272289872169495 0.011908581480383873 -0.07661096006631851 0.0816565528512001 -0.0014976667007431388 0.12543947994709015 -0.16473646461963654 0.10012886673212051 0.22372421622276306 -0.1260230988264084 0.03687744587659836 0.05734006687998772 -0.0690864622592926 -0.025382025167346 0.05899600312113762 0.11052671074867249 0.1355401873588562 0.04626823961734772 -0.08152395486831665 0.00915558822453022 0.08408213406801224 0.10367140173912048 0.1424628049135208 -0.21130254864692688 0.021544843912124634 -0.1739800125360489 -0.2613818645477295 0.1338067352771759 -0.029408883303403854 -0.408729612827301 0.003026253543794155 -0.03845978528261185 -0.33763155341148376 0.179780974984169 -0.014486825093626976 -0.12911608815193176 -0.16571126878261566 -0.06757805496454239 -0.09757939726114273 0.15415066480636597 0.005894061643630266 0.07737623900175095 0.17753668129444122 0.09504389017820358 -0.25180917978286743 0.22567223012447357 0.06494935601949692 0.0733431726694107 
0.1253163367509842 0.26786309480667114 -0.002694837749004364 -0.17873765528202057 0.10240481793880463 -0.32490018010139465 -0.14704835414886475 0.27452561259269714 -0.09750398248434067 0.15916505455970764 0.45005106925964355 0.009452714584767818 -0.1296372264623642 0.1273946464061737 -0.17496661841869354 0.11950727552175522 -0.2359069436788559 -0.06050639972090721 0.12874393165111542 -0.05803999304771423 0.12310943007469177 0.019829142838716507 -0.26850396394729614 -0.11331477016210556 -0.09719140082597733 0.11636657267808914 0.24341623485088348 -0.02856251783668995 0.12710700929164886 -0.06936845183372498 -0.14017771184444427 -0.08510642498731613 -0.22234295308589935 -0.02603290043771267 0.1431627720594406 0.10558266192674637 0.19971218705177307 0.05661969259381294 -0.4371894598007202 0.03998149558901787 -0.2524639070034027 -0.1933455765247345 -0.04405057057738304 0.060638945549726486 0.026140926405787468 -0.017792129889130592 0.1705411970615387 -0.013182754628360271 -0.09302393347024918 0.06904290616512299 0.18771673738956451 0.07138991355895996 -0.02368762716650963 -0.2446010261774063 -0.03624249994754791 -0.107423335313797 -0.06004408746957779 0.058522824198007584 0.30343005061149597 0.24406373500823975 0.02311607077717781 0.15477146208286285 0.07426147907972336 -0.35536259412765503 0.12279191613197327 0.10353696346282959 0.15947701036930084 -0.5081546902656555 0.01869807578623295 -0.06848426908254623 0.20255273580551147 0.05122300982475281 0.19093044102191925 -0.17149682343006134 0.033794600516557693 0.227427139878273 0.09139378368854523 -0.09617561101913452 -0.3563982844352722 0.1302143633365631 -0.11669673770666122 0.34301480650901794 -0.09227385371923447 -0.2188628762960434 0.04868311062455177 -0.03251831606030464 -0.21302229166030884 0.03708723559975624 -0.013575677759945393 0.19682757556438446 0.07022976130247116 -0.318874329328537 0.1125677302479744 -0.33494219183921814 0.07422994077205658 0.14211946725845337 -0.026443880051374435 -0.24842830002307892 0.052241355180740356 0.06270677596330643 -0.005333073902875185 -0.0008568258490413427 0.0671173706650734 0.08992321044206619 0.1977565735578537 -0.12553927302360535 0.025161439552903175 -0.28361979126930237 -0.027365202084183693 -0.057232607156038284 0.0561930350959301 -0.012636926956474781 -0.29968151450157166 -0.011064475402235985 -0.22486111521720886 0.11638442426919937 0.03172590211033821 -0.020011164247989655 -0.004935905337333679 0.1124562919139862 
-0.07479450851678848 -0.023910781368613243 -0.05281805619597435 0.06576807051897049 -0.11080954968929291 0.23219454288482666 0.01457470003515482 -0.20806573331356049 0.03545987978577614 0.028436753898859024 -0.047438059002161026 -0.004279766231775284 0.09284435212612152 -0.3244815170764923 -0.11192213743925095 -0.02265951596200466 0.006683483719825745 0.2609866261482239 -0.12864521145820618 0.1985350400209427 0.0318613275885582 0.2243884950876236 -0.15321339666843414 0.1933605968952179 0.06563033163547516 -0.010306283831596375 -0.01901332475244999 0.28755953907966614 0.12633675336837769 0.14984756708145142 0.11635924875736237 0.17920270562171936 0.19640225172042847 -0.005122988950461149 -0.001429711002856493 0.05169331282377243 -0.034651488065719604 0.2112208604812622 0.13549301028251648 0.10717781633138657 0.22219181060791016 0.1889001429080963 0.02497882768511772 -0.06643986701965332 -0.009157772175967693 -0.017639854922890663 -0.2797832190990448 -0.07318589836359024 0.1057283952832222 -0.08704520761966705 0.11746450513601303 0.05163698270916939 -0.025479024276137352 0.30691972374916077 -0.02565857023000717 0.24730436503887177 0.05308922007679939 -0.06230040639638901 0.015199031680822372 -0.17990699410438538 0.06140470504760742 0.06584712862968445 0.12911607325077057 0.3342180550098419 -0.43188613653182983 0.1430785357952118 0.0874580517411232 0.17589625716209412 0.009902174584567547 0.11377083510160446 -0.23074102401733398 0.05689739063382149 -0.08588577061891556 -0.131638765335083 0.05838089808821678 -0.01203104481101036 -0.37774035334587097 -0.1948918104171753 0.46560949087142944 0.019727397710084915 0.03570767492055893 0.016554255038499832 0.14969533681869507 0.13185067474842072 -0.1097603514790535 0.08289545029401779 0.006103024818003178 -0.09208998084068298 0.027970729395747185 0.061766963452100754 0.012879898771643639 0.08865050226449966 -0.3364950716495514 0.2626178562641144 -0.0210973359644413 -0.1962159425020218 0.11501570791006088 -0.039962172508239746 -0.10721896588802338 0.15307430922985077 -0.10360091179609299 0.10031712055206299 0.15119510889053345 0.2346801459789276 -0.1324671506881714 0.06110783666372299 0.1707199662923813 0.11258642375469208 0.09567835927009583 -0.0570785291492939 0.15026132762432098 0.14325924217700958 0.05683765560388565 -0.021771781146526337 0.0028677124064415693 -0.19711260497570038 0.18548764288425446 -0.16424250602722168 -0.03241535276174545 0.02270093373954296 
-0.14624539017677307 0.03774820640683174 -0.13674649596214294 0.10088834911584854 0.01941979117691517 0.29933059215545654 0.0801762118935585 -0.09394965320825577 0.15938909351825714 -0.22793902456760406 -0.11655788868665695 0.16376303136348724 0.12725377082824707 0.006852307356894016 0.03869209066033363 -0.06596221774816513 0.22390468418598175 -0.05835053697228432 0.10736080259084702 -0.12185075134038925 -0.05971778184175491 0.09764067083597183 0.4113619327545166 0.05964447930455208 -0.3526191711425781 -0.08123890310525894 -0.11282550543546677 -0.09531735628843307 -0.04389822855591774 -0.005323283839970827 -0.26291725039482117 -0.04426192492246628 -0.11174584925174713 0.22228585183620453 0.018853038549423218 0.06723390519618988 -0.011962015181779861 0.033284224569797516 -0.06901869922876358 0.07287156581878662 -0.007871552370488644 0.14961299300193787 -0.08260340243577957 -0.04244820028543472 0.08073233813047409 -0.08923172950744629 0.04491608589887619 -0.2837882936000824 0.15867672860622406 0.1413065642118454 0.06648606061935425 -0.16849783062934875 -0.14626246690750122 -0.14461788535118103 0.13786661624908447 -0.0033921070862561464 0.04551304131746292 -0.07018861174583435 0.05147337540984154 -0.10660693794488907 -0.037953007966279984 0.07298333197832108 0.23438164591789246 0.03860306367278099 0.07861422747373581 -0.3473340570926666 -0.2135261446237564 -0.065297432243824 -0.006182678509503603 0.08385813236236572 -0.011020403355360031 -0.10729702562093735 0.04958689585328102 0.05693485587835312 -0.1868223398923874 -0.19054065644741058 -0.06809023767709732 0.2327258288860321 0.23211675882339478 -0.16399182379245758 -0.0018120998283848166 -0.1952061802148819 -0.2711722254753113 0.06886761635541916 -0.06393139809370041 0.11844075471162796 0.12463124096393585 -0.0011499144602566957 -0.043103840202093124 -0.14405815303325653 0.13080790638923645 0.203281968832016 0.12046603113412857 0.06682279706001282 0.08653340488672256 0.04719781503081322 0.10535680502653122 -0.3203100562095642 0.1981959193944931 0.11938472837209702 0.06069176644086838 -0.10315372794866562 -0.1653963327407837 -0.27421367168426514 -0.16253532469272614 0.17099615931510925 -0.06476794928312302 -0.0945432186126709 -0.026056794449687004 -0.17926399409770966 0.025187641382217407 0.05898403748869896 0.2734534442424774 -0.10553641617298126 0.17547555267810822 -0.004390551242977381 -0.4053642749786377 0.09585842490196228 0.08159210532903671 0.06112760305404663 
-0.12224647402763367 0.1899665892124176 0.19166521728038788 -0.08864203095436096 -0.01285327784717083 -0.23337902128696442 -0.17940904200077057 0.0014284352073445916 0.24817225337028503 0.15160438418388367 -0.3883475661277771 -0.23878805339336395 0.06139044463634491 0.11115492880344391 -0.12768955528736115 0.31129783391952515 -0.18472200632095337 0.20994284749031067 -0.20139580965042114 0.18380773067474365 -0.05856481194496155 0.07523291558027267 -0.25800302624702454 -0.3415866792201996 0.17935092747211456 -0.024280617013573647 -0.011573780328035355 0.3059273660182953 0.0803433507680893 0.17571909725666046 0.2494126707315445 0.026621423661708832 0.18744991719722748 -0.19888952374458313 -0.03860606998205185 -0.19083477556705475 0.28765296936035156 -0.41810062527656555 -0.29427313804626465 -0.021872341632843018 -0.01627209410071373 0.22024103999137878 0.09505937993526459 0.2428063154220581 -0.11725329607725143 0.022240949794650078 0.09305146336555481 0.09657365828752518 -0.17536643147468567 0.00684748962521553 -0.30261141061782837 0.11467913538217545 0.004363355692476034 0.009831269271671772 0.06828407943248749 0.1310732364654541 0.18069006502628326 0.29067227244377136 -0.27932849526405334 0.2389339804649353 -0.006408324930816889 -0.26058146357536316 -0.06049477681517601 -0.04039986804127693 -0.09923441708087921 -0.2743811309337616 -0.0524565689265728 0.12987515330314636 -0.0784764215350151 -0.11025762557983398 0.1910562366247177 0.12963083386421204 -0.12757991254329681 0.09775557368993759 0.194358229637146 -0.017061954364180565 0.08365853130817413 0.015392554923892021 -0.3275742828845978 0.24543572962284088 0.17079123854637146 -0.06578046828508377 0.01857871375977993 0.022438522428274155 0.10773482173681259 0.01547774113714695 -0.10244816541671753 -0.09952972084283829 -0.08562912791967392 0.16644036769866943 0.06916473060846329 -0.254385769367218 -0.2285810112953186 -0.0012363526038825512 -0.09735390543937683 0.20103144645690918 0.03104798123240471 0.27270904183387756 0.04195667430758476 0.042798787355422974 -0.057810910046100616 0.05021565034985542 0.004738841205835342 -0.028028422966599464 0.1795826554298401 0.08462096750736237 -0.017368357628583908 0.0040982747450470924 -0.1261863112449646 0.3704948127269745 -0.18628717958927155 0.08308602124452591 -0.21951094269752502 -0.22791317105293274 -0.1784617006778717 -0.014135832898318768 -0.0426943376660347 0.023363512009382248 -0.1144009456038475 -0.02556396648287773 
0.23084285855293274 0.07552401721477509 -0.12664292752742767 0.11420253664255142 0.11723268032073975 0.28247833251953125 0.02278881147503853 0.04301699250936508 -0.12286505103111267 0.047479767352342606 -0.18565228581428528 0.09547757357358932 -0.22127695381641388 -0.024087071418762207 0.1965000182390213 -0.14996248483657837 -0.01969672366976738 -0.13559822738170624 0.07514028251171112 -0.10125676542520523 0.17017298936843872 0.04333140701055527 0.07978975027799606 0.21360547840595245 0.06213311851024628 0.2582259774208069 -0.06418914347887039 -0.2586554288864136 -0.06072468310594559 0.028366584330797195 -0.09818190336227417 0.013157778419554234 -0.09385976195335388 0.08756256103515625 -0.11114461719989777 -0.2895311117172241 -0.29030531644821167 0.31968218088150024 -0.11174428462982178 -0.16739800572395325 -0.030733780935406685 -0.13653545081615448 -0.1851276010274887 0.02447548136115074 0.011610154993832111 0.03440585359930992 -0.11924459040164948 0.04299800843000412 -0.15082643926143646 0.0017719920724630356 0.03686242923140526 -0.039957646280527115 -0.08740542083978653 0.0766996368765831 -0.015964524820446968 -0.24247154593467712 -0.03783589228987694 0.23745009303092957 -0.15963120758533478 -0.1606667935848236 -0.0205010324716568 0.14282886683940887 -0.07501222938299179 0.01471281610429287 -0.1035601794719696 0.2496873438358307 -0.11828569322824478 -0.012398192659020424 0.04930134862661362 0.13620774447917938 -0.016530334949493408 -0.14237958192825317 -0.005416311789304018 -0.26404744386672974 -0.09649184346199036 -0.12399356812238693 -0.19897934794425964 0.03906438872218132 0.43591243028640747 -0.2246163785457611 -0.08240187168121338 0.19052277505397797 0.01063261367380619 -0.11623230576515198 0.056611087173223495 0.04806520789861679 0.08975978195667267 -0.06540916115045547 0.06619995087385178 -0.09172868728637695 -0.1570862978696823 0.15566907823085785 -0.1037919744849205 0.06510427594184875 -0.07432135194540024 -0.16166312992572784 -0.27785077691078186 0.022655434906482697 -0.0080540981143713 0.21213142573833466 -0.13169868290424347 0.12974666059017181 0.11556915938854218 0.07302024960517883 -0.0155480382964015 -0.04033688083291054 -0.05010170489549637 -0.12140773236751556 0.05687747895717621 -0.3514275550842285 0.02911831997334957 0.1121935173869133 0.19268976151943207 -0.09150031954050064 0.18132618069648743 -0.11932551115751266 0.06528890877962112 -0.10209695994853973 0.13271920382976532 -0.1578119546175003 
0.07143306732177734 -0.01491736900061369 -0.2018802911043167 0.017224479466676712 -0.10044247657060623 0.1816091686487198 -0.05930110067129135 -0.13574539124965668 -0.12398244440555573 0.020474731922149658 0.15805839002132416 -0.058322906494140625 -0.09063975512981415 -0.24282987415790558 0.034875642508268356 -0.11792214214801788 0.009733734652400017 -0.04363003745675087 -0.10794933885335922 0.10818235576152802 -0.15572848916053772 0.15582884848117828 -0.12224166840314865 0.030503293499350548 0.05033694580197334 0.1219375729560852 0.13989587128162384 0.08780933916568756 0.06355107575654984 -0.13896812498569489 0.145003080368042 0.06560090184211731 0.1491413116455078 -0.09992418438196182 0.04200335592031479 0.13243985176086426 0.15472489595413208 0.31585243344306946 0.09866971522569656 0.08855511248111725 0.1889914870262146 0.027110513299703598 -0.165627583861351 -0.19119469821453094 -0.06462583690881729 -0.17814812064170837 -0.08909201622009277 -0.07943432033061981 0.06015491113066673 -0.29334181547164917 0.07390748709440231 0.23008736968040466 0.06488224118947983 0.07786829024553299 -0.01065823808312416 -0.062419600784778595 -0.12130167335271835 -0.12250982224941254 -0.046974848955869675 -0.3050767779350281 0.040026284754276276 0.1099608838558197 0.10696069151163101 0.0079569760710001 -0.28868257999420166 0.19122657179832458 0.0875929445028305 -0.0720684677362442 -0.029290389269590378 0.09404857456684113 -0.24232526123523712 -0.24173803627490997 -0.005501306615769863 -0.21842120587825775 -0.02831059694290161 0.0624048076570034 -0.20580340921878815 -0.44425156712532043 0.09681624174118042 0.22063489258289337 -0.017714152112603188 0.14009830355644226 -0.03951752185821533 0.026181641966104507 -0.08417555689811707 0.17652441561222076 0.09057597815990448 -0.07428800314664841 -0.06951388716697693 -0.039448026567697525 -0.05878350883722305 -0.14346690475940704 -0.23657765984535217 0.10781828314065933 0.014948822557926178 -0.04224656894803047 -0.0057572731748223305 -0.27475816011428833 -0.20280475914478302 0.022186342626810074 -0.38871586322784424 0.08648577332496643 -0.16201183199882507 0.26511481404304504 -0.18538594245910645 -0.07572116702795029 0.01786070503294468 0.16467075049877167 0.050573598593473434 -0.28868672251701355 0.17128391563892365 -0.2410493642091751 0.02603917568922043 0.042181868106126785 0.006741252727806568 -0.05221535265445709 0.09927588701248169 0.11897462606430054 -0.16844135522842407 -0.01976022869348526 
0.10716740041971207 0.10753306746482849 -0.09543955326080322 -0.009735292755067348 -0.20068834722042084 -0.14674344658851624 0.011970859952270985 -0.17439493536949158 -0.03488548845052719 -0.026972312480211258 -0.17011119425296783 -0.1118764877319336 -0.039333805441856384 -0.06450574100017548 -0.11126097291707993 0.06345674395561218 0.024653350934386253 0.08934467285871506 -0.024619288742542267 -0.014392571523785591 0.04504134878516197 0.04082036018371582 0.03355657309293747 -0.18083398044109344 -0.07790789008140564 -0.08727157860994339 -0.10217707604169846 0.1946951150894165 -0.1777053326368332 0.12503241002559662 0.11209756880998611 0.013843880966305733 0.13801322877407074 0.09817076474428177 -0.07869789749383926 0.08156003057956696 -0.17669636011123657 0.041271381080150604 -0.10502246767282486 -0.13875404000282288 0.11833176016807556 -0.11970672756433487 0.11544009298086166 0.023675192147493362 -0.18264737725257874 -0.0034982359502464533 0.06852877885103226 0.07031317055225372 0.11985030770301819 -0.04603083059191704 -0.04483063891530037 -0.05315549671649933 -0.05907189100980759 -0.14080435037612915 -0.22863145172595978 -0.11192673444747925 -0.24166570603847504 0.17686855792999268 0.019289260730147362 -0.202797532081604 -0.08672797679901123 -0.0705500915646553 -0.11738614737987518 0.06740520894527435 -0.152768075466156 -0.17094168066978455 0.03623418137431145 -0.0877256840467453 -0.21011048555374146 0.014070560224354267 0.0942349061369896 -0.11137320846319199 -0.05162970721721649 -0.09662547707557678 -0.16639694571495056 0.08857874572277069 -0.06096237152814865 0.04920690506696701 0.020921384915709496 0.07762225717306137 -0.19295617938041687 -0.057910364121198654 -0.15893925726413727 -0.06694167107343674 -0.17337976396083832 -0.05451509729027748 0.08919427543878555 -0.19865165650844574 -0.015186027623713017 -0.10084637999534607 0.0020808419212698936 -0.11935131996870041 -0.184901624917984 0.007946956902742386 -0.09642083197832108 -0.05388006940484047 -0.05195390805602074 0.02816225402057171 0.019896117970347404 0.018364183604717255 -0.03812846541404724 -0.19286294281482697 0.011263828724622726 0.06085185334086418 -0.14065487682819366 0.09746284782886505 0.09833577275276184 0.020392315462231636 0.046885330229997635 -0.012840141542255878 0.1088373139500618 -0.14379985630512238 0.1549292653799057 -0.010238723829388618 0.051728907972574234 0.0065049841068685055 -0.21833515167236328 0.01904909498989582 0.04938913881778717 -0.13745084404945374 
-0.28507113456726074 -0.13414381444454193 0.11010270565748215 0.04560447484254837 -0.012049921788275242 0.02870362438261509 -0.08606082201004028 -0.00603982899338007 0.07951655983924866 -0.28027644753456116 0.363725483417511 -0.037950463593006134 0.07181106507778168 -0.13006216287612915 -0.024412978440523148 0.18220190703868866 0.17143656313419342 0.054073695093393326 0.05790027976036072 -0.1585511863231659 0.13568325340747833 -0.16644656658172607 0.13337215781211853 -0.21950876712799072 0.09741126000881195 -0.044836096465587616 0.021802427247166634 0.29066601395606995 0.12004483491182327 0.06711462140083313 0.0676586776971817 -0.12622816860675812 -0.13804659247398376 -0.035037554800510406 -0.10115303844213486 0.05918842926621437 0.010052017867565155 -0.2685074210166931 0.020213913172483444 0.06527669727802277 0.010312213562428951 0.012038670480251312 -0.09036563336849213 0.17920896410942078 -0.05779653415083885 -0.15280115604400635 0.06785429269075394 -0.4198112189769745 -0.05840352177619934 0.10487727075815201 0.09383463859558105 0.3001564145088196 0.015843020752072334 -0.3738761842250824 -0.028498806059360504 0.12294259667396545 0.14482778310775757 0.06843147426843643 0.11735004186630249 0.03223951905965805 0.16039185225963593 0.0011426485143601894 0.12826235592365265 0.07924525439739227 0.20857945084571838 0.06859255582094193 0.22529885172843933 0.08473528176546097 -0.08072414994239807 -0.12329202890396118 -0.045203596353530884 -0.022175872698426247 0.20376405119895935 0.19180932641029358 0.055692076683044434 -0.04437240585684776 0.17234066128730774 0.16631846129894257 -0.04524434730410576 -0.22013422846794128 0.012172490358352661 0.11066117137670517 0.1543104350566864 -0.09316253662109375 -0.11996513605117798 -0.2388639897108078 -0.09872883558273315 0.16241975128650665 0.037666041404008865 0.1205327957868576 0.04113896191120148 0.13288746774196625 0.21968263387680054 -0.03047010488808155 0.07687665522098541 0.11883544921875 0.1779722273349762 -0.21921244263648987 0.2775759994983673 -0.14581407606601715 0.01876198686659336 -0.0942346379160881 0.19706940650939941 -0.16489550471305847 0.14414332807064056 -0.19112998247146606 0.15032793581485748 0.08940628170967102 -0.0020476533100008965 0.050599489361047745 0.015288041904568672 0.06893885880708694 0.17814016342163086 -0.01749621145427227 -0.06421241164207458 0.3277360498905182 -0.20734862983226776 0.042960260063409805 -0.17629951238632202 0.22300414741039276 
0.13170918822288513 -0.06506557017564774 -0.09455341845750809 -0.047089189291000366 0.1357346922159195 -0.10038667917251587 -0.07321278750896454 0.21248400211334229 -0.21876662969589233 0.12176276743412018 0.030066581442952156 0.31807324290275574 -0.19679862260818481 0.13314573466777802 0.20478489995002747 -0.22510159015655518 0.17094343900680542 -0.27004095911979675 0.062013331800699234 -0.07838187366724014 0.12859414517879486 -0.04161377251148224 0.12690891325473785 -0.07252810895442963 0.033762816339731216 -0.12096363306045532 -0.12995645403862 -0.22681744396686554 0.1728285849094391 0.007292057853192091 -0.24793416261672974 -0.19249749183654785 0.024165930226445198 0.11665050685405731 -0.008270065300166607 -0.18660016357898712 -0.2757258415222168 0.2657563090324402 -0.12324735522270203 -0.05540639907121658 0.07443393021821976 0.07048118114471436 -0.04712639003992081 0.0755699872970581 0.09206795692443848 0.23218923807144165 0.09149095416069031 0.24733877182006836 -0.09769627451896667 0.13189519941806793 0.0004396774456836283 -0.12383770942687988 -0.04164612293243408 -0.28108906745910645 -0.02972978539764881 -0.12627479434013367 0.18340453505516052 0.08786113560199738 -0.05353568121790886 0.03620725870132446 -0.08772572129964828 -0.20194470882415771 -0.10276662558317184 -0.11078425496816635 -0.06913529336452484 -0.14381703734397888 0.16732291877269745 -0.05306655541062355 0.09354887157678604 0.12830102443695068 0.04201946407556534 0.08352894335985184 0.500342845916748 -0.17629297077655792 -0.039076488465070724 -0.10629114508628845 -0.19532431662082672 -0.046667974442243576 0.07542089372873306 -0.23373916745185852 -0.007906414568424225 0.02810986153781414 0.22871264815330505 -0.2124650627374649 -0.011047187261283398 0.04193657264113426 0.006597002036869526 0.05700875446200371 0.062213797122240067 -0.05937665328383446 -0.07228411734104156 0.1354547142982483 0.14619843661785126 -0.20683223009109497 0.04780317842960358 -0.19170312583446503 0.007394756656140089 -0.07315690815448761 0.190121129155159 0.20685924589633942 -0.17002089321613312 0.27619075775146484 0.056368619203567505 0.0777941569685936 0.04436008632183075 0.13346543908119202 -0.2854987382888794 -0.11446084827184677 -0.01219006348401308 -0.10081133246421814 -0.10397614538669586 0.043350737541913986 0.03081151843070984 0.194697305560112 -0.026168251410126686 0.006657399702817202 0.22126325964927673 -0.24506722390651703 -0.09129633009433746 0.11409476399421692 
-0.02295660227537155 0.046941474080085754 -0.10297887772321701 -0.00810874905437231 0.13013792037963867 -0.17045627534389496 -0.04281438887119293 0.012874712236225605 0.03668482229113579 0.1554718166589737 -0.049695372581481934 -0.2831852436065674 -0.0772632583975792 0.04168446362018585 -0.0358581580221653 0.2607695758342743 -0.16778957843780518 0.2117173969745636 -0.02457333728671074 -0.06366854161024094 -0.10280918329954147 -0.0011621582088992 -0.04338441789150238 0.12013953179121017 0.12997761368751526 0.2382858395576477 -0.029779525473713875 0.3228578269481659 -0.13919562101364136 -0.005154377780854702 0.14554756879806519 0.1930845081806183 0.011566300876438618 -0.0002549769706092775 -0.03268875926733017 0.18359272181987762 0.2176380753517151 0.12296178191900253 -0.005496561992913485 -0.027348220348358154 0.12989038228988647 -0.04560182988643646 0.1700114756822586 0.10369418561458588 -0.11810243874788284 -0.17444907128810883 0.06028874218463898 -0.00822635181248188 0.041402366012334824 -0.02442997694015503 0.10876995325088501 0.07119650393724442 0.12126252055168152 0.0970819890499115 0.01554898265749216 0.0675463005900383 0.0012226272374391556 0.25906994938850403 -0.10275237262248993 -0.2281494289636612 -0.028262289240956306 0.12126579880714417 -0.28715232014656067 0.1643684059381485 0.0471017062664032 0.2812305688858032 0.12706857919692993 0.12318449467420578 0.12136302143335342 0.08220990002155304 0.2039872705936432 0.061426423490047455 -0.27397099137306213 0.062346749007701874 -0.1642088145017624 0.2464413195848465 0.10617814213037491 -0.08569229394197464 0.0015869418857619166 0.31442269682884216 0.02663644403219223 0.10018058121204376 0.030385827645659447 0.08372495323419571 0.058725278824567795 -0.05438218265771866 -0.004057939630001783 -0.14613182842731476 0.0953029990196228 0.09705668687820435 0.08789055794477463 -0.11946269124746323 -0.14344987273216248 0.1303849220275879 0.07004663348197937 0.12761391699314117 0.050317540764808655 0.2118968963623047 -0.36153626441955566 0.07397650182247162 0.21769438683986664 0.08641274273395538 0.2024686634540558 0.012953832745552063 -0.2109515219926834 0.035247091203927994 -0.10530407726764679 0.012890314683318138 0.18693168461322784 0.22164860367774963 -0.053804606199264526 -0.15900830924510956 -0.11282072961330414 -0.08102472126483917 0.10044640302658081 0.11801636964082718 0.0370020717382431 0.10634162276983261 0.21369141340255737 0.06309403479099274 
