-0.07676760107278824 0.008524938486516476 0.002125280210748315 -0.0691409558057785 0.014568415470421314 0.16201886534690857 0.04472135379910469 0.03435729816555977 0.1264658272266388 0.06107957288622856 0.06399479508399963 -0.06052204966545105 -0.04763426259160042 -0.030874190852046013 -0.13370315730571747 0.07763756811618805 0.12413647770881653 -0.24579723179340363 0.08821813762187958 0.003414758248254657 -0.20858871936798096 -0.09526431560516357 -0.12110903114080429 -0.06809969246387482 -0.12059450149536133 -0.03155640512704849 0.004340361803770065 -0.047696154564619064 -0.030221158638596535 0.23349347710609436 -0.052777621895074844 0.005980822257697582 0.21892522275447845 0.04394516721367836 -0.09668149799108505 -0.0666087195277214 -0.04644710198044777 0.041517484933137894 0.0212806798517704 0.10007231682538986 -0.05852687358856201 0.20469819009304047 -0.0495031401515007 0.001545820152387023 0.18637296557426453 -0.12852105498313904 -0.05456864461302757 -0.020918743684887886 0.14691774547100067 0.029704635962843895 -0.17065057158470154 -0.17513152956962585 -0.05028391629457474 -0.188926562666893 0.06914638727903366 0.10701089352369308 0.1061830148100853 -0.13382774591445923 -0.12891419231891632 -0.14176519215106964 0.21068494021892548 0.14678747951984406 -0.12458760291337967 0.020914200693368912 -0.03542063757777214 0.11180753260850906 0.05565331503748894 -0.08862105756998062 0.08729865401983261 -0.1811024695634842 0.11399137228727341 0.08016771823167801 0.09919103980064392 0.08891037106513977 0.028261715546250343 -0.11245869845151901 0.18796581029891968 0.05341226980090141 -0.15412403643131256 -0.0029422829393297434 0.16870181262493134 0.058922503143548965 0.061890169978141785 0.10847940295934677 