-0.3973832428455353 0.19218285381793976 0.12399786710739136 -0.20175977051258087 -0.882433295249939 0.12298594415187836 -0.34344029426574707 0.08283308893442154 -0.015559669584035873 -0.15656256675720215 -0.020860129967331886 -0.05122116580605507 0.11493238061666489 0.06490187346935272 0.010254652239382267 -0.026860782876610756 -0.08307917416095734 -0.0107880849391222 -0.04484618827700615 -0.22986337542533875 -0.27355504035949707 -0.028576916083693504 0.024878403171896935 0.23950521647930145 -0.15352250635623932 -0.11368913948535919 -0.40734192728996277 0.06645572185516357 0.04895198717713356 -0.1475280523300171 -0.0863092690706253 -0.10747608542442322 -0.16937710344791412 0.22722414135932922 -0.0027011248748749495 -0.12305135279893875 0.020183149725198746 -0.20129281282424927 -0.21471737325191498 0.14495760202407837 0.2052590548992157 -0.08577019721269608 -0.3453240394592285 -0.2950952351093292 -0.1741514354944229 -0.05367264151573181 0.16950058937072754 0.06972005218267441 0.14298291504383087 -0.11612637341022491 -0.18074187636375427 -0.3935777544975281 -0.20678077638149261 -0.0018736599013209343 -0.26113584637641907 0.11046285927295685 -0.1642436981201172 -0.12515240907669067 -0.13308152556419373 0.03995581343770027 0.19202060997486115 0.13217467069625854 -0.2133752703666687 0.19683030247688293 -0.00013848947128280997 -0.26124435663223267 -0.117767333984375 -0.22811955213546753 -0.4215564727783203 -0.47568610310554504 0.21274086833000183 -0.2271248698234558 -0.1817178577184677 -0.2905047535896301 0.24079599976539612 0.08277340978384018 -0.2935656011104584 0.16019095480442047 0.009009160101413727 0.08211357891559601 0.03232411667704582 -0.1536487340927124 -0.14125365018844604 -0.19488009810447693 
-0.04040639102458954 -0.25691020488739014 0.1554315686225891 0.17776526510715485 -0.15857824683189392 -0.1591443568468094 0.27949976921081543 -0.2631426453590393 0.14106877148151398 -0.08294440060853958 -0.4319387972354889 0.060275692492723465 0.1142573356628418 -0.2170695662498474 0.15859563648700714 0.04854139685630798 0.05655624717473984 0.013933206908404827 0.13292665779590607 -0.29462456703186035 0.10819881409406662 -0.09376011043787003 -0.14259222149848938 0.06538644433021545 -0.19251450896263123 0.00015356746735051274 -0.21287943422794342 0.07020733505487442 0.12925007939338684 0.09861487150192261 -0.29472729563713074 0.06443339586257935 -0.28328660130500793 0.22065752744674683 -0.055205050855875015 -0.31364309787750244 -0.11777657270431519 0.10878236591815948 -0.030562128871679306 0.07709114998579025 -0.09526944160461426 -0.22001543641090393 -0.18363352119922638 0.14725179970264435 0.030416591092944145 -0.044029127806425095 -0.007932702079415321 -0.26241621375083923 -0.3511105179786682 -0.02109803631901741 -0.1327085644006729 0.19276896119117737 0.21131953597068787 0.12986384332180023 0.1827830821275711 0.17126592993736267 0.07887836545705795 -0.31613773107528687 -0.08553479611873627 -0.25332048535346985 -0.1019810140132904 -0.07252328097820282 0.1353386491537094 -0.34838932752609253 0.06869655102491379 0.0268657635897398 -0.14699870347976685 0.05022202059626579 0.06413578987121582 -0.22741486132144928 0.028009291738271713 0.07796338200569153 -0.21742673218250275 0.015147875063121319 0.04550649970769882 -0.022754350677132607 0.04179229587316513 -0.34212324023246765 0.0036186357028782368 0.015450331382453442 -0.13071699440479279 -0.0018785756547003984 -0.4407079219818115 -0.21817737817764282 
0.04895799607038498 -0.009902037680149078 0.11899649351835251 -0.12498707324266434 -0.22850939631462097 -0.035042230039834976 -0.015742110088467598 -0.11460649967193604 0.05631123483181 0.04997242987155914 0.13063427805900574 0.11752524971961975 0.0959588959813118 0.11114338040351868 0.1409967690706253 -0.04682409018278122 0.0764673575758934 -0.11570120602846146 -0.2526870369911194 0.08213338255882263 -0.10209394246339798 0.051776252686977386 -0.1680111140012741 -0.1739274114370346 -0.02293040044605732 -0.23067983984947205 0.13384370505809784 0.10242946445941925 0.15773147344589233 -0.07994190603494644 0.009305647574365139 0.20798011124134064 -0.15465152263641357 -0.3354896008968353 0.09249157458543777 0.057257093489170074 -0.09403297305107117 -0.20025008916854858 -0.30413708090782166 0.07344454526901245 -0.11810190975666046 0.13558179140090942 0.06041204556822777 0.04025628790259361 -0.388088196516037 0.1502125859260559 -0.20664721727371216 -0.17461001873016357 0.0298258438706398 -0.01914699375629425 -0.06090705469250679 -0.016942223533988 0.01046602614223957 0.08469096571207047 -0.19113589823246002 -0.20566052198410034 -0.45093831419944763 0.016953764483332634 0.03248881921172142 0.1157694011926651 -0.1052161306142807 -0.1438893973827362 0.02284407615661621 0.1399003565311432 0.1051490381360054 -0.0345948301255703 0.13103318214416504 0.13298924267292023 -0.09559279680252075 0.09633436053991318 -0.15085387229919434 0.0730818435549736 -0.21646828949451447 -0.3623204231262207 -0.17724302411079407 -0.27240821719169617 0.09382733702659607 -0.08120086044073105 -0.12973026931285858 0.007976023480296135 -0.2690325081348419 -0.12067586928606033 -0.09159831702709198 -0.3133730888366699 
-0.17389991879463196 0.1927744448184967 -0.1770494133234024 0.01118612289428711 0.17760609090328217 -0.40369027853012085 -0.21446701884269714 0.022662023082375526 -0.286283016204834 0.06750880181789398 -0.23515285551548004 -0.0812109187245369 0.004548568278551102 -0.16505077481269836 -0.0009148760000243783 -0.021832289174199104 -0.17257456481456757 -0.06423133611679077 0.15668906271457672 0.11618144810199738 -0.05403450131416321 0.002035201760008931 -0.07234794646501541 -0.12595175206661224 -0.15428833663463593 -0.15583312511444092 0.09943965077400208 0.11004278063774109 0.12785200774669647 0.14073872566223145 -0.006511348765343428 -0.27640485763549805 0.11546753346920013 0.02998831868171692 -0.19577960669994354 -0.13146504759788513 0.00669399369508028 0.11500705778598785 -0.13048310577869415 0.032533198595047 -0.19433602690696716 0.0947413444519043 0.1274058222770691 -0.31646034121513367 0.126164048910141 0.018498409539461136 0.0790635347366333 -0.3256639838218689 0.062526635825634 0.01689847558736801 -0.08749755471944809 0.0629110261797905 -0.3399367928504944 -0.24873115122318268 -0.16603539884090424 -0.18180300295352936 -0.24442753195762634 0.2588311731815338 0.03527698293328285 -0.15017397701740265 0.161563903093338 0.11405045539140701 -0.2023792862892151 -0.17099905014038086 -0.009470331482589245 -0.26230859756469727 -0.2714715003967285 0.1351993829011917 0.0812356173992157 -0.2020210474729538 -0.2374742478132248 0.05731455609202385 -0.26123425364494324 0.10277523100376129 -0.3452560305595398 0.02476632408797741 0.1322115957736969 0.14325180649757385 -0.012338814325630665 0.055810537189245224 0.22608327865600586 0.18662694096565247 -0.2685641050338745 -0.20599134266376495 
-0.7548836469650269 -0.05515198037028313 0.09733733534812927 -0.0824914202094078 -0.10549182444810867 0.09926705062389374 0.21242517232894897 0.1601341813802719 0.10495814681053162 -0.028601137921214104 -0.004837404005229473 0.13450440764427185 -0.052416540682315826 0.025313742458820343 -0.18917764723300934 0.034846626222133636 -0.10529397428035736 -0.07265428453683853 0.12416663020849228 0.006124355364590883 -0.20133255422115326 -0.09375454485416412 -0.22307109832763672 -0.21839073300361633 0.11007426679134369 0.08864814788103104 -0.27290183305740356 -0.27199333906173706 -0.12611615657806396 -0.0628473088145256 0.029804440215229988 -0.07441811263561249 0.11804621666669846 -0.37728574872016907 0.11919867247343063 0.05674390867352486 -0.20422187447547913 -0.10567798465490341 0.1937795877456665 -0.22012029588222504 -0.3948974013328552 -0.29355546832084656 -0.28343021869659424 0.05995338782668114 -0.09537807106971741 0.026708917692303658 0.08259599655866623 -0.08694630861282349 -0.0805225595831871 0.038411401212215424 0.15942707657814026 -0.16808906197547913 0.03185275197029114 -0.06500305980443954 0.03341042995452881 -0.011270439252257347 -0.06008632853627205 0.07178529351949692 -0.23125194013118744 0.06839122623205185 -0.584659218788147 -0.4607607424259186 0.15448692440986633 -0.017697496339678764 -0.12205561995506287 -0.0653982162475586 0.1968936324119568 -0.20270705223083496 0.04379720985889435 0.04244055971503258 0.06283339112997055 -0.0921693965792656 -0.004167306702584028 -0.027613947167992592 -0.06792748719453812 0.05303351953625679 0.034515030682086945 -0.0748797282576561 0.023947101086378098 -0.2114163041114807 -0.008902784436941147 -0.004383048042654991 0.07724934071302414 0.1831626147031784 
0.15948887169361115 0.11798172444105148 -0.13158521056175232 0.11575619131326675 -0.16329890489578247 -0.08090245723724365 -0.2779605984687805 0.04908264800906181 -0.3368762135505676 0.14473094046115875 -0.1713426113128662 -0.20259632170200348 -0.08125698566436768 -0.2800463140010834 -0.2596965730190277 0.09694512188434601 0.09748324006795883 -0.097989022731781 0.04292798042297363 -0.16222813725471497 -0.551164448261261 -0.08249839395284653 -0.1442694067955017 -0.23310454189777374 -0.07929231226444244 0.10073284059762955 0.058150239288806915 0.029332194477319717 -0.015299576334655285 -0.1526748239994049 0.07791157811880112 0.12149515748023987 0.10372620075941086 -0.06961600482463837 0.03001307137310505 0.08899831771850586 -0.15358133614063263 0.13918177783489227 -0.1164947971701622 0.07432454079389572 0.1332741379737854 0.05024288594722748 -0.44340765476226807 -0.3001565933227539 0.15671034157276154 -0.194661945104599 -0.45035111904144287 0.08549299836158752 -0.12991000711917877 -0.3506028354167938 -0.17088168859481812 0.14814142882823944 0.14717523753643036 0.05359077453613281 -0.3218076825141907 -0.022627688944339752 0.19409911334514618 -0.1877695620059967 0.11966599524021149 -0.16582895815372467 0.12915338575839996 0.020377345383167267 0.014892134815454483 -0.09948168694972992 -0.25089967250823975 0.027148809283971786 -0.21294653415679932 -0.003777453675866127 0.059645332396030426 -0.3074299395084381 -0.04800952598452568 -0.23206554353237152 0.16815876960754395 -0.06527669727802277 -0.2638324201107025 0.021197304129600525 -0.1984548419713974 0.1755620837211609 -0.05506744235754013 -0.06503479927778244 0.09727206081151962 -0.13584394752979279 0.14145442843437195 -0.22386310994625092 
-0.15822091698646545 -0.07904116809368134 0.08835627138614655 0.0836334303021431 -1.0502849817276 0.1832594871520996 -0.11216981709003448 -0.1751032918691635 -0.09258374571800232 -0.08331317454576492 -0.18372595310211182 -0.15388362109661102 -0.29127880930900574 -0.17111040651798248 0.10058963298797607 -0.0811326801776886 -0.25546857714653015 -0.3479803204536438 0.1630699187517166 0.09198206663131714 -0.21505750715732574 -0.17688757181167603 -0.07398383319377899 -0.23728245496749878 -0.02395803853869438 0.1415504813194275 -0.027019884437322617 0.11671420931816101 -0.06283673644065857 -0.18199346959590912 -0.29722726345062256 -0.21059538424015045 -0.2723484933376312 0.11694873869419098 0.049857743084430695 -0.111517034471035 -0.0468742735683918 -0.43291693925857544 -0.03096463717520237 0.13952934741973877 -0.05510847270488739 -0.20989051461219788 -0.05845208838582039 -0.09690562635660172 -0.02934075891971588 -0.07282618433237076 0.028974361717700958 0.0865498036146164 -0.14215636253356934 -0.4607193171977997 -0.049179576337337494 0.05681397393345833 -0.09054934233427048 0.04340210184454918 -0.007973368279635906 -0.20644202828407288 0.15554600954055786 -0.06823644787073135 -0.28903013467788696 -0.20526759326457977 0.12966516613960266 -0.06838800013065338 -0.1439526528120041 0.16440586745738983 -0.1388215720653534 0.14076922833919525 -0.09537217766046524 0.052614565938711166 -0.10458766669034958 0.020176446065306664 -0.19495542347431183 -0.2342313975095749 0.1904653012752533 -0.48893773555755615 0.042037300765514374 -0.08585155755281448 0.013414967805147171 -0.1883298009634018 -0.07044841349124908 0.046474311500787735 -0.26047924160957336 0.24139268696308136 0.019368603825569153 -0.10373830795288086 
-0.15683145821094513 -0.267373651266098 -0.3448299169540405 -0.2392982393503189 0.06650206446647644 -0.17965790629386902 -0.1078810915350914 -0.21599505841732025 -0.08237334340810776 0.08892624080181122 -0.013214566744863987 0.130186527967453 0.10895174741744995 0.14518697559833527 -0.20536960661411285 -0.05926104262471199 0.048890989273786545 0.06357545405626297 0.005650932900607586 -0.030961165204644203 -0.3521669805049896 -0.2887440025806427 0.13605627417564392 0.10901494324207306 -0.20325148105621338 -0.18311390280723572 -0.12696832418441772 0.15053540468215942 0.1478704810142517 -0.10562079399824142 -0.3493953049182892 0.11935052275657654 0.15469464659690857 0.06846120208501816 0.10575462132692337 -0.026690619066357613 -0.060005106031894684 0.09410539269447327 0.057603299617767334 -0.296491801738739 0.07088841497898102 0.11196359246969223 -0.25369420647621155 0.2155919075012207 -0.274070680141449 -0.09790617227554321 -0.22980423271656036 0.25117671489715576 -0.059104084968566895 0.04223097115755081 -0.031032497063279152 -0.05586446821689606 -0.18336151540279388 -0.15003611147403717 0.12039925903081894 -0.0011310041882097721 -0.3628159165382385 -0.0785282626748085 0.054187335073947906 -0.2417108416557312 -0.2499905228614807 -0.08082123100757599 -0.1599356234073639 -0.4824996590614319 0.11672557890415192 -0.30747705698013306 -0.21838222444057465 -0.22467465698719025 -0.1289295107126236 -0.12654075026512146 0.029183007776737213 0.11792527884244919 0.05974728241562843 0.09682872146368027 -0.1573140174150467 -0.01987789012491703 0.13254044950008392 -0.11726608872413635 -0.13538877665996552 0.037863392382860184 -0.2780132293701172 0.00039860300603322685 -0.10942631959915161 0.1441965252161026 
-0.1797383725643158 0.06558004021644592 -0.11934559792280197 -0.006185389589518309 -0.14363808929920197 0.16235846281051636 -0.09218730032444 8.46010516397655e-05 0.028880048543214798 -0.24365809559822083 0.03407596796751022 -0.2657831609249115 -0.08670686185359955 -0.15098853409290314 -0.06963836401700974 -0.025571877136826515 0.18020854890346527 -0.1301390528678894 0.043073732405900955 0.029330579563975334 -0.11433340609073639 -0.23840974271297455 -0.004010442178696394 -0.09241518378257751 -0.043224792927503586 -0.1667228639125824 0.031492166221141815 -0.310072660446167 -0.29652661085128784 0.1727021336555481 -0.11765977740287781 0.012042603455483913 0.14708086848258972 -0.045967113226652145 -0.0977560505270958 -0.11145763844251633 0.038774169981479645 -0.08319061994552612 -0.1319933831691742 0.12411532551050186 -0.17639078199863434 0.2415829598903656 -0.052447158843278885 -0.04367074370384216 0.06939006596803665 -0.24072541296482086 -0.32666346430778503 -0.5106643438339233 0.1864190697669983 -0.09797140210866928 -0.137155219912529 -0.3309628963470459 -0.0692228227853775 -0.3103106617927551 0.1840420365333557 0.10512685775756836 0.11649199575185776 -0.06875277310609818 -0.3752448558807373 -0.2114071249961853 0.16412752866744995 0.05494748055934906 -0.36964064836502075 -0.10311330109834671 0.040365543216466904 0.23206909000873566 -0.05265624076128006 -0.024353517219424248 0.16204328835010529 -0.37771230936050415 0.17337451875209808 0.031424835324287415 0.13786236941814423 -0.02463490143418312 0.11351558566093445 -0.181895449757576 0.12354996055364609 0.03377685323357582 -0.014524070546030998 0.09111065417528152 0.056555598974227905 -0.3855217397212982 -0.07165475189685822 0.19144444167613983 
-0.3001076579093933 -0.2384212762117386 -0.15880277752876282 -0.13142205774784088 -0.3737332820892334 -0.13341593742370605 -0.22867093980312347 0.164886474609375 0.09255573898553848 0.07142453640699387 0.11490199714899063 0.054463859647512436 -0.13571980595588684 0.06816229224205017 -0.2837003469467163 -0.05713880807161331 -0.1316877007484436 -0.17368358373641968 -0.21667617559432983 0.08764951676130295 -0.22527873516082764 -0.2302827090024948 -0.36835038661956787 -0.13142074644565582 -0.11282726377248764 0.0706050843000412 -0.19700554013252258 -0.24818506836891174 -0.33747315406799316 0.057070326060056686 0.23125162720680237 -0.24630172550678253 -0.02166990377008915 0.11829962581396103 -0.2734786868095398 -0.525263249874115 -0.013494287617504597 0.11990660429000854 0.043740857392549515 -0.052430734038352966 -0.11117029935121536 0.12763336300849915 -0.04088233411312103 0.10526596009731293 0.08226777613162994 -0.18191173672676086 0.09700577706098557 -0.10468696057796478 0.09633668512105942 0.127620667219162 -0.12141218781471252 -0.05518265813589096 -0.16342973709106445 -0.18704263865947723 0.16530586779117584 0.10928975045681 0.06205116957426071 -0.13412664830684662 0.02219746820628643 0.02155419811606407 -0.2313070297241211 -0.0925021693110466 0.19240029156208038 -0.10194577276706696 -0.09901119023561478 -0.21915920078754425 0.1391657441854477 -0.17428621649742126 0.1401388943195343 -0.7336809635162354 -0.10866863280534744 -0.09956830739974976 0.04455944895744324 0.17362380027770996 -0.01006435789167881 -0.06285889446735382 -0.23552891612052917 -0.10015616565942764 0.03144632279872894 0.07295893132686615 0.09640015661716461 0.18942256271839142 0.03590133413672447 -0.016636734828352928 
