0.2690656781196594 0.25305482745170593 0.13266047835350037 0.09928787499666214 0.07132358103990555 
0.11208537966012955 -0.018766339868307114 -0.1391330361366272 -0.09077442437410355 -0.06553234159946442 
0.046743497252464294 -0.023363035172224045 -0.08452724665403366 0.0589560866355896 0.09973715990781784 
0.1081371009349823 0.026961635798215866 -0.04999396577477455 0.016080282628536224 0.2571052312850952 
0.079234279692173 -0.0571829155087471 -0.127595454454422 -0.042834337800741196 -0.02027156949043274 

-0.14760272204875946 -0.1119336262345314 -0.13582083582878113 -0.23157326877117157 -0.013240454718470573 
-0.026258526369929314 0.07236167043447495 -0.005058606155216694 -0.037564851343631744 0.12981553375720978 
0.13114921748638153 0.15194229781627655 0.002961879363283515 -0.102543905377388 0.08224493265151978 
0.12101027369499207 -0.010214002802968025 0.05355515331029892 -0.0027588612865656614 -0.04732459783554077 
0.23672689497470856 0.09716767817735672 0.00154602387920022 -0.03048032335937023 -0.05115703120827675 

-0.08000415563583374 0.09235759824514389 -0.09728459268808365 -0.12092439085245132 0.0015987054212018847 
-0.024496013298630714 -0.3166225254535675 -0.4457978904247284 -0.3432498574256897 -0.3265182375907898 
-0.15256032347679138 -0.21900413930416107 -0.3430289328098297 -0.3383278250694275 -0.037509985268116 
-0.15018081665039062 -0.08621320873498917 -0.3729386627674103 -0.33427220582962036 0.07832591980695724 
0.0010497551411390305 -0.11757116764783859 -0.16152417659759521 -0.025042688474059105 0.05477679520845413 


