-0.1794745922088623 -0.1403963714838028 -0.05414746329188347 -0.1257581263780594 -0.0348815880715847 
-0.09703675657510757 -0.08600541204214096 -0.03155304491519928 -0.053044822067022324 -0.054665230214595795 
0.16909101605415344 -0.2054959237575531 -0.1182258352637291 -0.05926230922341347 -0.2032940536737442 
0.1685357242822647 -0.17354071140289307 -0.07278469204902649 -0.14778567850589752 0.0728188008069992 
0.15704043209552765 0.055489424616098404 0.17151786386966705 0.07541657984256744 0.06940720230340958 

0.018547847867012024 -0.03882352635264397 -0.12821240723133087 -0.08278905600309372 0.12647277116775513 
0.03945135697722435 -0.02800511196255684 -0.2910845875740051 -0.2586735785007477 -0.17759370803833008 
0.07209239900112152 0.19401048123836517 0.10087873786687851 -0.04559502378106117 -0.026792673394083977 
0.17034435272216797 0.25502151250839233 0.2894258499145508 0.2690768241882324 0.26974692940711975 
-0.15734419226646423 -0.17386245727539062 -0.1250809282064438 -0.02055087499320507 -0.13877475261688232 

-0.12761633098125458 -0.2142871469259262 -0.0859893336892128 0.029981626197695732 -0.025494225323200226 
0.014646653085947037 -0.2643987834453583 0.016506711021065712 -0.021863065659999847 0.00668744882568717 
-0.043965961784124374 -0.26699215173721313 -0.12694372236728668 -0.19469350576400757 -0.15105098485946655 
0.23189468681812286 0.16243737936019897 0.01834947057068348 0.0447661355137825 -0.06932592391967773 
0.2828744053840637 0.020957766100764275 0.06876759976148605 0.25506553053855896 0.21131576597690582 


